%YAML:1.0
my_svm: !!opencv-ml-svm
   svm_type: C_SVC
   kernel: { type:LINEAR }
   C: 2.6699999999999999e+000
   term_criteria: { epsilon:1.1920928955078125e-007, iterations:1000 }
   var_all: 64
   var_count: 64
   class_count: 10
   class_labels: !!opencv-matrix
      rows: 1
      cols: 10
      dt: i
      data: [ 0, 1, 2, 3, 4, 5, 6, 7, 8, 9 ]
   sv_total: 45
   support_vectors:
      - [ -8.18821500e-005, 2.01765870e-004, -6.16788384e-005,
          1.28732237e-004, -4.58816612e-005, 1.83866632e-005,
          -2.62190206e-005, -4.75135384e-005, 9.71763802e-005,
          2.14773128e-004, -3.07020528e-005, 1.32126274e-006,
          -1.22004340e-005, -3.15710313e-005, -9.33345436e-005,
          -3.01472774e-005, -6.34624448e-005, -1.36115792e-004,
          -5.63540561e-006, -7.50392792e-005, 9.01008170e-005,
          1.18642973e-004, 7.31009713e-005, 1.72914864e-004,
          1.64629178e-004, 2.01909497e-005, -3.52316965e-005,
          -5.20048343e-005, 8.80312073e-005, 7.33655834e-005,
          -1.42428953e-005, -6.88382761e-006, 3.82105973e-005,
          -7.98313704e-006, -2.25888034e-005, -1.36485425e-004,
          8.90810843e-005, 1.12124151e-004, 9.09811351e-005,
          1.37716037e-004, -1.56663649e-004, -1.03945669e-004,
          2.15681257e-006, 2.07820676e-006, 4.60914853e-005,
          1.13233589e-004, 1.16027797e-004, 4.76990817e-006,
          2.47910823e-004, 2.76830891e-004, 6.28623238e-005,
          6.09707058e-005, -5.31123842e-005, -5.73051875e-005,
          -6.46090075e-006, -1.91831914e-005, -2.74285885e-005,
          4.37931121e-005, 1.66166719e-004, -4.23016763e-006,
          1.60005857e-005, -8.80005985e-007, 7.53791828e-005,
          4.59448456e-005 ]
      - [ 1.36925431e-004, 5.48664684e-005, 1.57543633e-004,
          -5.38303066e-005, -4.35567235e-005, 2.84726157e-005,
          2.40545014e-005, 1.38249070e-005, 1.44932215e-004,
          1.29446576e-004, -2.90428870e-005, -1.32017303e-005,
          -8.99495062e-005, -1.36987437e-004, -1.05572210e-004,
          -1.63114764e-005, 4.39081487e-005, -2.36452062e-004,
          -1.72501052e-004, -1.10998051e-004, -3.25119618e-005,
          -5.92535107e-005, 1.01101883e-004, 2.26932389e-004,
          3.79138983e-005, -2.53793914e-005, -3.63634826e-005,
          -6.50025977e-005, 2.97430342e-005, -3.84115356e-006,
          -2.41462531e-005, 9.05899360e-005, -4.68969847e-005,
          -3.79157900e-005, -1.00820662e-005, 2.79293345e-005,
          9.65433792e-005, 9.97672541e-005, -4.55081681e-005,
          -5.31118303e-006, -8.28924603e-005, -1.76892689e-004,
          -3.32742820e-005, 1.14215516e-004, 1.11274958e-005,
          3.55113116e-005, 1.12776834e-004, -2.94181918e-005,
          1.26573213e-004, 7.33286943e-005, 7.65695368e-005,
          -5.91394428e-006, -8.67124909e-005, -1.31156645e-004,
          -1.37522729e-004, -1.18467324e-004, -7.71472696e-006,
          3.51941708e-005, 4.93240841e-005, -4.29910287e-005,
          -5.65776900e-005, -4.38065908e-005, -4.96715584e-005,
          5.57032763e-005 ]
      - [ 1.69223509e-004, 8.14832129e-006, 5.96766295e-005,
          1.57673821e-005, 4.22989069e-005, 1.65431229e-005,
          2.32124294e-005, 6.11746436e-005, 6.33583113e-005,
          1.58414114e-004, 1.90401261e-005, -8.80474727e-006,
          -4.78186848e-005, -1.79176306e-004, -1.62195138e-004,
          4.15739814e-005, 8.18130211e-005, -8.32129444e-005,
          -1.75258130e-004, -9.20134407e-005, 1.08808956e-006,
          -9.27428628e-005, 4.88490223e-005, 1.03982791e-004,
          1.79164112e-004, 1.20679921e-004, -7.61639385e-005,
          -9.26042412e-005, 2.46266045e-005, -3.25589972e-005,
          4.86753961e-005, 1.24311628e-004, 2.86403588e-006,
          -1.13234360e-004, -1.81716983e-004, 4.73149958e-005,
          4.11072979e-005, 7.48208549e-005, -3.34599415e-009,
          1.36247845e-005, -1.78862261e-004, -6.73683098e-005,
          -7.77387104e-005, 4.72267457e-005, 1.29790906e-005,
          3.05917856e-005, 1.85283861e-004, 9.19484301e-005,
          4.27483646e-005, 1.15006524e-005, -1.44002988e-005,
          1.28493139e-005, 3.04643527e-005, -4.76218665e-005,
          -1.25290971e-004, -1.02496997e-004, -3.17342419e-005,
          -1.38893272e-004, 4.10425091e-005, -2.25446620e-005,
          -1.12175348e-005, -4.64457880e-005, -6.81182501e-005,
          -2.17303714e-005 ]
      - [ -5.37332307e-005, -4.29703105e-005, -4.96576058e-006,
          5.78496729e-005, 5.63872381e-005, -1.61362303e-004,
          -1.28480475e-004, -1.03437800e-004, 1.44348203e-004,
          7.99565532e-005, 7.14813650e-005, 4.82337055e-005,
          1.19008737e-005, -1.84932633e-005, -5.64274596e-005,
          4.57843598e-005, -6.51429655e-005, -1.00749363e-004,
          -5.90997615e-006, 5.18933120e-005, 5.94456505e-005,
          1.27147330e-004, 4.35935544e-005, 1.35582100e-004,
          7.94267980e-005, -1.04779785e-004, -4.98138907e-005,
          -8.32826336e-005, -2.46405325e-005, -3.90783025e-005,
          1.07219948e-005, 6.62180464e-005, -1.13490976e-004,
          -1.69926570e-004, -7.57383532e-005, -1.36924995e-004,
          9.05211709e-005, 6.07490292e-005, 1.69685329e-004,
          -7.18166802e-006, -1.35060007e-004, -8.33807790e-005,
          -8.57488249e-006, 1.03603124e-004, 1.09721273e-004,
          1.33495414e-004, 1.79421913e-004, -6.50910437e-008,
          1.64014607e-004, 2.36915890e-004, 1.07905078e-004,
          3.29600916e-005, -5.04445015e-005, -1.03564591e-004,
          -1.70153493e-004, 1.33308684e-004, 3.66408567e-005,
          -3.81481041e-005, 1.08880769e-004, -1.43123452e-005,
          -1.26845960e-004, -1.31021254e-004, -1.01047364e-004,
          1.61415173e-005 ]
      - [ 5.99156692e-006, -1.18777916e-006, 8.09622725e-005,
          1.14249872e-006, -1.51748063e-005, -1.02521508e-005,
          -4.65535340e-005, 9.53515519e-006, 1.17623298e-004,
          5.76350285e-005, 7.22818659e-005, -8.72883538e-005,
          6.95586568e-005, -1.05155468e-005, -1.77175534e-004,
          -5.05650132e-005, 3.04308414e-005, -9.88531392e-005,
          -1.30071247e-004, -3.99098426e-005, -2.97082465e-006,
          -1.29278060e-005, 1.30044036e-005, 1.37161565e-004,
          1.61697142e-004, 1.96826913e-005, -1.31497480e-004,
          -1.09279754e-004, -1.91358631e-005, -3.76048374e-005,
          6.00039712e-005, 1.35488546e-004, 7.40123724e-005,
          1.55525940e-005, -5.23991039e-005, -3.55909542e-005,
          -5.14548847e-005, 5.31481019e-005, 2.39569363e-005,
          2.13988678e-004, -6.49370268e-005, -1.06569554e-004,
          -1.54164110e-004, -5.72556310e-005, 5.29926438e-005,
          6.32742012e-005, 1.33554204e-004, 1.79193696e-004,
          -1.09227976e-007, 1.48337203e-004, 4.61424861e-005,
          9.27337751e-005, -5.12106863e-006, -8.60744622e-005,
          -1.01920967e-004, -1.20895747e-004, 3.96732539e-005,
          -7.21720207e-005, 8.95861886e-005, 7.40641844e-005,
          1.05689942e-004, -8.60018990e-005, -8.85225381e-005,
          -2.75732637e-005 ]
      - [ -5.26717486e-005, -4.29077263e-005, 8.93010365e-005,
          -4.41839038e-005, 4.25835933e-005, -4.18249738e-006,
          -1.24467842e-004, -1.07891290e-004, 6.17354162e-005,
          1.12644557e-004, -7.00920064e-005, 3.11677286e-006,
          2.22067698e-004, 7.29778767e-005, 5.06154765e-006,
          7.72629428e-005, -1.19753553e-004, -1.46970662e-004,
          -8.52599696e-005, 8.25935276e-005, 4.25431317e-005,
          3.24717294e-005, 5.03531082e-005, 8.70901713e-005,
          -3.55944176e-005, -2.13997573e-005, -1.23297199e-004,
          -1.32860936e-004, -3.86970059e-005, 2.28330064e-005,
          -1.07648462e-004, -1.57284026e-004, 5.44242648e-005,
          9.97456664e-006, -2.06452445e-004, -9.07751091e-005,
          -1.35057024e-004, 6.82265163e-005, 2.13268009e-004,
          3.90539091e-004, 1.11674257e-004, -7.80397095e-005,
          -5.06782017e-005, 4.65906996e-005, 6.75677074e-005,
          -2.47685803e-005, 2.70630844e-004, 3.02797329e-004,
          6.51442751e-005, 1.24811180e-004, 1.24756465e-004,
          6.88970322e-005, -1.59694391e-005, -9.58652308e-005,
          -5.72037316e-005, -5.31379774e-005, -2.33704523e-005,
          -3.22127089e-005, -1.99718215e-005, 4.78053953e-005,
          -6.50318761e-005, -1.36799033e-004, 2.83232202e-005,
          1.07309184e-004 ]
      - [ 2.52059453e-005, 2.47203775e-006, -6.80893063e-005,
          -5.74073019e-005, -9.23634652e-005, -1.48924382e-005,
          -3.43257998e-005, 3.25774672e-005, 7.49619358e-005,
          5.44878094e-006, 3.99990131e-005, 2.80249296e-005,
          -8.01661299e-005, -1.55728121e-004, -1.38894480e-004,
          6.26604742e-005, 6.48077330e-005, -1.34336646e-004,
          -2.24244213e-005, 2.88260017e-005, 7.89320402e-005,
          1.16381678e-004, 1.01587815e-004, 7.91949351e-005,
          1.01703299e-004, -3.87801483e-005, -1.28021347e-005,
          -4.54967121e-005, 1.17486961e-004, 1.53335786e-005,
          6.82453465e-005, 4.11865913e-005, -6.96776478e-005,
          -8.31726065e-005, -4.36375449e-005, -9.97555544e-005,
          -4.25072685e-005, 5.65597220e-005, 5.19322966e-005,
          -2.60818269e-005, -2.38575885e-004, -1.52532084e-004,
          -6.48854257e-005, 3.47902500e-007, -3.63308718e-005,
          6.42854638e-006, 7.88900070e-005, 4.50505977e-005,
          1.33692272e-004, 1.96107765e-004, 3.29518516e-005,
          4.37987619e-005, 6.66972437e-006, 5.49439847e-006,
          4.94895687e-007, 3.53751875e-006, 1.40046268e-005,
          -1.08715365e-004, 1.69264036e-004, 1.25351537e-004,
          5.76075593e-007, -2.71161789e-005, -3.72408031e-005,
          -6.09830067e-006 ]
      - [ 5.07248806e-005, 7.84607400e-005, 1.70749208e-005,
          -3.49417423e-005, -1.51845397e-005, -1.47943763e-004,
          -5.42386042e-005, -3.89789748e-005, 8.57942041e-007,
          2.42181064e-004, -8.47234987e-005, -1.41204467e-007,
          1.40740804e-005, -1.57889990e-005, -5.90077834e-005,
          -8.34471430e-005, -4.53348439e-005, -1.84960096e-004,
          -1.33536436e-004, 3.74200208e-005, 8.33780650e-005,
          6.63467872e-005, -5.47226273e-006, 9.93393551e-005,
          1.57855655e-004, -4.84844022e-005, -2.11686900e-004,
          -7.91397761e-005, 3.01451782e-005, 2.43443628e-005,
          -6.87253851e-005, 5.50591312e-006, 6.93882248e-005,
          -1.95467335e-004, -2.12832936e-004, 2.25306012e-005,
          3.59013102e-005, 5.85004200e-005, 2.27970504e-005,
          1.35402384e-004, 6.54115775e-006, -1.16700729e-004,
          -3.13548044e-005, 7.01524987e-005, 3.92435686e-005,
          -2.01719431e-005, 1.59618488e-004, 1.53888148e-004,
          1.59256932e-004, 2.09921840e-004, -1.47861865e-005,
          8.93103279e-005, 6.09436756e-006, -2.63775801e-005,
          -2.24714036e-004, -9.99421391e-005, 8.25785974e-005,
          -6.57726850e-005, 6.63310348e-005, -1.63479381e-005,
          -3.79068806e-005, -1.22108962e-004, -1.01909245e-004,
          1.99608385e-005 ]
      - [ -2.62647136e-005, 7.68137397e-006, -9.93753129e-005,
          -3.79536650e-005, -1.37926152e-004, -1.50118984e-004,
          -1.24478756e-004, -1.72241518e-004, 1.15676390e-004,
          -8.50838624e-005, 2.20501679e-005, -5.83624205e-005,
          -3.42524145e-005, -1.31203837e-004, -1.95277535e-004,
          -1.00037752e-004, 1.65857957e-004, -1.64088444e-004,
          -2.26411453e-006, 7.58487658e-005, 7.34578571e-005,
          3.30167277e-005, -1.14183633e-004, 1.02030455e-004,
          1.13665956e-004, 8.27188342e-005, -3.21086486e-006,
          -1.86920646e-004, -1.05316518e-004, -5.69663280e-005,
          2.29468118e-004, 1.79012699e-004, 1.26850282e-005,
          -1.76059548e-004, -2.02630166e-004, -8.62970628e-005,
          2.58454274e-005, 1.63102450e-004, -1.29584696e-005,
          -2.10102335e-005, -2.19061156e-004, -8.29114215e-005,
          4.11295186e-005, -3.87022374e-005, -1.53862056e-005,
          1.23507448e-006, 2.54596060e-004, -6.59755096e-005,
          1.21876757e-004, 7.44809440e-005, -6.25170360e-005,
          1.18838841e-004, 1.50012085e-004, 1.15047960e-005,
          -2.99556068e-005, -1.22427246e-005, -1.28010826e-004,
          -5.43349415e-005, 3.39806254e-004, 1.54764450e-004,
          -9.91165871e-005, -1.99364382e-004, -2.37363594e-004,
          -1.02759223e-005 ]
      - [ 1.02994600e-004, 4.38044153e-005, 2.19459340e-004,
          2.09989103e-005, -2.55427120e-004, -1.13358634e-004,
          -9.55651703e-005, -4.58218310e-005, 6.69252040e-005,
          -3.69063811e-004, -1.31730732e-004, -1.38816627e-004,
          -2.15105101e-004, -2.14516593e-004, -6.26954061e-005,
          2.03841264e-004, 7.70541810e-005, -3.26666253e-004,
          -5.91410862e-005, 3.94290191e-006, 2.21279770e-005,
          -9.58209284e-007, -2.89605232e-004, 1.69694686e-005,
          1.42288729e-004, -1.79688534e-004, -7.42474658e-005,
          1.35840426e-004, -1.04712519e-004, -7.65309233e-005,
          -7.05545972e-005, 1.64155994e-004, -2.97554187e-004,
          -7.14559792e-005, 1.46740582e-004, -7.16738796e-005,
          -3.27983755e-004, -1.45370155e-004, -2.91874585e-005,
          3.47687492e-005, 2.64612172e-004, 1.74308370e-004,
          -1.33360300e-005, -1.43822719e-004, -2.68968608e-004,
          -2.36348114e-005, -2.15680717e-004, 3.69656773e-005,
          5.25609823e-004, -1.35329406e-004, -2.47576012e-004,
          -9.90366170e-005, 6.73337126e-005, -1.40444114e-004,
          -4.87902726e-005, 1.66778264e-004, 9.85843508e-005,
          -1.00811805e-004, -5.22925839e-005, 5.76478487e-005,
          -3.66080320e-004, -3.19004728e-004, -8.37971020e-005,
          1.19386474e-004 ]
      - [ 1.44832462e-004, 3.04382374e-005, -2.10642265e-005,
          -1.74214118e-004, -5.04107848e-005, -2.77328600e-005,
          5.80276765e-006, 1.87084315e-005, 1.11676891e-004,
          -8.88333307e-005, 1.05001709e-004, -5.06456818e-005,
          -1.58276773e-004, -1.59252711e-004, -9.98875184e-005,
          1.28229673e-004, 6.64929539e-005, 7.29282910e-005,
          1.79238559e-005, -2.97805454e-005, -9.40946411e-005,
          -7.14739363e-005, -3.14559147e-005, 3.59117985e-006,
          1.05128092e-005, 1.05931704e-005, 2.30927908e-005,
          5.37053602e-005, -1.36341769e-005, -8.84942419e-005,
          -1.05391191e-004, 5.44724571e-005, -5.81686663e-006,
          2.67179475e-005, 7.02454872e-006, -1.57393833e-006,
          -8.50226279e-005, -1.48567589e-004, -4.13235248e-005,
          6.58873469e-005, 9.78947501e-005, -4.96931643e-005,
          -2.62236586e-006, -3.30408875e-005, -2.18442019e-005,
          -3.05301219e-005, -3.91985195e-005, 6.34705648e-005,
          7.58982351e-005, -2.68570311e-005, -1.32222311e-004,
          1.44303322e-005, 6.52551025e-005, 1.08415537e-004,
          -2.58332948e-005, 2.66549159e-005, 1.46482082e-004,
          -2.90415366e-004, -6.91149253e-005, 9.85908773e-005,
          4.84735074e-006, 2.03628661e-005, -4.80574563e-005,
          -6.25519097e-005 ]
      - [ 3.33610769e-005, -1.30444474e-004, 6.69007641e-005,
          -9.61288242e-005, 1.55763701e-006, -3.08198971e-004,
          -4.07546730e-004, -1.48819745e-004, 6.18251070e-005,
          -2.68119795e-004, 9.24000706e-005, 2.20187903e-005,
          8.05030777e-006, 2.63925704e-005, -1.98554899e-005,
          2.56945321e-004, 1.03004524e-004, 4.96117937e-005,
          1.13106500e-004, 7.18421434e-005, -4.47803250e-005,
          -2.10662038e-004, 1.07169144e-004, 1.77421985e-004,
          1.61832431e-005, -3.46868328e-004, 8.55695180e-005,
          -6.57095297e-005, -9.39443416e-005, -3.69537913e-004,
          -1.91404964e-004, 1.12110785e-004, -3.13738710e-004,
          -2.61475681e-004, -2.00764218e-004, -2.41705377e-004,
          -2.68232194e-004, 1.59639094e-004, -7.31578984e-005,
          3.79738958e-005, 7.27002189e-005, -4.11410365e-005,
          6.66065389e-005, -6.78032620e-006, -1.39181415e-004,
          2.50776575e-005, 3.85574058e-005, -2.15240158e-004,
          3.12669523e-004, -1.01996382e-004, -7.21776742e-005,
          -5.55508768e-006, -2.75459952e-005, 8.93702672e-005,
          3.27986723e-004, 3.77743709e-004, 3.80740348e-005,
          -3.20214487e-004, -5.51894518e-005, 2.01687420e-004,
          -2.89783959e-004, -1.01546997e-004, -9.08471775e-005,
          1.55712885e-004 ]
      - [ 1.10116252e-005, 7.30001557e-005, 1.26595360e-005,
          -5.25849246e-005, 1.35880709e-005, -7.15084170e-005,
          -2.23556781e-005, -2.82249312e-005, -5.79988955e-005,
          -5.02819967e-005, 2.93408611e-005, -7.86486853e-005,
          1.39187277e-005, 7.11917965e-005, -1.01894817e-004,
          -4.69697516e-005, 9.77917371e-005, 6.46193803e-005,
          -1.66240541e-004, 7.13548502e-007, -8.66098253e-006,
          -3.63481777e-005, -2.68217645e-005, 6.14801320e-005,
          6.86607600e-005, -1.91435283e-005, -1.97609938e-006,
          -3.57866920e-005, -1.12544418e-004, -8.66292030e-005,
          9.10848685e-005, 9.47695153e-005, 9.95118462e-005,
          3.06483635e-005, -7.88824836e-005, -8.17808032e-005,
          -1.61237302e-004, -6.56477787e-005, -4.93635780e-005,
          1.11746420e-004, 1.83545024e-004, 4.68973740e-005,
          -1.14706127e-004, -1.41709068e-004, -2.76974279e-005,
          -8.59426200e-006, -1.46180944e-004, 9.85582228e-005,
          6.16565376e-005, -4.35039838e-005, -1.28295214e-004,
          8.40305875e-005, 3.85963067e-005, -4.24193568e-005,
          8.04546460e-007, -4.78187121e-006, 9.77649834e-005,
          -1.51410088e-004, -1.46426217e-004, 9.04842163e-005,
          5.77893079e-005, -1.69311752e-005, -9.40214304e-005,
          -1.38845178e-004 ]
      - [ -7.28870436e-005, -4.28663989e-005, 2.89486023e-004,
          9.60621983e-005, 2.60224151e-005, 4.15504765e-005,
          -1.77358481e-004, 1.48067920e-006, 1.42105535e-004,
          -1.54630077e-004, 1.93485743e-004, 2.68055446e-005,
          2.19843332e-005, 9.60106772e-005, 7.97357061e-005,
          2.34555526e-004, -6.40189392e-005, -1.55581714e-004,
          5.41484133e-006, 9.77004893e-005, -8.15430249e-005,
          -2.98728963e-004, -7.56554655e-005, 1.43365949e-004,
          5.91509270e-005, -2.95655860e-004, -2.45772389e-004,
          2.42068563e-006, -2.18617060e-004, -2.54435989e-004,
          -4.27797459e-005, 8.92472963e-005, 9.25329150e-005,
          -1.19266597e-005, -2.87596304e-005, -7.39421084e-005,
          -6.46274493e-005, -1.28649015e-004, -5.02904140e-006,
          3.93892784e-004, 2.31986516e-004, -1.27386942e-004,
          1.74491608e-004, -5.85523194e-005, 2.33329574e-005,
          1.28314541e-005, 1.97068275e-005, 4.40648691e-005,
          5.53451318e-005, -1.84695280e-004, -1.41578916e-004,
          -8.86391208e-005, -7.52635315e-005, -8.75193218e-005,
          4.03239101e-005, 5.82069842e-005, 6.17864789e-005,
          -1.75710404e-004, -2.89086456e-004, -1.50486885e-004,
          1.00861616e-004, -1.63484656e-004, -2.64707214e-005,
          -1.43810330e-005 ]
      - [ 1.01091762e-004, -1.06745851e-004, 8.94727127e-005,
          -4.98555833e-004, -1.66443977e-004, -2.11655875e-004,
          -3.29142495e-007, 5.91005191e-005, -1.71957145e-004,
          -1.73551423e-004, -2.54136248e-004, -2.15500375e-004,
          -3.28965747e-004, -3.56815726e-004, -9.85955776e-005,
          4.99675050e-004, 2.43786344e-005, -4.80912240e-005,
          1.08691966e-004, 8.74628095e-005, 1.25971797e-004,
          2.88693536e-005, 1.58350522e-005, 6.47587804e-005,
          -2.15354048e-005, -1.12245711e-004, 4.26806801e-005,
          1.30271044e-004, 1.38553136e-004, -1.31401503e-005,
          1.31662586e-004, 4.78359907e-005, -2.50478566e-004,
          -5.48785283e-005, -2.65603332e-004, -4.98124922e-004,
          -2.63326860e-004, -9.90132394e-005, 4.41918783e-005,
          -5.94686935e-005, 1.18197524e-004, -1.03387174e-004,
          6.57484634e-005, -6.46029803e-005, -1.45235492e-004,
          -1.69976862e-004, -4.45815340e-006, -4.24650534e-005,
          2.70547025e-004, -6.77749922e-005, -4.46081685e-005,
          7.08026782e-005, 9.92971982e-005, 1.54636131e-004,
          9.47484950e-005, 2.51278630e-004, 7.50466788e-005,
          -1.50580789e-004, -1.47265571e-004, 2.14289670e-004,
          -2.79895146e-004, 5.33776292e-005, -8.85968802e-006,
          7.78342073e-005 ]
      - [ 3.16489924e-004, 1.32140864e-004, 1.09020781e-004,
          -2.90327298e-004, -2.95468490e-004, -1.83717915e-004,
          -2.73221987e-004, -4.42378996e-006, 2.50138459e-004,
          -1.25542487e-004, 1.94715816e-004, -1.62843658e-004,
          -1.58694733e-004, 1.43381389e-004, -1.84010991e-004,
          5.53168938e-005, -4.74264161e-005, -2.06661702e-004,
          1.29598629e-004, 1.44099569e-004, -2.13449202e-005,
          6.69762449e-005, -1.61898308e-004, 1.07531414e-004,
          5.48545140e-005, -3.13246856e-004, -5.08001758e-005,
          1.19778897e-005, 6.43583553e-005, -2.41550792e-004,
          -2.70410324e-004, 1.19607270e-004, -7.22083450e-006,
          -2.45731295e-004, -6.93525290e-005, -1.64506695e-004,
          -4.70781582e-004, -2.82349356e-004, 2.48665019e-005,
          4.23328980e-004, 2.82513298e-004, -8.82285749e-005,
          -3.80598576e-005, -1.83491182e-004, -1.80294344e-004,
          -1.45281505e-004, -3.68578403e-005, 2.43020666e-004,
          1.48762818e-004, -1.39416748e-004, -1.68543149e-004,
          9.63460625e-005, 1.65838166e-004, 6.79266377e-005,
          -1.45039361e-004, -7.98725450e-005, 2.43203729e-004,
          -4.06470586e-004, -1.08538385e-004, -1.18901931e-004,
          6.43994790e-005, -6.63173487e-005, -2.30732228e-004,
          4.92486179e-005 ]
      - [ -1.27635503e-004, -8.15225867e-005, -3.41594205e-005,
          -2.96894839e-004, -1.65366073e-004, 2.22794279e-005,
          -6.44534084e-005, -9.71704776e-006, -3.58631834e-004,
          -5.37177315e-004, 2.24590058e-005, -3.39640537e-004,
          2.48769153e-004, -5.06541051e-004, -6.57402794e-004,
          2.58672109e-004, 4.05478379e-004, -1.15186725e-004,
          1.74945395e-004, -5.26484291e-005, -1.07681271e-005,
          -5.86249116e-005, -1.70457474e-006, 3.98601813e-004,
          2.46092706e-004, -2.36308217e-004, 2.02030191e-004,
          1.85138866e-004, 2.95515492e-005, -3.11749347e-004,
          2.04929820e-004, 4.09528904e-004, 8.30985300e-005,
          -1.60103067e-004, -2.01161587e-004, -4.29047854e-004,
          -4.63780831e-004, -2.61142093e-004, -6.77566131e-005,
          3.49971269e-005, 6.46599146e-005, -3.14894307e-004,
          1.23925129e-004, -2.48035416e-004, -2.69439013e-004,
          -1.39420372e-004, -6.43999956e-005, 2.72793783e-004,
          2.88482814e-004, 4.22959238e-005, -7.40225078e-005,
          2.10900893e-004, 1.73597378e-004, 1.60384574e-004,
          3.22054839e-004, 1.99758433e-004, -7.52657979e-006,
          -5.86211972e-005, 8.91782111e-005, 3.53240990e-004,
          -2.45117873e-004, -1.06781617e-005, -1.96629073e-004,
          2.07383782e-004 ]
      - [ 1.55200658e-004, -7.65422883e-005, -4.66178572e-005,
          -6.35011311e-005, -1.43809986e-004, 1.31720968e-004,
          4.30128479e-004, 7.79918104e-004, 1.26169834e-004,
          3.50870541e-005, 1.84015473e-004, -1.24898543e-005,
          8.72690580e-005, -8.20928017e-006, -2.98684936e-005,
          1.86058271e-004, 8.99426595e-005, 3.17398924e-004,
          1.36697185e-004, 8.35106985e-005, -4.13684829e-005,
          -7.69868057e-005, -3.77313147e-004, 2.68358825e-004,
          8.95561010e-004, 9.23161919e-004, 1.82999167e-004,
          1.29919237e-004, -8.76408158e-005, 1.09141685e-004,
          -2.39819401e-005, 1.02847029e-004, 3.28501250e-004,
          -2.10686885e-005, 2.82892346e-004, 9.58991295e-005,
          1.90258725e-005, -9.10043309e-005, -2.96585222e-005,
          -1.05446488e-004, -3.53683019e-004, -3.73245974e-004,
          -2.23141687e-004, 6.93655675e-005, 2.49365803e-005,
          3.28124530e-004, 3.04925052e-004, 7.09483866e-004,
          -3.94724542e-004, -1.45647384e-004, -3.30999137e-006,
          1.68402985e-004, 2.55257386e-004, 2.67899042e-004,
          -2.88442934e-005, -2.30604401e-005, -1.38380901e-005,
          -6.97159121e-005, -8.54410464e-005, -2.78984844e-005,
          4.02575353e-007, -9.48218440e-005, -3.01538093e-004,
          -1.81673648e-004 ]
      - [ -2.05507749e-004, -2.08828715e-004, -1.02965263e-004,
          2.11076826e-004, 1.39481490e-004, -2.81152534e-005,
          -2.49007251e-004, -2.54423707e-004, -1.97496440e-004,
          -1.66929953e-004, 2.01684816e-004, 2.54308106e-004,
          8.67416602e-005, 2.03964039e-004, 2.04688025e-004,
          8.11736318e-005, 8.41195651e-005, 1.65605481e-004,
          1.67666323e-004, 3.84290790e-004, 3.13300734e-005,
          1.69758387e-005, -9.77257514e-006, -1.19073709e-004,
          -1.64826997e-005, -6.17776313e-005, -3.85957173e-005,
          2.43401755e-005, -3.49955553e-005, 6.47978741e-005,
          3.42581225e-005, -1.53298228e-004, 1.31249690e-005,
          -2.71761004e-004, -4.18277021e-004, 1.09350673e-004,
          -2.18258254e-004, 2.30984500e-004, 9.81081757e-005,
          8.78666178e-005, 1.67284034e-005, 4.74321860e-005,
          -1.63351870e-004, 8.83263274e-005, 2.00431881e-004,
          5.69819276e-005, 6.38255078e-005, -2.03400370e-004,
          -9.65530853e-005, -1.11721438e-005, -3.83621918e-005,
          2.37261673e-004, 1.94343345e-004, -6.21570944e-005,
          1.69141451e-004, 8.29817582e-005, -1.26817846e-004,
          -1.12051952e-004, 5.98890847e-006, 2.49839541e-005,
          1.80964547e-004, -1.09874141e-004, -9.19648373e-005,
          -1.61031901e-004 ]
      - [ -2.88369105e-004, -4.83979820e-005, -1.87848025e-004,
          6.99088196e-005, 8.68602365e-005, 3.56755685e-004,
          -3.12683078e-005, -3.82366998e-005, -2.74976221e-004,
          2.05506323e-004, 2.07672070e-004, -4.07588886e-005,
          -4.82930263e-005, 2.14535932e-004, -2.45539908e-004,
          -3.25126399e-004, 2.89121410e-004, 1.14470342e-004,
          3.81731443e-005, 1.01082071e-004, 6.05709392e-005,
          1.94590939e-005, -3.64475913e-004, -2.11911902e-005,
          6.10866991e-004, 3.08078132e-004, -3.28549759e-005,
          -1.11178342e-004, -1.73201552e-004, 4.34707836e-005,
          1.73455934e-004, -2.96510789e-005, 6.86082465e-004,
          1.18408730e-004, 3.13382552e-005, -1.47717938e-005,
          -2.77074432e-004, -9.34422060e-005, 6.80929152e-005,
          5.31484897e-004, 2.67551513e-004, -5.94272133e-005,
          -1.07151616e-004, -3.91487498e-004, 1.85424542e-005,
          1.15632101e-004, -1.61964315e-004, 3.45657492e-004,
          -2.38516193e-004, -3.83925908e-005, -5.68711876e-005,
          2.36237829e-004, 1.96897658e-004, 8.36305117e-005,
          -1.91781292e-004, -9.63641287e-005, -4.86059289e-005,
          -7.88651887e-005, 1.12307542e-004, 1.88275822e-004,
          4.26032813e-004, 7.04214544e-005, -2.19914044e-004,
          -2.29121477e-004 ]
      - [ -1.68081227e-004, -3.19485844e-005, 4.48821484e-005,
          2.03608171e-004, 2.23927836e-005, 2.49872628e-005,
          1.22892772e-004, -1.01483718e-004, -3.54125768e-005,
          -8.90257579e-005, -6.39947075e-006, 1.51271932e-004,
          2.10707076e-004, 2.17011358e-004, 2.86896655e-004,
          1.97479440e-005, -1.24612692e-004, -8.53972160e-005,
          6.07253896e-005, 3.54966833e-005, 7.03563055e-005,
          5.34685278e-005, -1.06277539e-005, -6.50471848e-005,
          -7.02399120e-005, -1.98990820e-005, 1.31962661e-005,
          3.64262742e-005, -5.59534528e-005, -5.64872171e-005,
          -3.40976985e-005, -1.20133845e-004, 1.32810674e-004,
          8.97259360e-006, -5.79254120e-005, -3.16151090e-005,
          -1.71799460e-004, 6.82900209e-005, 1.30403321e-004,
          3.04979330e-004, 1.87947691e-004, 4.70610830e-005,
          2.95391419e-005, -5.57374151e-005, 2.49538552e-005,
          1.15595351e-004, 9.74957802e-005, 7.56216468e-005,
          -1.28093761e-005, -6.41499573e-005, -5.50829900e-005,
          6.34526077e-005, -1.01350151e-005, 3.95861789e-005,
          -8.42466397e-005, -1.75332698e-005, -1.05187450e-004,
          -1.90743856e-004, -1.56317692e-004, -3.89505731e-005,
          -1.51361355e-005, 8.37969765e-006, 1.32824589e-005,
          -9.83529026e-005 ]
      - [ -1.41406184e-004, 1.59740404e-004, -9.87602398e-005,
          -6.61254235e-005, -2.16048080e-004, 2.12019135e-004,
          -6.10648538e-004, 2.10734361e-004, -9.44005442e-005,
          -5.37641870e-004, 6.25631437e-005, 1.00440111e-005,
          -1.77581911e-004, -2.26891949e-004, 4.96559893e-004,
          2.56637955e-004, -3.24653403e-004, 1.04774452e-004,
          3.46635425e-005, -1.44258638e-005, 4.83569835e-004,
          1.84977776e-003, 5.48751617e-004, 2.74274964e-004,
          -3.10809992e-004, -7.75928784e-005, 1.73434208e-004,
          4.04402323e-004, 3.79110686e-004, -3.04278481e-004,
          6.18392485e-004, -3.15525424e-004, -2.98885949e-004,
          2.50986050e-005, -1.40087810e-004, -2.05285702e-004,
          -1.86742254e-004, -3.61738421e-005, 1.27667226e-004,
          -3.10335163e-004, -3.83561390e-004, -5.24039089e-004,
          -3.53950862e-004, 2.33555547e-005, -2.02843762e-006,
          -6.21144485e-004, 8.32768637e-005, -4.72828746e-004,
          -1.80025527e-004, 6.99743177e-005, -3.49802503e-005,
          9.42611805e-005, 3.40482657e-004, 2.06009383e-004,
          5.21295704e-004, 8.93729884e-005, -3.45514942e-004,
          -5.01101567e-005, 1.24127633e-004, -8.33698068e-005,
          6.49967405e-004, -7.24634810e-005, 8.01771181e-004,
          -6.94135029e-004 ]
      - [ -3.44258267e-004, -2.37899818e-004, -5.59732725e-004,
          -3.70813766e-004, -3.18523467e-004, -1.40722492e-004,
          -8.66357004e-004, 1.09146320e-004, -9.37004341e-004,
          -1.97358400e-004, 4.34907066e-004, 4.79908107e-004,
          3.25423316e-004, -1.10254019e-004, -6.04602159e-004,
          -4.49398067e-004, -2.12875617e-004, 3.56176861e-005,
          3.36297846e-004, 1.66501632e-004, -1.31839712e-004,
          3.57579440e-004, -4.03467624e-004, 7.89421174e-005,
          1.88610167e-004, -2.14215805e-004, 8.82229360e-004,
          2.56914966e-004, 7.38377421e-005, 2.58110376e-004,
          -2.97645776e-004, -5.17150984e-005, 4.22601326e-004,
          -5.22394024e-004, -7.53277447e-004, -3.28336791e-005,
          -2.88114446e-004, -2.06099110e-004, 4.32274741e-004,
          8.97779595e-004, 2.56764120e-004, 5.62934729e-005,
          1.81906551e-004, 9.33545107e-006, 2.26909353e-004,
          -1.84691133e-004, -2.90258431e-005, 4.53750195e-004,
          1.66023223e-004, -1.83294149e-004, -3.30063398e-004,
          3.57244164e-004, 1.02012826e-003, 7.05411658e-004,
          -3.89740046e-004, -4.25546750e-004, -1.24895261e-004,
          5.52564688e-006, -2.76271076e-005, -3.68499168e-004,
          -3.09431052e-004, 5.34008723e-004, 6.18312159e-004,
          -1.67246500e-004 ]
      - [ -1.54189940e-004, -1.89741302e-004, -2.00000854e-004,
          5.05393982e-005, -6.61263402e-006, 6.16244943e-005,
          -2.08980229e-004, -1.25951483e-004, -1.36337214e-004,
          -2.44632422e-004, 8.46886905e-005, 1.88103386e-005,
          9.84454018e-005, -1.91298052e-004, 8.05786749e-006,
          -2.06088211e-004, -1.13855540e-005, 1.04194398e-004,
          1.70709027e-004, 1.13467955e-004, 7.47665035e-005,
          2.46879990e-005, -5.85232883e-005, 1.46698105e-004,
          -6.73489994e-005, 1.23264108e-005, -9.49455989e-006,
          1.89396451e-004, 5.31841488e-006, -1.31920160e-005,
          1.09602202e-004, 4.27233645e-005, 3.05882968e-005,
          -9.58385044e-007, -1.79023380e-004, 4.96587272e-005,
          -3.02524102e-004, 2.14019656e-005, -4.75245251e-005,
          -2.46121417e-005, -5.52113961e-005, -2.16370336e-005,
          1.48762221e-004, -1.60931639e-004, -7.51185289e-005,
          -9.86503146e-005, -3.04702244e-005, 6.84141123e-005,
          -2.69916112e-004, 4.26751903e-005, 1.98764574e-005,
          7.57140588e-005, 3.57575831e-004, 2.73780024e-004,
          3.68726294e-004, -5.25478645e-005, -1.62950397e-004,
          -9.37802179e-005, 8.62727029e-005, 2.14500018e-004,
          1.90720530e-004, 1.66258396e-004, 1.32998786e-004,
          -1.52424429e-004 ]
      - [ -2.71620665e-004, -1.31530236e-004, -1.24006401e-004,
          1.88774429e-004, 5.59096006e-005, -1.49038184e-004,
          -3.05705529e-004, -2.98604777e-004, -1.18334981e-004,
          -8.51968871e-005, -3.38968093e-005, 5.04099480e-005,
          2.29413839e-004, 2.15145221e-004, 8.10006022e-005,
          1.03475140e-004, -5.47864583e-005, -2.47835360e-005,
          2.30649472e-004, 2.05953882e-004, 1.48988343e-004,
          9.90605913e-005, -4.20175784e-005, -2.47507851e-005,
          -7.11935936e-005, -2.53472885e-004, -9.84695998e-006,
          -3.32820564e-005, -4.76517889e-005, -6.36316254e-005,
          1.30948305e-004, -9.10101153e-005, -1.89625920e-004,
          -7.81329873e-005, -8.61212393e-005, -1.20620367e-004,
          -6.94875198e-005, 1.59371411e-004, 1.61325865e-004,
          4.31985463e-005, 1.65157508e-006, -6.64855397e-005,
          8.32954611e-005, 1.04797240e-004, 1.25212944e-004,
          1.64750254e-005, 3.83314073e-005, -2.26090226e-004,
          1.29971551e-004, -6.14100863e-005, 1.69062710e-004,
          1.46346167e-004, 3.44208893e-005, -8.37994885e-005,
          4.00618628e-005, 2.12115163e-004, -1.01850419e-004,
          8.33703089e-005, 2.19382928e-004, -4.36060764e-005,
          1.83616214e-006, -2.27070530e-004, -1.54806839e-004,
          -9.17384023e-005 ]
      - [ -1.91661486e-004, 4.39001342e-005, 2.62192752e-005,
          2.81385059e-004, 7.85483498e-005, -1.36769586e-005,
          -5.91816497e-004, -1.58965215e-003, -5.40570531e-004,
          -4.60633164e-004, 4.02111291e-005, 1.48233567e-005,
          1.86528869e-005, 2.24740550e-004, -4.63686796e-004,
          -2.69649900e-004, 1.97473273e-004, -1.94997861e-004,
          -7.46405203e-005, -1.50769438e-005, -5.46703950e-006,
          1.16856347e-004, -3.67105640e-005, -1.49575062e-004,
          -9.02795407e-004, -2.72383739e-004, -2.83131230e-005,
          -8.51888835e-005, -1.45284794e-004, -7.48853345e-005,
          1.01242855e-004, -1.69053819e-004, 9.62836028e-004,
          6.42667757e-004, -7.78022695e-006, -3.70612222e-004,
          -6.53379975e-005, 2.74195074e-004, 2.63154972e-004,
          7.06913474e-004, 7.95224740e-004, 4.92042804e-004,
          3.55608936e-004, -9.31203540e-005, -1.74445304e-004,
          3.65454529e-004, -7.97767832e-004, 1.32955480e-004,
          -3.49525741e-004, -4.23420897e-005, 1.87149752e-004,
          -2.25839049e-005, 2.26046905e-004, 5.92995319e-004,
          -1.29795648e-004, 1.34714297e-004, 6.88316577e-005,
          -1.51898730e-005, -1.37079391e-004, -1.04863706e-004,
          2.21599385e-006, 1.45715137e-004, -7.40649102e-006,
          -2.37459230e-004 ]
      - [ -2.26701057e-004, -1.02866048e-004, 3.15550024e-005,
          1.66559417e-004, 1.00319485e-004, 3.88296257e-006,
          -2.90355310e-005, -7.38165108e-005, -3.78628865e-005,
          -1.28187939e-005, -1.07837994e-004, 9.23460248e-005,
          1.90936378e-004, 2.06797296e-004, 1.90037768e-004,
          -3.94461640e-005, -1.26613435e-004, -5.50351651e-005,
          7.30171669e-005, 4.16306175e-005, 4.83940457e-005,
          -1.15330004e-005, -3.60706435e-005, -6.33036179e-005,
          -5.72647405e-005, -1.16637268e-004, -6.78739088e-005,
          -7.91081584e-006, -4.37899871e-005, -3.63973101e-007,
          -3.06102665e-005, -1.39234020e-004, 1.20180353e-004,
          7.93021172e-005, -6.30438490e-006, -5.29905810e-005,
          -1.06390456e-004, 8.95379781e-005, 8.79584186e-005,
          2.08930243e-004, 1.26198545e-004, 3.41581654e-005,
          8.98103099e-005, 2.20543006e-005, 3.66814493e-005,
          5.01106551e-005, 5.96407517e-005, 5.26807380e-005,
          1.70232215e-005, 1.47395058e-005, 2.26064731e-005,
          5.08803314e-005, -1.80406951e-005, -3.14358440e-005,
          5.50952427e-005, 3.96534779e-005, 5.30562720e-005,
          -4.35669572e-005, -1.76274807e-005, -7.92431165e-005,
          -1.85973749e-005, 2.45494653e-006, 1.47837191e-005,
          -2.29922007e-005 ]
      - [ -5.19447553e-004, 1.74290544e-004, 1.17200369e-004,
          -1.57098097e-004, -3.42848507e-004, -7.08534848e-004,
          1.56995535e-004, 5.27205202e-006, -2.28930105e-004,
          -7.66752579e-004, -1.97155270e-004, -6.21462505e-007,
          1.78651433e-004, -4.44956939e-004, 5.47105621e-004,
          5.05978300e-004, 1.52821260e-004, 1.14892231e-004,
          1.98782684e-004, -1.04630300e-004, -1.57953473e-004,
          3.10550095e-004, 2.82364461e-004, -1.07811538e-004,
          -5.44281756e-005, -8.16347019e-004, -3.36423283e-004,
          5.73860481e-004, 9.52415867e-005, -2.97782011e-004,
          2.68946314e-004, -5.25525422e-004, -7.93401443e-004,
          -2.94897531e-004, -1.40148695e-004, -4.57475311e-004,
          -2.55006802e-004, 2.86896713e-004, 6.55165291e-004,
          -1.47412036e-004, -9.49557725e-005, 4.48985484e-005,
          4.64465265e-004, -1.42840770e-004, -6.57282799e-005,
          6.20774401e-004, 2.69299962e-005, -5.99472027e-004,
          2.66266987e-004, 1.27262072e-004, 4.33267938e-004,
          5.34227758e-004, -2.20337664e-004, -5.80531741e-005,
          5.82504435e-004, 7.36755319e-004, -2.47210937e-005,
          -7.71546620e-005, -1.04750798e-005, 3.04203917e-004,
          -1.36696995e-004, -3.30078474e-005, 9.95682552e-004,
          -5.48386015e-006 ]
      - [ -3.43184802e-004, 1.27826250e-004, -1.20466510e-004,
          -1.83847063e-004, -5.55187653e-005, -9.15158540e-004,
          -6.98233081e-004, -2.38353110e-004, -5.13851875e-004,
          -1.64714656e-004, -1.58181327e-004, 4.38696559e-004,
          4.84873890e-004, 3.31998424e-004, -6.60621299e-005,
          -4.59791801e-004, -4.72454412e-004, -1.65083024e-004,
          -8.32599108e-005, 4.79725044e-004, 6.29936345e-004,
          -1.41659300e-004, -1.53032757e-004, 4.87416779e-004,
          -4.48086241e-004, -1.72423816e-003, -5.07182667e-005,
          -1.75199355e-004, 2.27209181e-004, -2.23745912e-004,
          -2.07343197e-004, -3.10688862e-004, -3.13726719e-004,
          -4.44111676e-004, -1.27458261e-004, -2.30587451e-004,
          -7.40939722e-005, 1.89100349e-004, 1.21819510e-004,
          1.55908347e-004, 5.77285362e-004, 1.69793129e-004,
          2.64848291e-004, 5.37539472e-006, -3.32204399e-005,
          -7.59033064e-005, 1.25644394e-004, -3.93414317e-004,
          3.01935594e-004, -1.86681515e-004, 4.79592854e-004,
          -1.97248519e-004, -8.18099143e-005, -7.53760687e-005,
          4.58095701e-006, -9.38640296e-005, -1.44183396e-005,
          4.29424836e-004, 1.99285365e-004, -1.50605541e-004,
          -1.64862839e-004, 8.56210609e-005, -1.88520295e-004,
          3.69317095e-005 ]
      - [ -8.44709866e-004, -1.18672237e-004, 1.09241937e-005,
          2.54953426e-004, -1.86013767e-005, -5.66587376e-004,
          -7.77883222e-004, -7.81550247e-004, -4.47424281e-005,
          -4.07087471e-004, -3.80913581e-004, -3.29802060e-005,
          1.89932820e-004, -4.94437409e-004, 3.85771491e-005,
          -3.42011976e-004, -1.48097679e-004, -8.27372787e-005,
          1.30234606e-004, 8.68712814e-005, -6.26059682e-006,
          -8.36846084e-006, 4.40109252e-005, -6.78951474e-005,
          -2.63355643e-004, -3.98174947e-004, 1.87287427e-004,
          -1.45375947e-004, 2.13758001e-004, -1.46456427e-004,
          1.20301193e-004, -1.69375315e-004, -4.32671281e-004,
          1.21750578e-004, -2.69301207e-004, -3.93403403e-004,
          -2.09728358e-004, 2.11753271e-004, 2.28000601e-004,
          9.95845912e-005, -8.20030909e-005, 1.77975759e-004,
          1.90033243e-004, -1.47983128e-005, 2.51570891e-005,
          -4.55044996e-004, -9.41330072e-005, -8.74256875e-005,
          1.22074853e-004, -1.50210690e-004, -1.39630472e-004,
          2.07167381e-004, 2.35654534e-006, 1.78116592e-004,
          6.50869275e-004, 1.05582803e-004, -2.46634125e-004,
          -5.19706955e-005, 4.59353003e-004, 1.49152285e-004,
          -6.57701676e-005, -1.21354140e-004, 6.88664208e-004,
          -2.93281482e-004 ]
      - [ 5.61526467e-005, 1.14832794e-004, 1.09854125e-004,
          -1.51192886e-004, -4.50820920e-007, 8.57498744e-005,
          9.28797090e-005, 1.11999507e-004, -4.21046061e-005,
          -8.23122264e-006, -4.34103167e-005, -1.10056535e-004,
          1.01315754e-005, 5.77563287e-006, -3.79771154e-005,
          -1.11861780e-004, 1.65393896e-004, -3.67882894e-005,
          -1.56731709e-004, -2.33027225e-004, -3.24430875e-005,
          5.95414749e-005, 3.06847396e-005, 1.64633966e-005,
          1.88994018e-004, 4.40984040e-005, 5.64358852e-005,
          -3.39307626e-005, -8.86282869e-005, -3.61803068e-005,
          2.62325430e-005, 9.62458580e-006, 2.19013338e-004,
          1.40894976e-004, 2.81994762e-005, 7.66910453e-005,
          -2.17414181e-005, -1.45109079e-004, 1.35519176e-005,
          2.28967343e-004, 2.08458994e-004, 1.94947992e-004,
          -2.30581136e-004, -2.44963390e-004, -6.32752417e-005,
          9.32241983e-006, -9.82273341e-005, 8.53897800e-005,
          -1.78493501e-004, 3.49597462e-006, -6.04353809e-005,
          2.21784194e-005, -7.11318135e-005, -1.25141814e-004,
          -1.04705505e-004, -2.11378370e-004, 1.25592487e-005,
          -1.25640679e-006, -2.00203576e-005, 1.58050061e-005,
          9.35347416e-005, 9.86615778e-005, 2.77892887e-005,
          -1.03908598e-004 ]
      - [ -9.84171420e-005, -9.52903138e-005, 3.40691855e-004,
          4.67583828e-004, 3.55618395e-004, 6.37134013e-004,
          7.69713552e-006, 4.20875913e-005, -1.24509083e-004,
          -1.28145248e-005, -4.57647955e-004, 1.16095427e-004,
          6.82179962e-006, 9.16564313e-005, 4.66124766e-004,
          -6.00355386e-004, -5.41472284e-004, -2.41451678e-004,
          -6.02414329e-005, 2.12774685e-004, -2.91033153e-004,
          1.39598807e-004, -4.94924680e-005, -7.24863494e-004,
          -3.69824586e-004, 8.11837614e-004, 1.96184337e-004,
          3.59613012e-004, 2.69202545e-004, 1.58783630e-004,
          -2.41485948e-004, -8.41364905e-004, 5.62184374e-004,
          7.79537193e-004, -3.56187707e-006, -1.24850529e-004,
          -3.84323648e-004, -1.52893466e-004, 3.89168126e-004,
          9.46001092e-004, 8.12735932e-004, 1.73407228e-004,
          9.06900823e-005, -1.80405623e-004, -6.23020096e-005,
          8.75594269e-005, 2.74555005e-005, 4.66392434e-004,
          -5.56761952e-005, -2.03607909e-004, -6.39563077e-004,
          2.29677476e-004, -5.16059983e-004, -4.50724619e-004,
          -1.26515879e-004, -1.18499273e-003, -5.67901370e-005,
          -1.30972345e-004, -3.83407081e-004, -3.22178093e-004,
          -4.28775034e-004, 2.30289457e-004, 2.05754666e-004,
          -4.23170830e-004 ]
      - [ 2.14452259e-004, 2.21328170e-004, 2.09483522e-004,
          -5.39270230e-004, -4.16862546e-004, -1.33063833e-004,
          8.48934986e-004, 8.17645108e-004, -2.75236438e-004,
          -2.28044868e-004, -5.44932263e-004, -1.65609206e-004,
          -2.08217069e-004, -1.50071966e-004, 1.26351835e-004,
          -1.56089591e-004, -1.75250621e-004, -1.20380413e-004,
          -5.05840813e-004, -1.06156862e-004, 1.20504825e-004,
          1.36374525e-004, 7.18327865e-005, -3.18994629e-004,
          -1.21727476e-006, -1.28373576e-004, -2.00437134e-004,
          5.47301257e-004, 4.64044919e-004, -5.16522014e-005,
          -5.99782288e-005, -7.84368458e-005, -1.10380490e-004,
          5.01133851e-004, -1.63741614e-004, 1.16319083e-004,
          -3.77746946e-005, -9.84410508e-005, -3.15337180e-004,
          -3.39894061e-004, -1.69919032e-004, -2.39375717e-004,
          1.10805348e-004, 4.19808794e-006, -4.26601880e-004,
          1.76569738e-004, -2.88560899e-004, -3.18510356e-005,
          -2.22796938e-004, -3.65260959e-004, -2.89843065e-005,
          3.19336032e-005, 8.83213725e-005, 2.13173145e-004,
          -1.33708701e-004, -2.03566568e-004, -9.90904446e-005,
          -8.52257435e-005, -1.27290798e-004, -1.28478575e-006,
          2.39110726e-004, -1.91418676e-005, 1.99785078e-004,
          2.57405743e-004 ]
      - [ 4.92763647e-004, 5.27803670e-004, -6.18657868e-005,
          -2.86397408e-004, -1.27146835e-004, 7.26445360e-005,
          4.62587748e-004, 2.77706858e-004, -2.27044322e-004,
          7.45597790e-005, -7.59780305e-005, -2.39106768e-004,
          2.41157522e-005, -1.24704995e-004, -3.31874064e-004,
          -2.78768770e-004, -2.64158502e-004, -2.68345466e-004,
          -2.81798857e-004, -3.21483356e-004, -2.34020903e-004,
          -1.55214700e-004, -3.11272343e-005, -4.66327387e-004,
          3.32685973e-004, -7.81428316e-005, 1.77987269e-004,
          3.27696762e-004, 1.21387660e-004, 1.02243059e-004,
          -3.95601761e-004, -1.02780810e-004, 4.05588595e-004,
          1.49407599e-004, 1.64694036e-004, 3.22369771e-004,
          -1.43180951e-004, -1.09950874e-004, -1.37590207e-004,
          2.53340477e-005, 2.22102535e-004, 1.32434134e-005,
          -2.13844087e-005, -6.90453599e-005, -7.48608800e-005,
          -4.93768719e-004, -1.53161818e-004, 4.12373280e-004,
          -7.15653994e-004, 2.43944523e-004, -1.92260035e-004,
          -8.35448009e-005, 9.05187844e-005, 1.64392386e-005,
          -5.64200222e-004, -7.01314653e-004, 1.16158488e-004,
          1.79827111e-004, -2.52239581e-004, 4.76332934e-005,
          2.05943215e-004, 4.71153209e-004, 1.00802048e-004,
          2.53655107e-005 ]
      - [ 6.57954515e-005, 8.55617691e-005, -8.52870653e-005,
          -5.80386375e-004, -3.12214572e-004, 5.24721807e-004,
          -7.41139593e-005, 2.24345858e-004, -1.81172480e-004,
          -2.23002600e-004, -2.97807041e-004, 7.87353856e-005,
          1.68686747e-004, -8.41905421e-005, 9.53385170e-005,
          -2.09697289e-004, -1.05439947e-004, -6.14909513e-005,
          -2.38319808e-006, -2.54281214e-004, -3.26789828e-004,
          -2.88050418e-004, -1.62440818e-004, 4.53395856e-004,
          3.35977355e-004, 2.64709990e-004, 7.08281237e-004,
          2.01570889e-004, 2.38998866e-004, -7.73241336e-005,
          -1.58200754e-004, 8.47541087e-005, 2.74530234e-004,
          2.66042509e-004, 2.98251369e-004, 2.42251244e-005,
          2.60216359e-004, -2.65522540e-004, -1.25164850e-004,
          -4.99834932e-005, -1.25145874e-004, 5.97106118e-005,
          1.46599938e-004, -5.19083347e-004, -2.11953462e-004,
          -6.90128712e-004, -9.02396045e-004, 4.20317781e-004,
          -2.99337873e-004, -7.73298816e-005, 1.27027652e-005,
          1.60030813e-005, 4.34880303e-006, 3.39971215e-004,
          -7.48627644e-005, -7.02166508e-005, -2.80424811e-005,
          3.54086069e-006, 1.20015320e-004, 4.02318692e-004,
          -3.00663058e-004, 9.77170857e-005, -1.74646149e-004,
          -2.35806612e-004 ]
      - [ 4.70317136e-005, -1.19644363e-004, -1.28392276e-005,
          -1.65857600e-005, 1.79147100e-004, 1.06797837e-004,
          3.96450287e-006, 1.62639568e-004, -2.54032420e-005,
          -1.77524635e-004, -1.16568153e-004, 8.29664859e-005,
          5.16795371e-005, 4.19071075e-005, 1.86433157e-004,
          7.37747469e-005, -4.08154505e-004, -1.26714644e-004,
          1.69298346e-005, 4.02735823e-005, 7.61793781e-005,
          -1.80286122e-004, 1.80829986e-004, -2.13800318e-004,
          -3.80439596e-004, -2.40914553e-004, 4.77629874e-005,
          2.16654211e-004, 3.47470668e-005, 1.61984848e-004,
          -1.93420579e-004, -3.70977097e-004, 9.96261952e-006,
          6.35694159e-005, 8.39134882e-005, -2.64889923e-006,
          1.51949047e-004, 1.15102870e-004, -7.19875379e-006,
          -1.13135939e-004, -4.72821375e-005, 9.91046545e-005,
          2.44285417e-004, 2.60056957e-004, 3.39008315e-004,
          -5.16762448e-005, 4.52653694e-005, 1.63691257e-005,
          1.42482793e-004, -1.00951343e-004, 1.03620252e-004,
          -1.90981125e-004, 1.46541177e-004, -2.49275690e-005,
          -3.73175171e-005, 3.90767782e-005, -3.02084391e-005,
          -1.18649412e-004, -1.97176982e-004, -1.58537034e-004,
          -9.72817870e-005, -1.00257974e-004, 1.72607324e-004,
          -1.04058628e-004 ]
      - [ 1.18212280e-004, -2.26461343e-005, -5.08237972e-005,
          -1.10764420e-004, -1.00253390e-004, 2.35212923e-004,
          1.46420411e-004, 1.43075362e-004, 4.98423615e-005,
          -1.09901222e-004, -2.90838452e-005, 2.22194896e-004,
          -9.46994915e-005, -1.28906031e-004, 1.24863160e-004,
          1.55869973e-004, -2.13385880e-004, -2.05195192e-005,
          7.95059459e-005, 2.87496823e-006, 1.56840004e-004,
          1.70615371e-004, 9.06476344e-005, -5.11021026e-005,
          -1.81059877e-004, 2.43921768e-005, 9.17166381e-006,
          2.19108289e-004, 1.12260503e-004, 3.59647784e-005,
          1.35777082e-004, -1.31081193e-004, -3.51155264e-004,
          -2.07114514e-004, -8.96740094e-005, -2.30051752e-004,
          2.21410100e-005, 3.15521720e-005, 1.00169913e-004,
          -3.21315718e-004, -2.39349247e-004, -2.23724914e-004,
          4.70330742e-005, 1.70163155e-004, -1.00437348e-004,
          -5.30561883e-005, 3.29728064e-005, -1.06843938e-004,
          1.89161510e-004, 1.55780697e-004, 2.66928819e-005,
          1.24075785e-004, -1.16491246e-004, 1.90062237e-005,
          1.42484569e-004, 1.68624276e-004, 1.02154891e-005,
          -1.33132460e-004, -3.70610505e-005, -2.45092451e-006,
          -1.12074067e-005, 2.78554708e-005, 1.37783827e-005,
          -5.72153913e-005 ]
      - [ 1.70780550e-004, 3.00432821e-005, 3.36989615e-005,
          -2.13203617e-004, -1.48665538e-004, -3.42127401e-004,
          -2.75299863e-005, 2.21056704e-004, -2.59129505e-004,
          -5.72935678e-005, -2.52810307e-004, 3.27906106e-004,
          2.03424977e-004, 1.90540828e-004, 9.37945297e-005,
          3.18198698e-004, -1.26413640e-003, -2.18470843e-004,
          2.57459498e-004, 6.26865425e-004, 5.44728537e-004,
          3.79407807e-004, -4.04684142e-005, 9.27233777e-005,
          -8.56354542e-004, -4.12303081e-004, 3.39160470e-004,
          4.36273433e-004, -2.60228499e-005, 1.69476189e-004,
          8.94776967e-005, -6.05951645e-004, -1.35537854e-003,
          -7.23153993e-004, -5.15931868e-004, -2.60273169e-004,
          -8.75516998e-005, -5.12663173e-005, -1.72789543e-004,
          8.18638546e-006, -7.04359496e-004, 5.63656431e-005,
          3.39644932e-004, 3.59825033e-004, 5.77117258e-004,
          -1.31114118e-003, -6.97674768e-005, 2.06579189e-005,
          9.08741902e-004, 2.49230274e-004, -1.94866967e-004,
          4.91371728e-004, 7.50389590e-005, -7.25122300e-006,
          -3.01218679e-004, -2.25635886e-004, 2.03979551e-004,
          1.37182447e-004, -2.16199056e-004, -5.09524310e-004,
          1.96090521e-004, -2.25151525e-004, 4.09843575e-004,
          1.70524887e-004 ]
      - [ -1.29796672e-005, -1.02493803e-004, -3.13617144e-004,
          -2.29202669e-005, -1.39214360e-004, 5.72867029e-005,
          3.08354902e-005, 9.06493588e-005, 6.30942959e-005,
          -4.32810601e-004, -3.65838168e-005, 1.14139890e-004,
          -2.21902956e-005, -1.38113799e-004, 1.87398793e-004,
          8.63540627e-005, -1.30154935e-004, 4.16668881e-005,
          4.19991731e-004, 1.03679500e-004, 7.28548985e-005,
          -1.12380469e-004, 5.77116589e-005, 6.27902045e-005,
          -2.03512915e-004, 3.46375746e-005, 1.83032171e-004,
          4.19677008e-006, 7.98773108e-005, 1.49590021e-004,
          9.12868782e-005, -1.42296980e-004, -6.14409277e-004,
          -1.94445034e-004, -2.48668744e-004, -4.67291829e-005,
          2.30310652e-005, 7.10384993e-005, 1.20141944e-004,
          -4.50364489e-004, -2.53184553e-004, -1.30689092e-004,
          1.14466493e-004, 1.28348955e-004, -4.22294943e-005,
          3.36523008e-005, 9.43223276e-005, 6.73870136e-006,
          7.32956541e-005, -6.66268807e-006, -6.58349454e-005,
          1.05863779e-004, 2.01089337e-004, 2.04059004e-004,
          2.34373336e-004, 1.13351198e-004, -1.59098854e-004,
          -1.86525984e-004, 1.40904631e-005, 7.93197614e-005,
          -5.55908264e-006, -1.95764869e-007, 2.07017274e-005,
          -2.98608484e-005 ]
      - [ 7.61553310e-005, 5.51879821e-005, -5.60309054e-005,
          -1.64882586e-004, -1.91704166e-004, -6.24464010e-005,
          1.08525937e-005, 6.60485748e-005, -3.52680072e-005,
          -6.40871876e-005, -6.39593491e-005, -3.20143736e-005,
          -1.62560886e-004, -1.65425095e-004, -1.01788421e-004,
          1.01368423e-005, 8.87902643e-005, -7.97829762e-006,
          -2.91241904e-005, -5.36448206e-005, 7.73591528e-005,
          5.51272533e-005, 5.30320285e-005, 7.32907210e-005,
          -4.27302293e-005, 5.50704171e-005, 8.11845439e-006,
          2.67122687e-005, 8.58251733e-005, 6.42142477e-005,
          9.07089852e-005, 5.17293884e-005, -1.17901203e-004,
          -6.74569092e-005, 1.60690997e-005, 9.63405000e-006,
          -7.07802683e-005, 7.47915401e-005, -7.49380706e-005,
          -1.49372732e-004, -1.72053624e-004, -7.51726038e-005,
          -2.00171580e-005, -3.59309743e-005, -7.23045960e-005,
          -2.38466328e-005, -9.08739676e-005, -1.08615357e-004,
          1.23593354e-005, -3.66249515e-005, 1.83463999e-005,
          6.76533309e-005, 4.19676799e-005, 7.96802997e-005,
          6.10843708e-005, 3.93260780e-005, -2.49001369e-005,
          -2.04912558e-005, 1.05816609e-004, 1.24045560e-004,
          5.35013532e-005, 5.43810238e-005, 2.42342394e-005,
          3.88084700e-005 ]
      - [ 2.15582040e-004, 1.71923035e-004, -1.97212430e-004,
          -4.69529332e-004, -5.45264280e-004, -2.23188719e-004,
          1.92366540e-004, 1.27330000e-004, -1.59311690e-004,
          2.99595384e-004, -1.05966074e-005, -1.42778677e-004,
          -2.86355178e-004, -2.12005150e-004, -6.98517310e-004,
          -1.70350220e-004, 2.12071158e-004, 2.76918290e-004,
          -2.79371103e-004, -1.01348378e-004, 4.68345934e-005,
          2.08721744e-004, -1.03926199e-004, 6.59646612e-005,
          -3.05454778e-005, 1.96817229e-004, -2.45022766e-005,
          9.77514173e-006, -1.76977501e-005, 7.90439954e-005,
          1.08027787e-004, 1.08350803e-004, -4.74300941e-005,
          -3.18511418e-004, -1.11196430e-004, 1.21367557e-004,
          -5.90532982e-005, 1.94487020e-005, -1.84203120e-004,
          -5.11740625e-004, -4.60334413e-004, -1.01586040e-004,
          -1.98805297e-004, -1.76760528e-004, -4.69441984e-005,
          -1.04359089e-004, -2.71816134e-005, -4.84723714e-005,
          -1.59433839e-004, 1.64123703e-005, -1.49015585e-004,
          3.34701850e-004, 2.60251079e-004, -1.66093203e-004,
          -4.79861810e-005, 1.40663515e-005, 4.75154920e-005,
          4.20624390e-004, 2.48734814e-005, 1.15597111e-004,
          5.65959890e-005, 5.43797478e-006, -1.28993343e-004,
          1.88876773e-004 ]
      - [ 1.28806554e-004, 2.58375712e-005, -1.71816719e-004,
          -2.13698469e-004, 5.10672976e-007, -1.69052837e-005,
          2.77334357e-006, 7.42750999e-005, -8.58916828e-005,
          -5.14078820e-005, 1.58334842e-005, -9.24299093e-005,
          -1.06606400e-004, -1.46448947e-004, -1.50482767e-004,
          -7.11832108e-005, 6.17558253e-005, -1.00507532e-005,
          2.84914167e-005, 7.41623865e-007, 4.72443462e-005,
          1.87011901e-005, -7.49679966e-005, 7.32840344e-005,
          7.70594197e-005, 1.08552129e-004, -8.92944809e-006,
          3.12072116e-005, -8.09655648e-006, 7.46823644e-005,
          8.72052333e-005, 1.67088670e-004, -8.11958671e-005,
          -1.01577774e-004, 1.07011274e-005, -6.50922884e-005,
          3.40285769e-005, -8.26120886e-005, -6.41432343e-005,
          -1.16493073e-004, -2.68985459e-004, -4.46131853e-005,
          -2.01421790e-005, -1.09341127e-004, -2.70575165e-005,
          -6.99824377e-005, -2.75527873e-005, -8.07068427e-005,
          -6.54004034e-005, 4.74880144e-005, -1.15686671e-005,
          -5.47376476e-006, 1.19048833e-004, 7.36904549e-005,
          1.68554136e-004, -3.06292823e-005, -1.20360433e-004,
          -1.17614845e-005, 1.74070316e-004, 1.69550694e-004,
          2.76329101e-005, -2.83692461e-005, -3.23496133e-005,
          3.65484775e-005 ]
      - [ 7.15683782e-005, 3.02712928e-004, -4.30909022e-005,
          -1.06373584e-004, 2.44974624e-004, 7.13661721e-005,
          -7.37589318e-004, 1.03659469e-004, 1.55383037e-004,
          2.11679999e-005, 3.12325938e-005, 2.71082361e-004,
          2.64006085e-004, 8.79145518e-005, -8.15620151e-005,
          -4.11381392e-004, -1.60484036e-004, -3.28944559e-004,
          9.02206157e-005, 6.08650953e-005, -3.29609407e-004,
          -5.58990985e-004, -4.80367045e-004, -1.54212990e-004,
          2.11340361e-004, -2.10549129e-004, 2.87366653e-004,
          -5.71157609e-004, -1.57773247e-004, -1.87103389e-004,
          -3.78405268e-004, 5.95742385e-005, -1.96455062e-006,
          5.35645777e-005, -6.44396132e-005, 1.64195633e-004,
          3.82991129e-005, -2.85909919e-005, -1.91457249e-004,
          3.56738718e-004, 4.37291223e-004, 2.29299272e-004,
          -2.02093870e-004, 2.97441929e-005, -8.24436356e-005,
          2.82178225e-005, 2.82203808e-004, 2.42530354e-004,
          -3.38938495e-004, -2.57244508e-004, -1.49553991e-004,
          -3.37857928e-004, 2.28550576e-004, 2.63796246e-004,
          -5.33086888e-004, -7.18788127e-004, -5.02493058e-005,
          1.82222109e-004, -1.14319941e-004, 9.53914132e-005,
          -8.45418617e-005, -8.14005398e-005, -2.89949850e-004,
          2.07591045e-004 ]
      - [ 7.02191164e-006, -9.72950511e-005, -6.04166307e-005,
          6.59389116e-005, 5.90254167e-005, 7.48292223e-005,
          -3.40106810e-004, -8.37767657e-005, -6.82559694e-005,
          -4.85938835e-006, -5.88567564e-005, -2.96127037e-005,
          -1.49524540e-005, -9.15490091e-005, -1.65885896e-004,
          -1.18610318e-004, -3.70989510e-005, 6.85347040e-005,
          2.48406341e-005, -1.15786956e-004, 7.13601985e-005,
          -5.32622682e-004, -5.28223580e-004, 2.85497052e-004,
          1.38343385e-004, 9.62979975e-005, 1.03713530e-004,
          -6.62235689e-005, -1.83171913e-004, -3.36314588e-005,
          -3.39139187e-005, 6.73923059e-005, 5.04969648e-005,
          8.49234129e-005, 1.88028534e-005, 3.68185320e-005,
          1.20425022e-004, -4.39437190e-006, 3.60494255e-006,
          7.77790192e-005, 5.54731596e-005, 6.58678982e-005,
          6.48548157e-005, -9.88212014e-006, 2.62425183e-005,
          -6.03031622e-005, 2.14799984e-005, 5.88040421e-005,
          -1.39588607e-004, -5.38912973e-005, 4.72442189e-005,
          2.82203255e-005, 4.33459900e-005, -1.86116784e-004,
          5.93348850e-005, 1.04392406e-004, -8.50647211e-006,
          1.01411706e-006, 5.45780313e-005, 1.77562004e-004,
          8.11281498e-005, 2.97511961e-005, -2.01469913e-004,
          -1.52452645e-004 ]
      - [ -5.35831961e-004, -4.56811773e-004, -3.61297018e-004,
          1.72953922e-004, 1.76024492e-004, 1.36318966e-004,
          1.83033946e-004, 1.38220348e-004, -1.88325226e-004,
          -6.65614731e-004, -2.39070403e-004, -4.72405954e-004,
          -9.57833108e-005, -1.95175700e-004, -1.24015700e-004,
          -2.62206537e-004, 2.68538075e-004, 2.06801007e-004,
          1.49167390e-004, 6.87599968e-005, -1.20246004e-004,
          -3.12907796e-004, -2.87303788e-004, 2.57746375e-004,
          1.96761994e-005, 1.90610037e-004, 9.15328346e-005,
          4.17358940e-004, 1.57983144e-004, -2.07276025e-005,
          4.75286943e-004, 5.79310057e-004, 5.86099588e-007,
          2.56573781e-004, -3.41080828e-004, -4.81389689e-005,
          -1.67540362e-004, -3.20916006e-004, -3.77306103e-004,
          -1.46307444e-004, -3.55244381e-004, -1.15816634e-004,
          1.22603931e-004, -6.42697487e-005, -1.13134411e-004,
          -3.68185400e-004, -1.70741376e-004, -2.90317024e-004,
          -7.80961709e-005, -2.62769972e-005, 2.80390988e-004,
          2.03489166e-004, 1.84625023e-004, 2.00327995e-004,
          7.15240196e-004, 4.89347207e-004, -1.22934198e-005,
          4.12797344e-005, 3.41536914e-004, 4.07627929e-004,
          2.61226640e-004, 3.57925928e-005, -5.14701642e-005,
          -4.90380371e-005 ]
   decision_functions:
      -
         sv_count: 1
         rho: 2.2739473390867868e+000
         alpha: [ 1. ]
         index: [ 0 ]
      -
         sv_count: 1
         rho: 7.5623952976887032e-001
         alpha: [ 1. ]
         index: [ 1 ]
      -
         sv_count: 1
         rho: 4.6822582902185533e-001
         alpha: [ 1. ]
         index: [ 2 ]
      -
         sv_count: 1
         rho: 1.0007490897350781e+000
         alpha: [ 1. ]
         index: [ 3 ]
      -
         sv_count: 1
         rho: 1.1880357903684131e+000
         alpha: [ 1. ]
         index: [ 4 ]
      -
         sv_count: 1
         rho: 4.8142822952893172e-001
         alpha: [ 1. ]
         index: [ 5 ]
      -
         sv_count: 1
         rho: 5.8381192014646122e-001
         alpha: [ 1. ]
         index: [ 6 ]
      -
         sv_count: 1
         rho: 1.1793372098508692e+000
         alpha: [ 1. ]
         index: [ 7 ]
      -
         sv_count: 1
         rho: 1.1086911629496683e-001
         alpha: [ 1. ]
         index: [ 8 ]
      -
         sv_count: 1
         rho: 7.9140680846202038e-001
         alpha: [ 1. ]
         index: [ 9 ]
      -
         sv_count: 1
         rho: 3.4213193362974841e-002
         alpha: [ 1. ]
         index: [ 10 ]
      -
         sv_count: 1
         rho: -6.2081276340652164e-002
         alpha: [ 1. ]
         index: [ 11 ]
      -
         sv_count: 1
         rho: 4.8437714134701784e-002
         alpha: [ 1. ]
         index: [ 12 ]
      -
         sv_count: 1
         rho: 3.4766878025255639e-002
         alpha: [ 1. ]
         index: [ 13 ]
      -
         sv_count: 1
         rho: -3.6904485042979768e-001
         alpha: [ 1. ]
         index: [ 14 ]
      -
         sv_count: 1
         rho: 9.5288657533786558e-001
         alpha: [ 1. ]
         index: [ 15 ]
      -
         sv_count: 1
         rho: 7.3650478991844492e-001
         alpha: [ 1. ]
         index: [ 16 ]
      -
         sv_count: 1
         rho: 4.8804568974082430e-001
         alpha: [ 1. ]
         index: [ 17 ]
      -
         sv_count: 1
         rho: 1.5231141020240943e-001
         alpha: [ 1. ]
         index: [ 18 ]
      -
         sv_count: 1
         rho: 4.7490932122050411e-001
         alpha: [ 1. ]
         index: [ 19 ]
      -
         sv_count: 1
         rho: -8.2098296246840130e-001
         alpha: [ 1. ]
         index: [ 20 ]
      -
         sv_count: 1
         rho: -3.1028262687446420e+000
         alpha: [ 1. ]
         index: [ 21 ]
      -
         sv_count: 1
         rho: -2.9188890421478924e+000
         alpha: [ 1. ]
         index: [ 22 ]
      -
         sv_count: 1
         rho: -1.5918419513935447e+000
         alpha: [ 1. ]
         index: [ 23 ]
      -
         sv_count: 1
         rho: -8.0021222092270666e-002
         alpha: [ 1. ]
         index: [ 24 ]
      -
         sv_count: 1
         rho: 2.2115457967006877e+000
         alpha: [ 1. ]
         index: [ 25 ]
      -
         sv_count: 1
         rho: -4.3282680356775571e-001
         alpha: [ 1. ]
         index: [ 26 ]
      -
         sv_count: 1
         rho: 1.0178537332986974e+000
         alpha: [ 1. ]
         index: [ 27 ]
      -
         sv_count: 1
         rho: -7.6267762427679775e-001
         alpha: [ 1. ]
         index: [ 28 ]
      -
         sv_count: 1
         rho: -2.7997080240617827e+000
         alpha: [ 1. ]
         index: [ 29 ]
      -
         sv_count: 1
         rho: 2.0152779212470079e-001
         alpha: [ 1. ]
         index: [ 30 ]
      -
         sv_count: 1
         rho: -4.0367577027205552e+000
         alpha: [ 1. ]
         index: [ 31 ]
      -
         sv_count: 1
         rho: -3.9609048666823967e+000
         alpha: [ 1. ]
         index: [ 32 ]
      -
         sv_count: 1
         rho: -5.2462156550981265e-001
         alpha: [ 1. ]
         index: [ 33 ]
      -
         sv_count: 1
         rho: -1.0778913304215525e+000
         alpha: [ 1. ]
         index: [ 34 ]
      -
         sv_count: 1
         rho: -1.6671914590832215e+000
         alpha: [ 1. ]
         index: [ 35 ]
      -
         sv_count: 1
         rho: -8.8105005038470374e-001
         alpha: [ 1. ]
         index: [ 36 ]
      -
         sv_count: 1
         rho: -1.9409534751071358e+000
         alpha: [ 1. ]
         index: [ 37 ]
      -
         sv_count: 1
         rho: -2.0485797516025879e+000
         alpha: [ 1. ]
         index: [ 38 ]
      -
         sv_count: 1
         rho: -2.3594873737246852e-001
         alpha: [ 1. ]
         index: [ 39 ]
      -
         sv_count: 1
         rho: -9.5308652323951887e-002
         alpha: [ 1. ]
         index: [ 40 ]
      -
         sv_count: 1
         rho: -5.0541069137710870e-001
         alpha: [ 1. ]
         index: [ 41 ]
      -
         sv_count: 1
         rho: -1.3335643673113773e+000
         alpha: [ 1. ]
         index: [ 42 ]
      -
         sv_count: 1
         rho: 1.2389647641452554e-001
         alpha: [ 1. ]
         index: [ 43 ]
      -
         sv_count: 1
         rho: -1.7707694783627372e+000
         alpha: [ 1. ]
         index: [ 44 ]
