%YAML:1.0
my_svm: !!opencv-ml-svm
   svm_type: C_SVC
   kernel: { type:LINEAR }
   C: 2.6699999999999999e+000
   term_criteria: { epsilon:1.1920928955078125e-007, iterations:1000 }
   var_all: 64
   var_count: 64
   class_count: 10
   class_labels: !!opencv-matrix
      rows: 1
      cols: 10
      dt: i
      data: [ 0, 1, 2, 3, 4, 5, 6, 7, 8, 9 ]
   sv_total: 45
   support_vectors:
      - [ -4.74205008e-005, 8.07091201e-005, 6.66169653e-005,
          7.69008548e-005, 2.54727656e-005, -8.63279347e-005,
          1.86815987e-006, 3.25901747e-005, 9.40476821e-005,
          -2.67258497e-006, -7.88938414e-005, 3.05378708e-005,
          2.19872745e-005, -1.64237081e-005, -1.02391881e-004,
          -5.50938967e-006, -6.47864435e-005, -9.32876792e-005,
          -5.72384670e-006, -6.80440426e-005, -6.47752531e-005,
          3.07275741e-006, 7.24456404e-005, 1.37630326e-004,
          1.91824831e-004, 1.21752582e-005, -3.03703000e-005,
          -4.93824264e-005, 5.09838246e-005, 1.58236013e-004,
          1.16083276e-004, 1.02390077e-005, 7.66669564e-006,
          -1.58657767e-005, 1.52182711e-005, 8.36693362e-005,
          9.92172936e-005, 7.55681758e-005, 1.31478999e-004,
          8.53151869e-005, -1.55131260e-004, -4.34296890e-005,
          -5.44333525e-005, 4.45876358e-005, 1.13074511e-005,
          1.85162480e-005, 2.30353035e-005, 1.44268764e-004,
          1.10907495e-004, 1.54820300e-004, 6.03644876e-005,
          1.96531946e-005, -6.91039459e-005, -2.93847024e-005,
          -5.55409588e-006, -7.33372508e-005, 6.48967907e-005,
          1.46297520e-004, 6.35964752e-005, 1.41390759e-004,
          -4.51419110e-005, 1.44990063e-005, 1.89671318e-005,
          6.78437063e-005 ]
      - [ 8.58329804e-005, 8.37534681e-005, 4.52444292e-005,
          -1.14895529e-005, -9.66098960e-005, -3.05447975e-005,
          -9.94081347e-006, 1.90807586e-005, 7.77829773e-005,
          7.48176899e-005, -4.61349191e-005, -7.62698764e-005,
          -1.14026683e-004, -1.29616994e-004, -1.45400903e-004,
          1.66481823e-005, -5.00231436e-005, -1.22719357e-004,
          -1.22476747e-004, -9.62851118e-005, -1.12625719e-004,
          -9.14393095e-005, 5.78820509e-005, 8.81867891e-005,
          9.20815655e-005, 7.84044369e-006, -9.21608225e-005,
          -1.10079978e-004, 1.16967576e-005, 1.47740475e-005,
          1.78493337e-005, 4.97142355e-005, -1.05459854e-004,
          -1.66770387e-005, 3.79568373e-005, 8.24299786e-005,
          1.25776001e-004, 7.92621649e-005, 3.93082046e-005,
          -3.28827155e-005, -4.33661662e-005, -9.56308722e-005,
          -2.19323902e-005, 1.39153426e-005, 4.81309580e-005,
          7.36264064e-006, 6.10563075e-005, -1.52110115e-005,
          5.84145455e-005, 5.10008031e-005, -2.62402227e-005,
          4.19390090e-005, -1.03139515e-004, -1.08424843e-004,
          -1.75076668e-004, -1.54853169e-005, 2.31901686e-005,
          4.56920825e-005, 6.25549801e-005, -2.12317245e-005,
          -2.67929172e-005, -9.01759267e-006, -2.12773630e-005,
          -4.44587204e-006 ]
      - [ 3.48306980e-006, 9.61941332e-005, -4.84901684e-005,
          1.00937759e-004, 7.25789796e-005, -4.58598915e-005,
          -1.08095346e-005, 6.61330487e-005, 9.66340012e-005,
          4.65510238e-005, 2.09382397e-005, -4.28646854e-005,
          -1.79270995e-004, -7.77289097e-005, -3.03583511e-004,
          -4.21231744e-005, 7.76010274e-005, -2.38638575e-004,
          -1.62430166e-004, -1.06459091e-004, -4.83000695e-005,
          -1.69538122e-004, -2.29856396e-005, 1.02590755e-004,
          2.09110134e-004, 1.59266390e-004, -1.25397695e-004,
          -1.43924524e-004, 1.30957314e-005, 4.84498742e-005,
          2.67681989e-005, 1.10747365e-004, -4.90430612e-005,
          -7.08447624e-005, 1.07251020e-004, -2.17630659e-005,
          1.45564309e-005, 5.94801495e-005, 1.22984784e-004,
          -1.30278213e-005, -1.32504676e-004, -8.21322683e-005,
          -2.48252818e-005, 1.45044207e-004, 1.04678271e-004,
          1.74793036e-004, 1.53112152e-004, 7.33375928e-005,
          1.49839441e-004, -5.34375176e-005, 1.07469232e-005,
          1.51204777e-005, 3.04945097e-005, -5.43171627e-005,
          -1.78340546e-004, -6.15170648e-005, -4.34918365e-005,
          -6.70902664e-005, -1.50359439e-004, 1.10527644e-005,
          -6.15891913e-005, -4.10583998e-005, -8.80591979e-005,
          -2.67885644e-005 ]
      - [ -1.29869237e-004, -8.00791895e-005, 3.31739102e-005,
          2.92554728e-006, 1.38924734e-004, -1.87646627e-004,
          -2.93012970e-004, -1.82166172e-004, 7.08664447e-005,
          1.68527156e-004, -4.40830672e-006, 2.04399083e-004,
          1.03170751e-004, -2.40384907e-006, -3.86637439e-005,
          4.22070443e-005, 6.63599203e-005, -9.71032568e-005,
          4.66653401e-005, 6.69151996e-005, 1.26268293e-004,
          2.00550548e-005, 1.93556461e-005, 1.16187315e-004,
          1.24704791e-004, 8.33926752e-005, -1.54066394e-004,
          -3.73747171e-004, -1.44805890e-004, 7.28901505e-005,
          4.86232057e-005, 9.79071920e-005, -1.53433575e-004,
          -8.99565566e-005, 6.69684305e-005, -1.40734206e-004,
          6.97787618e-005, 7.96370368e-005, 2.44037525e-004,
          9.73772621e-005, -1.52563633e-004, -4.94229826e-005,
          -9.32541661e-005, 3.90867863e-005, 1.80494040e-004,
          9.49536552e-005, 2.35572646e-004, 9.33827541e-005,
          6.35495817e-005, 2.52979982e-004, 2.00436509e-004,
          1.36017639e-004, -1.02852602e-004, -4.63454235e-005,
          -7.65385994e-005, 2.09011880e-004, 1.67107675e-004,
          2.53852573e-004, 1.24174534e-004, 4.49392210e-005,
          5.13681225e-005, -2.29464349e-005, 1.81700761e-005,
          6.27672271e-005 ]
      - [ -7.84153599e-005, 6.88395085e-005, 8.78265564e-005,
          -3.37698912e-005, 5.39511166e-005, 2.28631216e-005,
          -2.40681366e-005, -4.75151792e-005, 8.76012928e-005,
          1.51857792e-004, 8.32450824e-005, 7.13045802e-006,
          1.03723801e-006, 8.96931283e-007, -1.11521607e-004,
          -3.21027710e-006, 2.55845371e-005, -5.77148276e-005,
          -8.55206381e-005, -1.29300781e-004, -7.78127505e-005,
          -3.00517149e-005, 6.47198467e-005, 1.97689405e-005,
          1.15304407e-004, 2.75561652e-005, -1.88577324e-004,
          -1.15481256e-004, -1.03046477e-004, 9.43632913e-005,
          -3.32428021e-006, 8.85046466e-005, 8.02309296e-005,
          8.80130319e-005, -8.03916118e-005, -4.03421363e-005,
          -4.79986084e-005, 4.03773047e-005, 1.38399468e-004,
          1.45513550e-004, 2.93543908e-005, -1.62346463e-004,
          -7.20636308e-005, -1.46169958e-004, 1.24516819e-005,
          3.74766387e-005, 1.51801476e-004, 1.46466729e-004,
          5.01552022e-005, 6.34579992e-005, -4.49657527e-005,
          1.33796362e-004, 3.48484682e-005, -6.83299368e-005,
          -1.37448907e-004, -9.72854032e-005, 3.01283380e-005,
          6.34443932e-005, 5.87327886e-005, 1.46654507e-004,
          2.99090370e-005, -7.96996610e-005, -1.03523125e-004,
          -3.86390566e-005 ]
      - [ -1.30827524e-004, -4.90792081e-005, 3.35624463e-005,
          1.39549620e-005, 5.41909139e-005, -7.50445251e-005,
          -1.28299114e-004, -2.27170349e-005, 3.41787381e-005,
          2.02895535e-005, -1.24497501e-006, -2.69079501e-005,
          -2.42803271e-005, 7.87420959e-006, 1.55607177e-005,
          3.44045256e-005, -9.45653883e-005, -2.29051264e-004,
          4.92034997e-005, 3.09189236e-005, -1.73805765e-005,
          1.21723660e-005, 7.71414925e-005, 7.16967916e-005,
          7.42653492e-006, 1.75805544e-004, -2.09133956e-004,
          -6.44131433e-005, -6.53443349e-005, 1.43725003e-004,
          -6.87460270e-005, -7.36247312e-005, 2.21203554e-005,
          2.84474518e-005, -1.48295367e-004, -1.04390980e-004,
          -1.45014972e-004, 1.03178507e-004, 2.61899986e-004,
          3.82527855e-004, 1.15550050e-004, -1.53940491e-004,
          -1.42483026e-004, 3.02588214e-005, 1.06836807e-004,
          1.23285397e-004, 9.46148211e-005, 2.41144618e-004,
          1.38298143e-004, 3.21106927e-004, 8.47371030e-006,
          2.50397152e-005, 9.06525893e-005, -1.05782645e-004,
          -1.48059145e-004, -3.66504246e-005, 5.79178632e-005,
          8.07720153e-006, 6.81469246e-005, 9.73523638e-005,
          4.21268815e-005, -6.47794586e-005, 4.06899053e-005,
          -3.52090028e-005 ]
      - [ 5.69407130e-005, 5.95498095e-005, -1.09246021e-005,
          -3.33139951e-006, -4.82168653e-005, -6.81072015e-006,
          -1.40037382e-005, -8.03641597e-005, 2.11518636e-005,
          8.56316765e-005, -5.68222167e-005, 9.67437336e-006,
          -3.92739348e-005, -1.32526766e-004, -1.01772646e-004,
          1.12501975e-005, -4.62985497e-007, -1.35082970e-004,
          -3.49062357e-005, -5.84591762e-005, 5.25067662e-005,
          7.10599925e-005, 6.82454775e-005, 7.64702927e-005,
          1.60510695e-004, -5.64733818e-005, -6.14403034e-005,
          -9.38159792e-005, 1.20501049e-004, 1.46087928e-004,
          8.86148773e-005, 7.25561476e-005, -8.80096777e-005,
          -2.64452574e-005, -7.43876944e-006, -7.39133975e-005,
          -7.68802056e-005, 3.65196429e-005, 8.95948469e-005,
          3.67433859e-005, -4.03868871e-005, -8.67449562e-005,
          -3.27908965e-005, -3.22844244e-005, 4.84409884e-006,
          -1.87537335e-005, -1.06283733e-005, 6.59913785e-005,
          1.65415095e-005, 4.83150216e-005, 1.29146632e-004,
          2.03760446e-005, 2.07689463e-005, 0., -4.03732265e-005,
          -9.25060613e-006, 1.45894182e-005, 5.39133180e-005,
          9.17403668e-005, 4.04090970e-005, 9.04845638e-006,
          1.61626449e-005, 7.67761321e-006, 2.70626024e-005 ]
      - [ -6.11018258e-005, -9.10847448e-005, -2.74026999e-004,
          -2.91584729e-004, -1.39583557e-004, -1.55573798e-004,
          -2.30128033e-004, -2.64237431e-004, -6.17798723e-005,
          1.43626792e-004, -5.78324534e-006, 1.08397100e-004,
          1.36926392e-005, -3.86256943e-005, -2.96941726e-004,
          -1.41906727e-004, -1.24351587e-004, -3.49677837e-004,
          -1.44042860e-005, 2.22269111e-004, 7.89946280e-005,
          3.03410729e-007, 6.79646837e-005, 2.23524563e-004,
          1.18725737e-004, 2.20252652e-004, -2.96878861e-004,
          -3.04588699e-004, -8.16417742e-005, -8.07688630e-005,
          -8.99481238e-005, 1.46948996e-005, -6.87328720e-005,
          -1.64931727e-004, 1.34204147e-005, -1.52455585e-004,
          1.04113671e-004, 5.48685784e-005, 2.56877684e-004,
          1.54856330e-004, -4.02985061e-005, -2.75689526e-004,
          -1.82241769e-004, -1.80249073e-004, 3.17914673e-004,
          -5.78860345e-005, 1.21799902e-004, 1.03683968e-004,
          3.91285575e-004, 1.68634127e-004, 1.06531515e-004,
          1.87234007e-004, 9.15898272e-005, -2.63383641e-004,
          -3.70832830e-004, -5.73428115e-005, -3.21588377e-005,
          1.08327797e-004, -8.61561784e-005, -8.84200708e-005,
          -3.05825415e-005, -3.91862486e-005, 2.55813120e-005,
          -1.28123575e-004 ]
      - [ -1.09074326e-005, -4.20835058e-005, -1.71064661e-004,
          -2.42889902e-004, 4.95378299e-005, -1.45097685e-004,
          -2.32497623e-004, 9.43949271e-005, -6.94096743e-005,
          3.53374198e-005, 3.43309730e-005, -3.78417608e-004,
          -2.23774376e-004, 3.47083333e-005, -4.66052734e-004,
          9.18694495e-005, 2.08221463e-004, -1.90490595e-004,
          9.93718641e-005, -1.89876999e-004, -6.94747068e-005,
          -6.03435401e-005, 2.55200284e-004, 2.59924331e-004,
          3.01652763e-004, 1.57941846e-004, 8.51072764e-005,
          -7.57329180e-005, -4.10133107e-005, 1.40148928e-004,
          1.13497670e-004, 2.16086890e-004, -5.79313964e-005,
          -2.37309418e-004, 1.46383871e-004, 6.16817169e-006,
          -1.38310488e-005, 4.47250168e-005, 1.28886313e-004,
          -1.06493120e-004, -3.67344401e-005, -1.70695363e-004,
          -1.66586178e-004, 1.64517609e-004, 3.93117734e-005,
          1.56753697e-004, -8.93864708e-005, 1.93607066e-005,
          6.53234238e-005, 1.52207416e-004, -7.16312716e-005,
          2.90837255e-004, 2.80950830e-004, -9.64779829e-005,
          4.34808753e-005, -4.61583404e-005, -8.67601848e-005,
          7.63439821e-005, 1.93357992e-004, 4.64394805e-004,
          1.99169081e-004, -2.33355779e-004, 4.37818126e-005,
          -3.70591297e-005 ]
      - [ 1.66211277e-004, 3.49238471e-005, -2.81420835e-005,
          -2.24354226e-004, -1.55410002e-004, -1.67179154e-004,
          -1.96140216e-004, -1.77328096e-004, 1.06549105e-005,
          1.90667633e-005, -1.11640387e-004, -1.40920369e-004,
          1.63605117e-004, -2.80936598e-004, -2.02985539e-004,
          -1.69561326e-006, 8.31942452e-005, 7.57694434e-005,
          -2.69211479e-004, 1.75244873e-004, 6.15292593e-005,
          -1.76153815e-004, -1.21061857e-004, 1.92597563e-005,
          7.62856725e-005, -1.41773940e-004, -1.89148399e-004,
          1.23628022e-004, 5.93898221e-005, -1.23528807e-004,
          5.80605338e-005, 3.52268980e-005, -9.36539582e-005,
          -2.83891732e-005, 2.69210159e-005, -9.46492073e-005,
          -1.45798054e-004, -6.91240202e-005, -1.19370299e-004,
          4.16818948e-005, 4.54674737e-005, 1.11718313e-004,
          9.41662947e-005, -1.35933797e-005, -1.02368176e-004,
          -1.48833802e-004, -1.16630072e-004, -1.17302654e-004,
          5.77562896e-005, -2.05781151e-004, 1.39179847e-005,
          -1.16399518e-004, -1.09563705e-004, -9.25043278e-005,
          -2.06750119e-004, 3.29945557e-004, 1.78246977e-004,
          -2.11817227e-004, -5.78463732e-005, -3.64601554e-004,
          -7.89040860e-005, -3.08901392e-004, -1.59555202e-004,
          3.07260816e-005 ]
      - [ 1.22481986e-004, 6.60614460e-005, -1.84576384e-005,
          -2.72908102e-004, -1.23664460e-004, -4.18427317e-006,
          -1.76759058e-005, -4.24718820e-007, 4.04631573e-005,
          9.22824620e-005, 4.07145053e-005, -1.25236053e-004,
          -1.71689695e-004, -2.61211768e-004, -9.33231513e-006,
          1.32192945e-004, 1.94682580e-004, 2.62718349e-005,
          -1.90048595e-005, 8.90300071e-005, -1.23897393e-004,
          -2.08468598e-004, -8.13104125e-005, -6.89007502e-005,
          7.79175389e-005, 1.12857291e-004, 1.47510927e-005,
          1.32370842e-004, -1.17995842e-004, -7.98192486e-005,
          -6.62115708e-005, 1.05930972e-004, -4.44423895e-005,
          -1.59921092e-005, 2.95530936e-005, 5.10024911e-005,
          -1.80603165e-004, -2.79177795e-004, 4.47001730e-005,
          -1.05181516e-006, 6.37662670e-005, -1.20244593e-004,
          6.17787155e-005, 2.19731628e-005, 1.23101199e-006,
          -4.15577160e-005, 5.24045345e-006, -2.57411966e-006,
          -3.46455599e-005, -1.00575213e-004, -4.96927751e-005,
          5.46265474e-005, 1.93188054e-004, 1.11040426e-004,
          -3.23543063e-005, -4.29343163e-006, 1.15198607e-004,
          -7.34617133e-005, -1.17960910e-004, -9.64180435e-005,
          4.99769667e-005, -2.10051367e-005, -1.18638854e-004,
          -8.83495159e-005 ]
      - [ 9.48361867e-006, -3.44395317e-004, 5.04412747e-005,
          -3.00710642e-004, 3.19869760e-005, 1.80834351e-004,
          -8.14968720e-004, -7.25354592e-004, -3.79009492e-004,
          -1.12602531e-004, 4.25311562e-004, -3.54712014e-004,
          -5.16954897e-005, -1.91379237e-004, 3.50133269e-005,
          -8.12485232e-005, 2.20521557e-004, 3.62393883e-004,
          2.39334026e-004, 6.88205357e-004, 9.46157452e-005,
          2.17944544e-005, -3.88383225e-004, 1.73300723e-004,
          -1.31435954e-004, 3.07283684e-004, -2.49655190e-004,
          -5.79681864e-006, -3.56959295e-004, -2.35166401e-004,
          -5.42974522e-005, 3.79174133e-004, -9.71491536e-005,
          -7.60158655e-005, -6.63659011e-005, -8.38503824e-004,
          -3.96711606e-004, 7.75878289e-005, 2.48581084e-004,
          5.98934021e-005, 1.75772700e-004, 1.87884012e-004,
          -6.76602940e-005, -1.38291434e-004, -1.06145439e-004,
          -5.19113128e-005, -1.13977003e-004, -2.18808724e-004,
          -1.27545063e-004, 2.75822986e-005, -4.92068393e-005,
          -6.70688542e-006, 1.09660046e-004, -1.88862832e-004,
          3.90785484e-004, 3.39783641e-004, 9.23731859e-005,
          -1.73632943e-004, -2.03164484e-004, -2.89102434e-004,
          -8.31442230e-005, -1.80653180e-004, -3.35108052e-004,
          4.08255379e-004 ]
      - [ 2.03928653e-006, 8.57846899e-005, 2.56520252e-005,
          -1.11651505e-004, 6.97492142e-005, -6.83361286e-005,
          -8.95797639e-005, -4.86877652e-005, -4.98545160e-005,
          6.57418059e-005, 3.77984761e-005, -4.95079585e-005,
          9.01463500e-006, 2.03389536e-005, -8.14745654e-005,
          4.50006773e-005, 9.53946364e-005, -2.59521107e-006,
          -7.61705160e-005, 3.49716793e-005, -2.40233603e-005,
          -2.21501668e-005, -5.59917062e-005, 4.88540209e-005,
          1.23742157e-005, 3.53811265e-005, -1.67271969e-006,
          2.26536831e-005, -1.50392196e-004, -4.44460311e-005,
          2.54620772e-005, 8.63510504e-005, 4.92194049e-005,
          3.72999493e-005, -1.20476536e-004, -5.12043953e-005,
          -2.35747750e-004, -3.09245843e-005, -3.97260483e-005,
          7.08603111e-005, 1.24993414e-004, -3.92122593e-006,
          -7.54277207e-005, -1.24052487e-004, -1.38869247e-004,
          -8.92230764e-006, -3.11616714e-005, -2.01236908e-005,
          -4.38569950e-005, -5.78330437e-005, 7.70869610e-006,
          7.85503016e-006, 7.55954898e-005, 5.04402960e-005,
          -1.01861377e-004, 7.87368026e-006, 2.26053198e-005,
          4.06172319e-007, -6.62194434e-005, -4.28044441e-005,
          1.13296701e-004, -8.30801491e-006, -8.58520070e-005,
          -3.55937482e-005 ]
      - [ -1.51460408e-004, -1.64163328e-004, 1.38443327e-004,
          9.92731439e-005, 3.88026616e-004, 6.82524871e-004,
          -3.67504661e-004, -4.53653163e-004, 2.14160245e-004,
          -1.24238431e-005, 1.93937653e-004, 8.71807497e-005,
          7.13302579e-005, 4.05640967e-005, 3.53586714e-004,
          1.15119139e-004, -1.54860696e-004, -1.72345637e-004,
          1.14058210e-004, 2.07887861e-004, 2.76303792e-004,
          -9.96820745e-005, -2.37499538e-004, 3.74453753e-004,
          -1.91186016e-004, -2.91523756e-004, -4.43081459e-004,
          2.70892284e-004, -3.35268705e-004, -2.84962851e-004,
          -2.03816016e-004, -1.64332130e-004, 2.44485447e-004,
          6.24979584e-005, 5.41936242e-005, -3.71706381e-004,
          2.35430762e-005, 2.42216920e-005, 1.47617189e-004,
          2.47337593e-004, 3.38115322e-004, 1.67739141e-004,
          -6.33563031e-005, -1.48267936e-004, 1.14500101e-004,
          5.72464014e-005, 1.35362570e-004, 1.47122279e-004,
          -3.30796145e-004, -1.51470260e-004, -1.81116702e-004,
          -2.92802550e-004, 8.72058081e-005, -4.42729099e-004,
          1.27557860e-005, -6.83740363e-005, 1.06007537e-004,
          -2.81958783e-004, -1.99542934e-004, -2.35772706e-004,
          2.20143003e-004, -2.97928986e-004, 2.32844788e-004,
          2.83642235e-004 ]
      - [ 5.62738787e-005, 5.16722466e-005, 1.27257576e-004,
          -3.24270950e-004, -8.71374941e-005, -5.92446086e-005,
          -9.62188424e-005, -1.59050527e-004, -2.42880444e-004,
          -3.70970898e-004, -3.46512184e-004, -4.92969120e-004,
          -3.28196242e-004, -5.25360920e-005, -3.37837380e-004,
          -3.21791958e-005, -1.10265728e-005, -2.67484749e-004,
          -6.39441714e-006, 7.15675051e-005, -1.22129612e-004,
          -3.28733950e-005, -5.49047072e-005, -1.76526853e-004,
          1.52007880e-004, -2.84976821e-004, -1.03945844e-004,
          -2.82203982e-005, 4.08630207e-004, -1.19399563e-004,
          1.60713716e-005, 2.57822885e-005, -3.59642232e-004,
          -2.02796364e-004, -2.34227700e-004, -7.72817933e-004,
          -5.56929561e-004, -2.12704879e-004, 7.43781129e-005,
          9.76362026e-006, 2.03715914e-004, 8.71966131e-006,
          3.28069218e-005, 7.77756795e-005, -1.11345267e-004,
          -1.96236113e-004, -8.27717085e-005, -4.48274623e-005,
          2.33108483e-004, 1.50616936e-004, 2.46383042e-005,
          1.35499518e-004, 8.25245879e-005, 1.51749176e-004,
          1.97904796e-004, 2.11047984e-004, 1.07858097e-004,
          6.38743877e-005, 1.56050610e-005, 2.03015617e-004,
          -3.59919104e-005, 1.55578397e-004, 1.22826663e-004,
          -1.05898711e-004 ]
      - [ 1.74280052e-004, 1.45417624e-004, -2.62036832e-004,
          -5.33597013e-005, -2.05145785e-004, -2.77130544e-004,
          -4.48101258e-004, -4.97485511e-004, -1.21710567e-004,
          3.22716427e-004, 3.77812510e-004, -2.09168022e-004,
          6.79964432e-004, 1.28118860e-004, -2.44778988e-004,
          7.19689633e-005, -4.55359841e-005, -9.06550631e-005,
          1.95947810e-004, 6.49738649e-004, 3.18779057e-004,
          -5.49162942e-005, -4.87295067e-004, -2.44951749e-004,
          -4.22887446e-004, -1.01346057e-004, 7.87130266e-005,
          5.83360015e-005, -5.62476518e-004, -2.61551293e-004,
          -4.34289628e-004, -3.88264853e-005, -3.79899604e-004,
          -3.42170533e-004, -9.35755088e-005, -3.26879410e-004,
          -5.83741756e-004, -3.28199007e-004, 6.05960522e-005,
          -1.28981454e-004, 3.30661919e-006, -3.18342965e-004,
          -4.55742993e-005, -2.60186760e-004, 8.93521574e-005,
          -4.76491317e-004, -4.29099804e-004, 2.27124183e-005,
          -3.73613943e-006, -2.43029106e-004, -1.93434098e-004,
          -2.44850253e-005, 5.65210066e-004, 1.91943356e-004,
          -2.90768978e-004, -2.01075964e-004, -1.57401242e-004,
          -1.21194134e-004, -4.67021368e-004, -1.80082949e-004,
          2.03804855e-004, -2.42070557e-004, -2.03438380e-004,
          -3.13800410e-004 ]
      - [ -1.18619610e-004, -1.06617255e-004, 8.79654544e-005,
          5.13888263e-005, 1.95239467e-004, 1.06876496e-005,
          -2.86559043e-005, 1.00337329e-005, -4.73594409e-004,
          -8.42022928e-005, 1.53155925e-004, -1.26862287e-004,
          5.36394327e-005, -3.12949764e-004, -1.42519551e-004,
          -2.33736631e-004, 9.64260689e-005, -2.25118070e-004,
          1.99958173e-004, -2.17702327e-004, 2.85705319e-004,
          -4.70603030e-004, -5.50838486e-005, 6.91708919e-005,
          3.00543412e-004, -1.52381865e-004, 1.74576839e-004,
          -2.44580733e-004, -2.36934924e-004, -8.00254056e-005,
          -8.56231782e-006, 5.72498102e-005, -3.39937396e-005,
          -2.43727933e-004, -2.16417786e-004, -8.39057670e-004,
          -7.05865910e-004, -6.65496453e-004, -5.14421787e-004,
          -4.10863897e-004, -4.13589296e-004, -3.52795469e-004,
          -7.93528161e-005, -3.19189654e-004, -2.99757841e-004,
          -2.76651466e-004, -4.63564415e-004, -1.25464692e-004,
          -2.01560033e-004, -3.75596537e-005, -1.47083148e-004,
          -3.18585720e-004, 4.84151096e-004, 1.76826434e-004,
          2.62614369e-004, 3.57047538e-004, 3.15129349e-004,
          3.23263259e-004, 3.54143704e-004, 4.83278418e-004,
          4.28409345e-004, 4.65281453e-004, 2.80470093e-004,
          1.78665025e-004 ]
      - [ 1.35859271e-004, 9.04655317e-005, 1.52157780e-004,
          9.29135858e-005, 1.11750545e-004, 1.57627306e-004,
          -7.28937666e-005, 2.34308754e-004, 1.22240162e-004,
          5.10430473e-005, 3.48437716e-005, -1.05850959e-004,
          -4.58288268e-005, -7.32821209e-005, 5.52208985e-005,
          3.82053477e-005, 1.40487988e-004, 1.78713512e-004,
          2.07206293e-004, 8.68681018e-005, 4.37373856e-005,
          -1.22370620e-004, -4.99016314e-004, -3.34098950e-005,
          2.56869767e-004, 1.21870202e-004, 5.19950518e-005,
          -1.27276158e-004, -2.16975881e-004, -5.43990573e-005,
          -1.15491355e-004, 1.03149032e-004, 1.11262925e-004,
          -7.82476855e-005, -1.57348506e-004, 1.25167426e-004,
          -2.09205871e-004, -1.02441540e-004, -1.56636263e-004,
          -1.75373527e-004, -2.88805546e-004, -3.79057165e-004,
          -2.41682865e-004, -3.42110002e-006, 1.55225309e-004,
          3.31142946e-004, 2.37827364e-004, 3.57775512e-004,
          9.67968735e-005, -9.58996898e-005, 2.83399830e-004,
          6.18694758e-005, 2.60155735e-004, 2.28742385e-004,
          1.21642770e-004, -8.61016160e-005, -6.66484702e-005,
          -1.01222804e-005, -1.58554860e-004, 8.49073476e-005,
          4.02357255e-005, 8.79623331e-005, -6.17578189e-005,
          -3.23918648e-004 ]
      - [ -1.14870287e-004, -1.99694186e-004, 1.10650777e-004,
          5.83263027e-005, 1.79287730e-004, 1.57417686e-004,
          -6.05557034e-005, -2.66044779e-004, -1.19159857e-004,
          4.98271620e-005, 7.57742673e-005, 3.45404085e-004,
          2.95750040e-004, 2.28822770e-004, 1.17088435e-004,
          4.60809788e-005, -5.91161224e-005, 1.60864911e-005,
          3.55988333e-004, 8.45914183e-005, 8.96990314e-005,
          2.08553829e-004, -2.08648435e-005, -1.55244939e-004,
          -1.64853191e-004, 1.10818502e-004, 7.77662717e-005,
          7.33938650e-005, 7.95813958e-006, -9.06514288e-006,
          1.46927141e-005, -1.23107064e-004, -1.54653666e-004,
          -2.15109947e-004, -1.91433064e-004, -6.28491835e-005,
          -1.03623843e-005, 9.46508735e-005, -1.00506571e-004,
          -2.41722100e-005, 5.10968384e-005, -6.39745049e-005,
          4.46947888e-005, -5.53843529e-005, -1.64301513e-004,
          1.73025037e-004, 1.85324578e-004, 6.80685698e-005,
          -2.08395184e-004, 1.53749294e-004, 2.16452987e-004,
          1.13938069e-004, 1.88366947e-004, 1.08134132e-004,
          2.37258821e-004, 1.35997407e-005, 2.69350076e-005,
          -4.23995698e-005, 7.74393848e-005, -1.25222447e-004,
          1.52048335e-004, 2.50069075e-004, -2.14790969e-004,
          -1.83380645e-004 ]
      - [ -1.30648055e-004, -3.89355519e-005, 1.56364898e-004,
          1.27282721e-004, 1.14725233e-004, 6.89129374e-005,
          8.15405729e-005, -2.04284355e-004, -7.70506012e-005,
          2.26044693e-004, 3.36469275e-005, 9.55488213e-005,
          1.61629607e-004, 1.04720799e-004, 1.76205904e-005,
          -1.09657485e-004, -6.86832864e-005, -4.59494586e-005,
          1.54478301e-004, -1.54573456e-004, 3.30202056e-005,
          -1.31663517e-004, -5.05238480e-004, 1.48503823e-004,
          1.21006982e-004, 1.74395347e-004, -7.68250811e-006,
          -1.39369266e-004, -2.09007922e-004, -2.62848862e-005,
          -2.25293712e-004, 1.11381873e-004, 5.74653328e-004,
          1.68848812e-004, -1.07581494e-004, -1.31198525e-004,
          -2.91417586e-004, -3.93028167e-005, -3.81662758e-005,
          3.37778387e-004, 3.30182898e-004, -1.76674017e-004,
          -2.11515711e-004, -5.26744989e-004, -1.69146166e-004,
          -4.34201938e-005, 2.00459777e-004, 2.33691142e-004,
          -1.57702059e-004, -1.90858860e-004, 1.22245707e-004,
          1.72265536e-005, 2.77832092e-004, 3.55272414e-006,
          -6.07751681e-005, -2.25227748e-004, -6.37557678e-005,
          5.41217851e-005, -1.48083112e-004, 3.01669759e-004,
          1.34614878e-004, 9.64306091e-005, -2.11121354e-004,
          -2.66632502e-004 ]
      - [ -2.10358601e-004, -1.26041210e-004, 7.67063830e-005,
          2.61601439e-004, 2.04376338e-004, 3.50118207e-005,
          4.75721063e-005, -7.44542995e-005, -7.86556193e-005,
          -1.95526923e-006, -1.18665805e-004, 1.15670286e-004,
          1.98112699e-004, 2.51008925e-004, 2.59130087e-004,
          -9.38035810e-005, -9.55830183e-005, 1.05770878e-005,
          1.03406128e-004, -9.22955860e-006, 9.26973098e-006,
          -1.11947902e-005, 1.46185548e-005, 3.55438679e-005,
          -1.04466337e-004, -4.46980775e-005, 1.50844047e-004,
          6.48286004e-006, -3.98641714e-005, 4.89786144e-005,
          -1.13571070e-004, -6.83593316e-005, 1.56552123e-004,
          2.29954239e-005, -5.22131304e-005, -1.55833186e-004,
          -1.22953352e-004, -6.37185221e-005, 6.15753597e-005,
          2.32361417e-004, 1.74582965e-004, 3.50801092e-005,
          1.11146137e-005, 5.79100997e-005, -4.26106635e-005,
          6.27023401e-005, 2.09960472e-005, 1.48595529e-004,
          1.43761181e-005, 7.86664095e-005, 1.32869725e-004,
          -4.97217252e-006, 4.11915680e-005, -2.95324407e-005,
          1.39222946e-004, -3.59942533e-005, -1.11316374e-004,
          -9.70357796e-005, -1.39184522e-005, -4.90652528e-005,
          2.84487032e-005, 1.12439586e-004, -3.28621718e-005,
          -5.58555403e-005 ]
      - [ -1.19138858e-004, 9.82754937e-005, -1.32950692e-004,
          4.26959923e-005, -8.50611323e-005, 9.26886569e-005,
          7.05861719e-004, 5.63208014e-004, -2.44791125e-004,
          -1.72685977e-004, 2.31539016e-004, 2.13007224e-004,
          7.15476417e-005, -4.16840849e-005, -1.71366584e-004,
          -1.70031839e-004, -8.82473469e-005, 5.90087438e-005,
          1.79135415e-004, -3.89604771e-004, 3.15697762e-005,
          2.69782671e-004, 3.64663458e-004, -4.58479808e-005,
          -2.87061761e-004, -2.38512454e-004, 2.37685657e-004,
          2.29609737e-004, 2.42418202e-004, 2.60384724e-004,
          2.54197192e-004, 1.65722871e-004, -4.08754684e-004,
          2.85347742e-005, -8.17099994e-004, 2.01530984e-005,
          -2.95509264e-004, -4.83258991e-005, 1.16839128e-005,
          -5.27785778e-005, -1.42939592e-004, -1.65786885e-004,
          2.30437552e-004, -1.53118162e-004, 2.61680019e-004,
          2.74459249e-004, 2.74861814e-004, 1.53558663e-004,
          -2.40102163e-004, -3.03651195e-005, 1.04231522e-005,
          1.12802477e-003, 1.94583001e-004, -4.77736394e-005,
          6.24081178e-004, 3.89114357e-005, -4.63394972e-005,
          -1.37041978e-004, -7.80744740e-005, 1.76350775e-004,
          3.33794625e-004, 5.75732789e-004, -1.73603359e-004,
          -1.42225574e-004 ]
      - [ -1.68941944e-004, 1.74335946e-004, -8.16020256e-005,
          -4.11147012e-005, 1.02727208e-004, -2.89763644e-004,
          -3.82888509e-004, 3.13764991e-004, -6.51899318e-004,
          -2.02783667e-006, 5.72136662e-004, 3.80493031e-004,
          4.28086554e-004, 2.11584076e-004, -2.90941738e-004,
          -9.19684098e-005, -4.52947104e-004, -1.82686752e-004,
          2.72658712e-004, 6.59457350e-004, 1.29944732e-004,
          1.96569643e-004, -5.67338313e-004, -2.04687472e-004,
          -2.21257389e-004, -1.05059371e-004, -2.85456190e-005,
          4.97022120e-004, -2.63555936e-004, -3.62410356e-004,
          -5.84593159e-004, -5.21687325e-004, -1.37785464e-004,
          -3.55414144e-004, -4.29629261e-004, -2.15490043e-004,
          -3.06829461e-004, -1.72263492e-004, -6.21147919e-005,
          -3.11507247e-005, 1.20173936e-005, -5.21543203e-004,
          -4.07164276e-004, -2.64220434e-004, -1.19039432e-004,
          -3.08563103e-005, 3.75266100e-004, 1.18976859e-004,
          2.53844482e-004, -1.41342112e-004, 7.62557684e-005,
          2.34697596e-004, 2.85579183e-004, 2.94527446e-004,
          -1.02223139e-005, -4.61867108e-004, -3.61965358e-004,
          -2.69219076e-004, -3.53803043e-004, 1.88201753e-004,
          2.71443743e-004, 1.59764619e-004, -9.41500111e-005,
          -4.39580064e-004 ]
      - [ -1.93758591e-004, -2.33938219e-004, -2.04328084e-004,
          -3.34101424e-006, 7.27281295e-005, -9.92288769e-005,
          -1.00000318e-004, -3.05199828e-005, -2.58822634e-004,
          3.08998169e-005, -2.74810573e-005, 1.92654596e-004,
          4.68842445e-005, -5.63155154e-005, -7.44486897e-005,
          -2.13015534e-004, 4.02741171e-005, 6.10236530e-005,
          1.98555921e-004, 1.07583830e-004, 4.04788043e-005,
          -1.33566602e-004, -1.63427292e-004, -2.53563594e-005,
          8.35344035e-005, -1.78446862e-005, 2.54022249e-004,
          4.27783270e-005, -2.00924303e-004, 1.24243043e-005,
          6.87096035e-005, 1.55944326e-005, 1.32622474e-004,
          1.37152252e-004, 2.51981364e-005, -1.49214349e-004,
          -1.91192681e-004, -1.15505500e-005, 1.00000892e-004,
          -9.03148975e-006, 1.53539931e-005, -1.34171627e-004,
          1.78412272e-004, -8.63940149e-005, -6.38107522e-005,
          -3.65284432e-005, 1.14329443e-004, 1.57482034e-004,
          -2.99514450e-005, 1.23380305e-004, 1.38829040e-004,
          1.65875579e-004, 3.56285949e-004, 2.92923447e-004,
          4.15399612e-004, -5.99429186e-005, -1.45075173e-004,
          -2.21482751e-005, 3.36938901e-005, 4.20270953e-004,
          2.54630490e-004, 2.02499941e-004, 1.63610137e-004,
          -2.39910543e-004 ]
      - [ -1.92028936e-004, -2.21043869e-004, 1.46863153e-004,
          1.34043468e-004, 9.03318796e-005, -1.81607174e-004,
          -1.37266092e-004, -2.20331742e-004, -8.74665639e-005,
          -5.01794202e-005, -1.69495266e-004, 1.14487681e-004,
          2.17796391e-004, 2.48901430e-004, 1.89512939e-004,
          -1.44561360e-004, -1.04502207e-004, 4.14390015e-005,
          3.84508690e-004, 2.16041328e-004, 1.07700274e-004,
          1.21763631e-004, 2.60879151e-005, -2.03897944e-004,
          -1.29789230e-004, -1.34733418e-004, 1.23697347e-007,
          2.00074908e-004, -1.48741065e-005, -1.02876074e-004,
          1.22958692e-004, -5.37652850e-005, -6.09696290e-005,
          -1.05258448e-004, -3.10975855e-004, -1.83667260e-004,
          -7.50169565e-005, 1.71293766e-004, -1.74756540e-004,
          -2.40142731e-006, 2.48756714e-005, 4.34988397e-005,
          -4.54172950e-005, -2.21870887e-005, 4.05138508e-006,
          -1.79794188e-005, 4.77995054e-005, -3.69840200e-005,
          6.38902202e-005, 1.56116657e-004, 2.27766679e-004,
          8.29442142e-005, 5.55295446e-005, 1.81325559e-005,
          1.22403930e-004, 1.94134773e-004, -5.19613013e-006,
          3.51164999e-005, 2.01748611e-004, -4.67261234e-005,
          5.92938995e-005, -5.76625498e-005, -1.12309426e-004,
          -1.55717222e-004 ]
      - [ -1.26098399e-004, 1.68249768e-004, 2.87770992e-004,
          2.26044998e-004, 2.84772279e-004, -1.34013550e-004,
          1.12783542e-004, -5.62281988e-004, -1.63977384e-004,
          5.97472535e-005, -1.57618066e-004, 2.89533695e-004,
          2.54643412e-004, 2.25424505e-004, 4.13361595e-005,
          -8.03444345e-005, -1.99760310e-004, -7.98769688e-005,
          1.61958611e-004, 3.95486750e-005, -6.65813277e-005,
          -2.17740264e-004, -1.53762565e-004, -4.72077954e-005,
          -3.58481921e-004, -4.24223632e-004, -4.81514755e-004,
          -3.30472585e-006, -1.95226618e-004, -1.04088278e-004,
          5.78547078e-005, 1.80441813e-004, 2.06715442e-004,
          -1.18766977e-004, -7.14497655e-005, -6.20449951e-004,
          -2.84197595e-004, -6.95005510e-005, -1.75582827e-004,
          2.22092727e-004, 4.22780635e-004, 9.84952858e-005,
          -3.49730071e-005, -4.31096938e-004, -2.09768652e-004,
          4.51852429e-005, -2.34653897e-004, 9.39051461e-005,
          -2.79536645e-004, 2.70055869e-004, 1.18037706e-005,
          2.85697955e-004, 3.87353968e-004, 2.03265561e-004,
          3.20025691e-004, 3.54210031e-004, 4.64805838e-004,
          4.74872679e-004, 3.97833006e-004, 2.95635080e-004,
          3.28353286e-004, -7.07913387e-006, -2.84341022e-005,
          -1.94523163e-004 ]
      - [ -2.05788732e-004, -1.18439413e-004, 2.36371652e-005,
          2.04351934e-004, 6.67687273e-005, 1.80365641e-005,
          -3.90939895e-005, -1.49064057e-004, 1.05503532e-005,
          -8.17400942e-005, -9.00995947e-005, 1.06664382e-004,
          1.60486205e-004, 1.35870665e-004, 2.45804171e-004,
          4.85927412e-005, -1.52122011e-004, -7.48259481e-005,
          8.56944462e-005, 4.95570639e-005, 3.53544674e-005,
          4.85902774e-007, 1.91584531e-005, 3.85636486e-006,
          -1.78692826e-005, -1.52875044e-004, -3.24232205e-005,
          1.86667297e-004, 2.36771157e-005, 3.39912222e-005,
          -8.45090253e-005, -1.04734252e-004, 1.52976587e-004,
          1.07200707e-004, -6.24653840e-005, -1.48829713e-005,
          -9.62732665e-005, 5.25005562e-005, 9.81768608e-005,
          2.15365304e-004, 1.10182038e-004, 6.09977433e-005,
          5.54834514e-005, -2.75089988e-005, 9.61418027e-006,
          -6.26317342e-006, 4.00791359e-005, 8.15941094e-005,
          3.80841520e-005, 1.03503349e-004, 4.05902465e-005,
          3.23586646e-005, -5.00994756e-005, -4.18687305e-005,
          -6.50384163e-006, 8.00226917e-005, 1.25841289e-005,
          -6.84595125e-006, 7.06950959e-005, -1.18468080e-004,
          -3.26620757e-005, 5.99741361e-005, 5.45565417e-005,
          8.67104900e-005 ]
      - [ -2.59261840e-004, 1.12076217e-004, -5.80323431e-005,
          -2.46707292e-004, -4.66132886e-004, -3.29416012e-004,
          -8.03971197e-005, -1.87820711e-004, -4.03607788e-004,
          -3.91317910e-004, -4.65008161e-005, 8.05777688e-007,
          9.22145191e-005, 3.34810436e-004, 2.40179972e-004,
          -7.70914121e-005, -2.17246998e-004, -3.40882907e-005,
          7.57953094e-005, 7.87495374e-005, 1.14893744e-004,
          4.40300064e-004, 5.92822384e-004, 6.33795062e-005,
          -3.09083669e-004, -2.45314703e-004, 9.10380913e-006,
          2.54699815e-004, 5.26112854e-004, 9.09866776e-006,
          3.73813935e-004, -3.22009524e-004, -3.07222625e-004,
          -1.28146829e-004, -4.80513612e-004, -4.16918541e-004,
          -2.37516724e-004, -8.35654864e-005, 5.34503852e-005,
          1.45112295e-004, 2.06588629e-005, 4.31499386e-004,
          4.63947450e-004, -2.97773338e-004, -3.94394796e-004,
          3.45810149e-005, -4.24668950e-004, -6.81827194e-004,
          3.63514089e-004, 2.23425996e-005, 3.20055231e-004,
          3.32570984e-004, -7.76221859e-005, 1.88962658e-004,
          5.89177827e-004, 1.64998317e-004, 3.71044065e-004,
          1.88039849e-004, 2.94515659e-004, 1.96006964e-004,
          3.16178230e-005, 2.78485881e-004, 4.63442469e-004,
          2.87684175e-004 ]
      - [ 2.17699180e-005, -8.94569239e-005, -1.77662965e-004,
          2.03576401e-005, -1.87377751e-004, -1.31385270e-004,
          -4.65048186e-004, -8.19009554e-004, -6.91721099e-004,
          5.96761129e-005, 3.19478771e-004, -2.10312937e-005,
          3.41418228e-004, 1.06970554e-004, -1.96173132e-004,
          -2.47197713e-005, -3.38901620e-004, -1.85388650e-004,
          -2.13863041e-005, 3.43106192e-004, 3.05313966e-004,
          1.30188389e-004, -4.52933637e-005, 2.43435552e-005,
          -5.22652932e-004, -4.94260457e-004, -5.48210664e-005,
          5.58983629e-005, -1.51370923e-005, 9.38180710e-006,
          -1.35415874e-004, -1.54827561e-004, -2.86641443e-004,
          1.36223709e-004, -2.04450378e-004, -2.99897602e-006,
          -6.72727838e-005, -1.29112668e-004, -8.12334329e-005,
          -1.02973427e-004, -3.93064438e-005, -3.23437562e-005,
          -1.63258781e-004, -2.71685887e-004, -1.66260390e-004,
          -2.18286310e-004, 5.07861159e-006, -5.47083400e-005,
          3.36464029e-004, 9.16894423e-005, 1.99536866e-004,
          -1.08339606e-004, 1.46288599e-004, -2.54794606e-004,
          -5.02702605e-005, -1.03956743e-004, 4.88886435e-005,
          9.32926196e-005, 1.03783619e-004, -8.70306903e-005,
          1.73244451e-004, 1.66385187e-004, -1.25913750e-004,
          -1.15924071e-004 ]
      - [ -2.95862119e-004, -3.62554070e-004, -2.71341036e-004,
          -1.74360088e-004, -1.31567678e-004, -3.16670412e-005,
          -6.04855129e-004, -5.46415453e-004, -4.56791284e-004,
          -1.75620866e-004, 6.26649708e-005, 1.90273393e-004,
          1.64933444e-004, 6.05566420e-005, -7.45932484e-005,
          -3.66987661e-004, -8.51640070e-005, -5.03353340e-006,
          3.44671498e-005, 3.72866925e-005, -7.80631162e-005,
          -2.45316653e-004, 6.51498922e-005, 1.73394830e-004,
          -2.97908759e-004, 1.81767246e-004, 3.06971604e-004,
          1.45097729e-004, 1.20833320e-004, 5.11015714e-005,
          2.94452475e-004, -4.37706058e-006, -2.71031080e-004,
          3.51626979e-004, -3.18761828e-004, -3.17072729e-004,
          -1.51256128e-004, -2.00540584e-004, -3.77079035e-004,
          -2.78433989e-004, -2.66783085e-004, -1.88082719e-004,
          1.02930033e-004, 7.14070193e-005, -7.77625464e-005,
          -4.72624903e-004, 3.23187123e-004, -1.62066863e-004,
          -9.11964089e-005, 1.64198191e-005, -4.89723861e-005,
          1.38365911e-004, 3.04466550e-004, 1.01849131e-004,
          2.21833558e-004, 2.74465594e-004, 2.24809875e-004,
          3.65265703e-004, 3.89844383e-004, 3.55418830e-004,
          2.14143874e-004, 1.69899140e-004, 3.94110626e-004,
          -1.02931685e-004 ]
      - [ 5.20692593e-005, 2.13503663e-004, 6.78367796e-005,
          -3.33719545e-005, 4.02112091e-005, 1.35088310e-004,
          3.74599113e-005, 5.30937541e-005, 7.06815335e-005,
          1.26978266e-004, -7.57598173e-005, -1.03665050e-004,
          1.38957606e-004, 3.03310062e-005, -8.34164093e-005,
          1.23367599e-005, 3.05184949e-005, -5.63834546e-005,
          -3.09998810e-004, -2.65062612e-004, -1.08154753e-004,
          -1.82932155e-004, -6.00978128e-005, 1.06830033e-004,
          1.17233460e-004, -4.61392046e-005, -4.35536967e-005,
          4.86384379e-005, -1.78070142e-004, -1.07162981e-004,
          -1.46191858e-004, 1.74415782e-005, 2.36321779e-004,
          1.72788175e-004, -2.50020094e-005, -8.46548755e-006,
          -1.82225529e-004, -4.29807696e-005, 5.46634074e-005,
          1.39431446e-004, 2.06296594e-004, 3.62600076e-005,
          -1.32755042e-004, -2.12343191e-004, -1.03039012e-004,
          -3.78775258e-005, -3.89797860e-005, 2.29887173e-005,
          -7.39151801e-005, -3.93989410e-008, -1.64508427e-004,
          1.94903100e-006, -5.86808055e-005, -6.03884255e-005,
          -8.57660707e-005, -1.57605187e-004, -3.98235488e-006,
          4.71971907e-005, -7.75151057e-006, 1.32593559e-004,
          -6.01507054e-005, -1.78130667e-005, 8.06116223e-005,
          1.27329622e-004 ]
      - [ 6.47485867e-005, 1.90440551e-004, 4.15014772e-004,
          3.72185139e-004, 1.65846242e-004, 6.95152499e-004,
          9.98289979e-005, -8.43973685e-005, -3.90601694e-004,
          5.65059090e-005, -8.44231035e-005, 3.18483682e-004,
          2.60772795e-004, 5.14483145e-005, 6.32138050e-004,
          2.21219772e-004, -2.73317390e-004, -3.00908054e-004,
          -1.72404616e-004, 6.93328620e-005, -2.62307614e-004,
          -6.13515440e-004, 1.22931437e-004, 6.36206896e-005,
          8.53774909e-005, 1.24910977e-004, -3.91976733e-004,
          1.04895262e-004, -1.02695376e-004, -3.08425333e-005,
          -4.81269322e-004, -5.14537736e-004, 8.83606437e-004,
          8.35763640e-004, 1.76950387e-004, -1.59004689e-004,
          -3.30191979e-004, -1.12148962e-004, 8.42126465e-005,
          5.90213283e-004, 4.17156902e-004, 3.12061129e-005,
          3.44692344e-005, 3.74754127e-005, 2.32111022e-004,
          1.17200594e-004, -1.00324505e-004, 3.02162138e-004,
          -3.06128146e-004, -7.53539789e-004, -7.69027392e-004,
          3.12298798e-004, -4.36038710e-004, -9.20802922e-005,
          -3.61251936e-004, -1.48875915e-004, 2.16870321e-004,
          -1.29369437e-004, -1.44701175e-004, -8.56426777e-005,
          7.29813546e-005, -6.41907682e-004, 2.42507042e-004,
          2.48175871e-004 ]
      - [ 2.09293954e-004, 2.33780593e-004, -2.44447638e-005,
          -1.97578382e-004, -3.97167285e-004, 2.08919417e-004,
          4.05513973e-004, 8.46299576e-004, 2.63070997e-005,
          -7.06882129e-005, -1.59882009e-004, -7.53193919e-004,
          -2.79194239e-004, -1.58076204e-004, -2.25813565e-004,
          1.05943829e-004, -8.88233044e-005, -8.34390521e-005,
          -5.60038316e-004, -6.43078296e-004, 1.88803111e-004,
          1.94452907e-004, 3.92470916e-004, 6.31674848e-005,
          1.49753352e-004, -4.05724917e-004, -7.12556939e-005,
          1.23054444e-004, 1.60740907e-004, 3.22738488e-004,
          -2.95177044e-004, -4.58026043e-005, 2.52107246e-004,
          4.55048284e-004, -3.38022190e-004, 1.33021822e-004,
          -1.04862811e-004, -1.29334134e-004, 1.00793608e-004,
          -9.89944820e-005, 1.68540009e-005, -1.68273473e-004,
          2.82526627e-004, 3.22758802e-004, 7.50746112e-005,
          -3.81920690e-004, -1.06974354e-003, -1.55833521e-004,
          -4.24634636e-004, -2.55048275e-004, -1.82834992e-004,
          8.03651346e-005, 1.07842512e-004, 1.31157431e-004,
          -9.02299507e-005, -2.65995186e-004, -1.93827829e-004,
          8.52832527e-005, -2.56161875e-004, 1.66290367e-004,
          1.28904358e-004, 1.29815657e-004, 2.59310240e-004,
          2.09967868e-004 ]
      - [ 7.94919615e-005, 1.31911467e-004, -4.01631114e-004,
          -6.16149700e-005, -2.94555473e-004, 9.99067197e-005,
          -3.13146188e-006, 7.08209045e-005, -1.13082584e-004,
          1.34470742e-004, -2.68413161e-004, -4.12639813e-004,
          1.60226526e-004, 3.24110406e-005, -3.61241429e-004,
          -1.31350404e-004, -4.25741950e-004, -3.30366776e-004,
          -3.90434434e-004, 4.11406654e-004, -2.03771619e-004,
          -6.24005566e-004, -2.15815191e-004, 2.78360647e-004,
          1.23392601e-005, -8.52788144e-005, -1.08468394e-005,
          1.23943304e-004, -8.35394349e-006, -1.46590435e-004,
          -4.46817285e-004, -3.32126190e-004, -1.07890955e-004,
          5.30068588e-004, -2.39759684e-005, 4.66091267e-004,
          -9.34106429e-005, -1.94376495e-004, 2.32206057e-005,
          7.47203158e-005, 1.17991061e-004, -1.89748807e-005,
          -1.28835527e-004, 1.77504888e-004, 2.04092703e-005,
          -8.03416187e-004, -6.85781823e-004, 5.10419253e-004,
          -2.25900221e-004, -7.04990933e-004, -3.27671907e-004,
          4.97245172e-004, 2.17260895e-004, -7.89258280e-004,
          -6.27142028e-004, -6.52613933e-004, -4.25785867e-004,
          -1.65908685e-004, -1.94420441e-004, 2.42461494e-004,
          1.31284483e-004, -4.69435727e-005, 1.44352132e-004,
          -8.19619163e-005 ]
      - [ 1.10495901e-004, 6.17686237e-005, -4.17052324e-005,
          -4.15302311e-005, 7.03307596e-005, 1.06472362e-004,
          1.87688798e-004, 2.91048986e-004, -4.88512960e-005,
          -1.54583511e-004, -2.47476914e-004, -1.98573340e-004,
          8.31110374e-005, 5.41779700e-005, -1.48958861e-004,
          -2.68294152e-005, 1.28476735e-004, 1.45559621e-004,
          5.36005027e-005, -2.89940654e-004, 1.55686052e-004,
          -1.31875349e-004, 2.98049505e-004, 3.48935166e-004,
          1.28619402e-004, -6.51281662e-005, 3.90887908e-005,
          1.06253010e-005, 1.00733660e-005, -2.41120506e-005,
          2.82230503e-005, 1.38443051e-004, 1.16422423e-004,
          2.13473628e-004, 1.72461048e-004, 1.09539586e-004,
          1.93585092e-005, -1.08157772e-004, 4.12434747e-006,
          -4.49507206e-005, -2.57853771e-005, -8.08667246e-005,
          9.28254158e-005, 9.29312082e-005, -9.71852787e-005,
          -5.48884913e-004, -7.27437146e-004, 1.06384541e-004,
          6.39350037e-006, -1.85615529e-004, 5.51509074e-005,
          -9.84003127e-005, 1.85045297e-004, -1.58083159e-004,
          -7.26628787e-005, -3.43203537e-005, -1.04254126e-004,
          4.68486578e-005, 9.32594849e-005, 2.22237082e-004,
          8.13583465e-005, 1.41807774e-004, 2.18768197e-004,
          -1.47353262e-006 ]
      - [ -4.24092024e-004, -3.68181296e-004, -9.13816439e-006,
          7.02848847e-005, 1.05740561e-004, 3.09417432e-004,
          -1.12002301e-004, 3.81488680e-005, -5.27757104e-004,
          -7.38045317e-004, -6.73324161e-004, -4.30676300e-004,
          -2.81484099e-004, -3.32353549e-004, 5.67267882e-004,
          3.78176919e-005, -2.06234516e-004, -9.54071511e-005,
          2.78239313e-004, 2.89044314e-004, 5.60558401e-004,
          -3.10027011e-004, 1.89854647e-004, -2.52957834e-004,
          -2.51953134e-005, -3.39914201e-004, 4.01965284e-004,
          5.21806127e-004, 4.37737239e-004, -1.79993895e-005,
          -1.16183917e-004, -1.11654379e-004, 1.38444462e-004,
          5.30693680e-004, 3.00316548e-004, -2.13968509e-004,
          2.48068507e-004, -3.19943705e-004, 2.52986385e-004,
          -4.88651567e-005, 2.21508410e-004, -1.10327501e-005,
          5.60992106e-004, 6.17187936e-004, 6.30044611e-004,
          -2.83353380e-004, 1.04581704e-004, 2.89001880e-004,
          1.28983258e-004, -4.92538493e-005, 2.01691641e-004,
          -2.71240046e-004, 2.42931725e-004, -1.55038229e-004,
          -2.64570670e-004, -1.61335309e-004, -2.16507789e-004,
          -2.60733737e-004, -3.28354217e-004, -7.66846584e-004,
          -4.30006272e-004, 5.04052499e-004, 2.57760485e-006,
          -2.44652416e-004 ]
      - [ 3.60369522e-005, -5.09158453e-005, -1.55196722e-005,
          -9.82169586e-005, -8.35557876e-005, 3.78245895e-005,
          7.15875358e-005, -8.63630921e-005, -4.88796322e-005,
          -1.37128096e-004, 5.59836371e-005, 4.37563267e-006,
          -1.31645167e-004, -7.96412205e-005, 3.03680936e-005,
          9.59694153e-005, -1.40038203e-004, 1.22419748e-004,
          9.32873591e-005, 9.22511026e-005, 1.19151133e-004,
          1.09835899e-004, 8.73077079e-005, -1.71264168e-004,
          -3.98038319e-005, 8.09971461e-005, 6.23567644e-007,
          3.81676182e-006, 3.02613131e-004, 2.03309901e-004,
          8.07818797e-005, -1.05851395e-004, -2.44209979e-004,
          -2.40537775e-004, -2.08529687e-004, 1.72431319e-004,
          -3.31109150e-005, 4.65649682e-005, 9.48065936e-005,
          -1.30371525e-004, -1.71755833e-004, -7.89663827e-005,
          2.55637075e-004, 2.04601194e-004, 1.27016887e-004,
          -6.66128690e-005, -7.65018194e-005, -7.33117049e-005,
          5.11764374e-005, -5.51058329e-005, 1.01480910e-004,
          1.23210411e-004, -3.80009769e-005, 9.56274089e-005,
          4.27278610e-005, 5.29540303e-005, 5.40687543e-005,
          -9.36979632e-005, -1.08612447e-004, -8.56820916e-005,
          2.88591928e-005, 2.87615549e-005, 8.04505703e-007,
          -9.53204726e-005 ]
      - [ -6.96190546e-005, -1.96380686e-004, -2.48510478e-004,
          -2.88594485e-004, -1.60759548e-004, -1.59141768e-004,
          -6.14023156e-005, -1.06593288e-004, -4.89395861e-005,
          1.79628172e-004, 6.35438846e-005, 3.40299419e-004,
          7.40883988e-005, -6.97834912e-005, -1.79436975e-004,
          -1.18964112e-004, -1.85711047e-004, 1.92964799e-005,
          7.38999443e-005, 9.81136909e-005, 2.56695639e-004,
          1.14457231e-004, -4.51403612e-005, -3.71321948e-005,
          -2.77673156e-004, -1.07342530e-004, 1.95028115e-004,
          -5.12189581e-005, 7.69671824e-005, -1.37377683e-005,
          8.16698885e-005, -7.45853977e-005, -2.18666959e-004,
          -1.23836609e-004, -9.80279401e-006, 1.02825121e-004,
          1.05155741e-004, 3.37512538e-005, 4.85004966e-005,
          -5.64154607e-006, -4.91134997e-005, 2.39228793e-005,
          -7.26270664e-005, 4.41901238e-006, 4.18579657e-005,
          -3.26057430e-004, -5.82263492e-005, -2.67621304e-004,
          2.42451599e-004, -8.14637824e-005, 1.08956512e-004,
          -8.25782408e-005, 5.75992308e-005, 7.86050223e-005,
          -1.04262632e-004, -1.78049959e-004, -4.00119461e-005,
          -7.76037123e-005, -1.25117906e-004, -1.50321852e-004,
          -1.64506462e-004, -1.61025542e-004, -4.97875299e-005,
          -4.31848603e-005 ]
      - [ -2.07643869e-004, -4.69450722e-004, -3.82574101e-004,
          -1.49746571e-004, -2.20477479e-004, 1.76781439e-004,
          -2.60961788e-005, -3.40385850e-005, -3.44896864e-004,
          -5.62828100e-005, -1.04986093e-005, 2.08129040e-005,
          -1.95130669e-005, -1.27781765e-004, -7.54535722e-005,
          -2.33721366e-004, -4.39943324e-005, 1.13410999e-004,
          3.90182890e-004, 1.95754634e-004, 1.69145875e-004,
          2.33165065e-005, 1.02528429e-004, 7.24414058e-005,
          4.91768651e-006, 1.11631969e-004, 4.41578217e-004,
          -8.67220369e-005, 1.28733664e-004, 7.73080392e-005,
          2.89906166e-004, 1.00696780e-004, -3.63404368e-004,
          -3.40570434e-004, 1.82953008e-004, 7.91987259e-005,
          2.62672140e-004, 1.01922968e-004, -2.85315706e-004,
          -3.09659372e-004, -3.78173077e-004, -1.63588382e-004,
          3.31157644e-004, 3.37458681e-004, -4.48321152e-005,
          -2.60869594e-004, 3.68483685e-004, 2.88723531e-004,
          -1.05189065e-004, -6.11852374e-005, -3.57656722e-006,
          6.56177144e-005, 3.26429108e-005, -1.50951691e-005,
          2.81395303e-004, 1.31229637e-004, -9.23207772e-005,
          -6.70219597e-005, 1.03835060e-004, 1.33314854e-004,
          2.42438473e-005, -4.34095913e-004, 6.48896734e-004,
          -3.02167988e-004 ]
      - [ 1.20955781e-004, 4.59071343e-005, -4.28279009e-006,
          -9.27537330e-005, -1.15449118e-004, -2.11688184e-005,
          -8.06787866e-005, 4.34211106e-005, 4.39728365e-006,
          3.55351003e-005, -3.06217989e-005, -1.06680716e-004,
          -6.49013455e-005, -1.17009797e-004, -1.91360130e-004,
          3.36031917e-005, 3.21226471e-005, -2.43407394e-005,
          -2.34543841e-005, -5.45574621e-005, 3.91780595e-005,
          5.70837838e-005, 8.37186526e-005, 3.10908326e-005,
          5.57321291e-005, 4.69474871e-005, -3.32634340e-006,
          -7.63317221e-005, 7.00417731e-005, 1.04650426e-004,
          1.20061733e-004, 5.81565037e-005, -1.23077145e-004,
          -1.26223182e-004, -5.81372478e-005, 1.84617493e-005,
          -6.17376791e-005, 5.61869228e-006, -2.07997582e-005,
          -1.04964303e-004, -1.54783193e-004, -8.90152660e-005,
          -4.79542396e-005, -3.70933412e-005, -7.43333221e-005,
          -6.45350301e-005, -5.52832134e-005, -1.38340707e-004,
          -2.82286092e-005, -2.67096584e-005, 4.36353730e-005,
          4.43996214e-005, 8.03291696e-005, 6.87327411e-005,
          4.52812747e-005, -2.28785084e-005, -7.22224941e-005,
          1.76811900e-005, 3.64042753e-005, 6.73730683e-005,
          7.61478514e-005, 8.46310650e-005, 1.45563690e-005,
          -5.49368269e-005 ]
      - [ 1.96940804e-004, 1.51884378e-004, -1.15800620e-004,
          -4.87500743e-004, -2.45104980e-004, -4.10204899e-004,
          1.71640015e-004, -1.69610503e-004, 1.74270943e-004,
          1.05895910e-004, 3.22873238e-004, 6.29572105e-006,
          -2.07417197e-005, -3.30630806e-004, -8.25909548e-004,
          -3.58305057e-004, -2.11353690e-004, 1.27158113e-004,
          -2.37793749e-004, -1.01424230e-004, 7.58749156e-005,
          7.37868540e-005, -1.71739914e-004, -1.08679524e-004,
          -9.22499239e-005, 1.46911829e-004, 3.66638327e-004,
          -3.48446629e-004, -4.15168688e-005, -2.11100109e-004,
          -7.29604144e-005, 5.10382015e-005, -2.72459467e-004,
          -3.56708188e-004, -7.88377019e-006, 1.28732470e-004,
          7.40631149e-005, 1.33415388e-005, -5.36135223e-004,
          -3.81214690e-004, -4.85790748e-004, -5.31532976e-004,
          -2.73238315e-004, -7.68566315e-005, 1.67227863e-005,
          -3.78666882e-004, -2.91998149e-004, -1.74305635e-004,
          6.19241982e-005, -2.02426440e-004, 6.70984664e-005,
          7.24136771e-005, 1.57321425e-004, 7.13561385e-005,
          -1.59081726e-004, -1.99049129e-004, -1.68086073e-004,
          -2.25487406e-006, -1.16532334e-004, 1.28340267e-004,
          -4.39205905e-005, 5.55666957e-005, -4.11705900e-004,
          -1.05990621e-005 ]
      - [ 6.12878503e-005, -5.40527981e-005, -1.53671732e-004,
          -3.30372364e-004, -7.33573106e-005, -9.45610082e-005,
          -3.85627209e-005, 8.59560532e-006, -2.42395126e-005,
          7.40533214e-005, -4.96101939e-006, -1.33487629e-004,
          -1.72712505e-004, -1.92322186e-004, -2.28443459e-004,
          -9.48898887e-005, 1.92223233e-004, 8.98758226e-005,
          3.43252832e-005, -8.34133098e-005, 1.06384519e-004,
          8.02161867e-006, 1.34198068e-004, 1.11175192e-004,
          5.00922251e-005, 1.76030648e-004, 1.19189855e-004,
          -1.53134431e-004, 3.47337191e-005, 1.12925925e-004,
          2.20695219e-004, 2.16810251e-004, -1.66764119e-004,
          -1.18685472e-004, 1.87191090e-005, 1.04125407e-004,
          7.11403482e-005, -4.92955332e-005, -9.16040735e-005,
          -2.24477364e-004, -2.08733443e-004, -2.06967234e-004,
          -5.22951414e-005, -2.09326608e-005, -6.76531417e-005,
          -1.08075277e-004, -1.52945242e-004, -1.59857009e-004,
          3.29836871e-006, 5.44466784e-005, 9.40171012e-005,
          -3.39066246e-005, 7.32508488e-005, 4.70543200e-005,
          2.67537602e-004, 4.43330500e-005, -9.68282402e-005,
          1.16217765e-004, 1.05716485e-004, 1.59501607e-004,
          8.78431310e-005, 9.20863895e-005, -4.59484909e-005,
          -1.44822814e-004 ]
      - [ -4.79608898e-005, 8.31790094e-005, -3.44619388e-004,
          6.70413501e-005, -3.14400895e-005, 7.39730312e-005,
          -6.32529787e-004, -3.88492976e-004, 4.44240839e-004,
          1.90094128e-004, 9.69536995e-005, 2.06301440e-004,
          3.52535193e-004, 1.98492780e-004, -2.09567486e-004,
          -5.88079311e-005, -2.46409152e-004, -4.30575426e-004,
          -4.88989390e-005, 5.69941534e-004, -4.53750719e-004,
          -8.30888748e-004, -2.57763197e-004, 4.15467657e-004,
          -3.21712869e-004, -1.37414594e-004, 1.67555598e-004,
          -9.40487644e-006, -3.64559965e-004, -3.95425013e-004,
          -4.01210651e-004, -2.05210294e-004, 2.73140467e-004,
          8.66647533e-005, 3.89937486e-004, 9.69641769e-005,
          2.01001938e-004, -3.90822534e-005, 1.67363451e-005,
          1.67542621e-005, 1.36654380e-005, -8.50426150e-005,
          -6.00547297e-004, -2.71505822e-004, -3.66595399e-004,
          -3.20137042e-004, 3.19282437e-004, 3.73686053e-004,
          3.74252959e-005, -2.52421363e-004, -2.22803341e-004,
          -3.07720125e-004, -6.20833307e-005, -1.92587497e-004,
          -4.78869362e-004, -4.54788940e-004, -1.80375166e-004,
          -8.68080751e-005, -2.10431623e-004, -1.21612407e-004,
          3.40075756e-004, -4.29898762e-004, 8.56270271e-005,
          -1.15813426e-004 ]
      - [ -9.08964139e-005, -1.09545006e-004, -6.72489332e-005,
          -1.32444775e-005, 5.43618771e-005, 3.77457691e-005,
          -7.23932171e-005, -2.15185792e-005, 4.55821319e-005,
          1.41598372e-004, 3.99728051e-005, 4.52531203e-005,
          4.15699906e-005, -1.11218156e-004, -1.02867321e-004,
          -7.22407203e-005, 3.10423311e-005, 4.79730952e-005,
          -4.40427175e-005, 1.37425086e-004, -1.11236230e-004,
          -2.85120041e-004, -3.35967707e-005, 8.89242583e-005,
          8.48741111e-005, 3.33664502e-005, 6.71651796e-005,
          -1.77200691e-005, -1.06316038e-004, -1.04577273e-004,
          4.11781093e-006, 9.24137294e-006, 2.63437505e-005,
          1.09136117e-005, 3.54825352e-005, -2.47567350e-005,
          -2.07992125e-005, -3.54222539e-005, -7.28929663e-005,
          -4.18540840e-005, 7.01445970e-006, -5.91422613e-005,
          9.26793437e-005, -1.58901559e-004, -2.82096589e-005,
          -1.31516645e-004, -1.11222522e-004, -3.09430579e-005,
          -1.23022783e-005, -6.01375632e-006, -2.81294106e-005,
          -9.85303050e-005, 9.24691631e-005, -1.77624039e-004,
          4.57071837e-005, 1.77105430e-005, 3.14104800e-005,
          4.70634222e-005, 1.31602646e-004, 3.52809766e-005,
          4.91884675e-005, 9.00312807e-005, -1.31912879e-004,
          -4.34842987e-005 ]
      - [ -2.39125875e-004, -2.81067827e-004, -5.50938712e-005,
          1.96201378e-004, 1.78460163e-004, 2.39123692e-004,
          5.20582718e-004, 8.05939635e-005, -6.76057016e-006,
          -1.85771671e-004, -1.59166899e-004, 1.61691187e-005,
          -1.14393573e-004, -1.38288509e-004, -2.11316019e-005,
          -2.02074865e-004, 4.16302239e-004, 3.88392131e-004,
          1.57368107e-004, -4.96096982e-005, 1.56021255e-004,
          -4.44883859e-004, -9.10617164e-005, 2.92678364e-004,
          1.07052743e-004, -4.58993964e-005, 1.11893496e-004,
          -1.39697295e-004, -8.40301218e-005, 1.58255920e-004,
          2.26855336e-004, 4.21784265e-004, 1.48060237e-004,
          -1.79086437e-005, -1.57900678e-004, -1.77355163e-004,
          -3.20136780e-004, -3.16025427e-004, -4.07931628e-004,
          -3.28418653e-004, -3.10578005e-004, -2.14009284e-004,
          1.80417977e-004, 2.25751050e-004, -2.06633431e-005,
          -4.88256883e-005, -2.69373239e-004, -1.99377057e-004,
          -7.06503997e-005, -9.94823131e-005, -2.71157442e-005,
          1.69097839e-005, 1.52687950e-004, 1.12808390e-004,
          3.96409188e-004, 4.15703747e-004, 3.36610625e-004,
          3.14892008e-004, 4.91199258e-004, 5.52475103e-004,
          4.65184567e-004, 3.89616936e-004, 9.85471706e-006,
          -2.70119112e-004 ]
   decision_functions:
      -
         sv_count: 1
         rho: 4.2548726476123386e+000
         alpha: [ 1. ]
         index: [ 0 ]
      -
         sv_count: 1
         rho: 7.8092029363500515e-001
         alpha: [ 1. ]
         index: [ 1 ]
      -
         sv_count: 1
         rho: -2.1461425804398004e-001
         alpha: [ 1. ]
         index: [ 2 ]
      -
         sv_count: 1
         rho: 5.1648276223980343e+000
         alpha: [ 1. ]
         index: [ 3 ]
      -
         sv_count: 1
         rho: 2.4158567802637734e+000
         alpha: [ 1. ]
         index: [ 4 ]
      -
         sv_count: 1
         rho: 2.5864639956757594e+000
         alpha: [ 1. ]
         index: [ 5 ]
      -
         sv_count: 1
         rho: 2.6315409064493065e+000
         alpha: [ 1. ]
         index: [ 6 ]
      -
         sv_count: 1
         rho: -3.4705965410109929e+000
         alpha: [ 1. ]
         index: [ 7 ]
      -
         sv_count: 1
         rho: 2.6585638354567793e+000
         alpha: [ 1. ]
         index: [ 8 ]
      -
         sv_count: 1
         rho: -1.7331159107450664e+000
         alpha: [ 1. ]
         index: [ 9 ]
      -
         sv_count: 1
         rho: -1.0778517005176098e+000
         alpha: [ 1. ]
         index: [ 10 ]
      -
         sv_count: 1
         rho: -3.3380677866423591e-001
         alpha: [ 1. ]
         index: [ 11 ]
      -
         sv_count: 1
         rho: -5.3714672525407392e-001
         alpha: [ 1. ]
         index: [ 12 ]
      -
         sv_count: 1
         rho: -3.8979764997681494e+000
         alpha: [ 1. ]
         index: [ 13 ]
      -
         sv_count: 1
         rho: -1.6398407249432005e+000
         alpha: [ 1. ]
         index: [ 14 ]
      -
         sv_count: 1
         rho: -1.1683163114979683e+001
         alpha: [ 1. ]
         index: [ 15 ]
      -
         sv_count: 1
         rho: -6.2966495265114899e+000
         alpha: [ 1. ]
         index: [ 16 ]
      -
         sv_count: 1
         rho: -2.0425587669913012e+000
         alpha: [ 1. ]
         index: [ 17 ]
      -
         sv_count: 1
         rho: 1.0106209643249637e+000
         alpha: [ 1. ]
         index: [ 18 ]
      -
         sv_count: 1
         rho: -1.6112393940690357e+000
         alpha: [ 1. ]
         index: [ 19 ]
      -
         sv_count: 1
         rho: -5.0611908450884813e-001
         alpha: [ 1. ]
         index: [ 20 ]
      -
         sv_count: 1
         rho: 9.0183760170480221e-001
         alpha: [ 1. ]
         index: [ 21 ]
      -
         sv_count: 1
         rho: -1.4439289829755893e+001
         alpha: [ 1. ]
         index: [ 22 ]
      -
         sv_count: 1
         rho: -1.3457767850616995e+000
         alpha: [ 1. ]
         index: [ 23 ]
      -
         sv_count: 1
         rho: 5.1769101154919828e-001
         alpha: [ 1. ]
         index: [ 24 ]
      -
         sv_count: 1
         rho: 8.3641503681648821e+000
         alpha: [ 1. ]
         index: [ 25 ]
      -
         sv_count: 1
         rho: 4.4826271883141644e-001
         alpha: [ 1. ]
         index: [ 26 ]
      -
         sv_count: 1
         rho: 4.6623165766808921e+000
         alpha: [ 1. ]
         index: [ 27 ]
      -
         sv_count: 1
         rho: -5.6594676901943091e+000
         alpha: [ 1. ]
         index: [ 28 ]
      -
         sv_count: 1
         rho: -3.2741424099022649e+000
         alpha: [ 1. ]
         index: [ 29 ]
      -
         sv_count: 1
         rho: -6.5974861814534302e-001
         alpha: [ 1. ]
         index: [ 30 ]
      -
         sv_count: 1
         rho: -1.4919792746234324e+000
         alpha: [ 1. ]
         index: [ 31 ]
      -
         sv_count: 1
         rho: -3.1405406289700508e+000
         alpha: [ 1. ]
         index: [ 32 ]
      -
         sv_count: 1
         rho: -1.4045660945587846e+001
         alpha: [ 1. ]
         index: [ 33 ]
      -
         sv_count: 1
         rho: 2.0235128815956709e+000
         alpha: [ 1. ]
         index: [ 34 ]
      -
         sv_count: 1
         rho: -7.3745891967293380e+000
         alpha: [ 1. ]
         index: [ 35 ]
      -
         sv_count: 1
         rho: 4.1247388965381127e-001
         alpha: [ 1. ]
         index: [ 36 ]
      -
         sv_count: 1
         rho: -5.7140865499858409e+000
         alpha: [ 1. ]
         index: [ 37 ]
      -
         sv_count: 1
         rho: -3.8938560555198052e+000
         alpha: [ 1. ]
         index: [ 38 ]
      -
         sv_count: 1
         rho: -3.8334889935109739e-003
         alpha: [ 1. ]
         index: [ 39 ]
      -
         sv_count: 1
         rho: -1.1149540975075862e+001
         alpha: [ 1. ]
         index: [ 40 ]
      -
         sv_count: 1
         rho: 6.4245799872952658e-001
         alpha: [ 1. ]
         index: [ 41 ]
      -
         sv_count: 1
         rho: -1.1044860378644632e+001
         alpha: [ 1. ]
         index: [ 42 ]
      -
         sv_count: 1
         rho: -1.3268697954868516e+000
         alpha: [ 1. ]
         index: [ 43 ]
      -
         sv_count: 1
         rho: 4.1934620121638968e+000
         alpha: [ 1. ]
         index: [ 44 ]
