%YAML:1.0
my_svm: !!opencv-ml-svm
   svm_type: C_SVC
   kernel: { type:LINEAR }
   C: 2.6699999999999999e+000
   term_criteria: { epsilon:1.1920928955078125e-007, iterations:1000 }
   var_all: 64
   var_count: 64
   class_count: 10
   class_labels: !!opencv-matrix
      rows: 1
      cols: 10
      dt: i
      data: [ 0, 1, 2, 3, 4, 5, 6, 7, 8, 9 ]
   sv_total: 45
   support_vectors:
      - [ -8.18821500e-005, 2.01765870e-004, -6.16788384e-005,
          1.28732237e-004, -4.58816612e-005, 1.83866632e-005,
          -2.62190206e-005, -4.75135384e-005, 9.71763802e-005,
          2.14773128e-004, -3.07020528e-005, 1.32126274e-006,
          -1.22004340e-005, -3.15710313e-005, -9.33345436e-005,
          -3.01472774e-005, -6.34624448e-005, -1.36115792e-004,
          -5.63540561e-006, -7.50392792e-005, 9.01008170e-005,
          1.18642973e-004, 7.31009713e-005, 1.72914864e-004,
          1.64629178e-004, 2.01909497e-005, -3.52316965e-005,
          -5.20048343e-005, 8.80312073e-005, 7.33655834e-005,
          -1.42428953e-005, -6.88382761e-006, 3.82105973e-005,
          -7.98313704e-006, -2.25888034e-005, -1.36485425e-004,
          8.90810843e-005, 1.12124151e-004, 9.09811351e-005,
          1.37716037e-004, -1.56663649e-004, -1.03945669e-004,
          2.15681257e-006, 2.07820676e-006, 4.60914853e-005,
          1.13233589e-004, 1.16027797e-004, 4.76990817e-006,
          2.47910823e-004, 2.76830891e-004, 6.28623238e-005,
          6.09707058e-005, -5.31123842e-005, -5.73051875e-005,
          -6.46090075e-006, -1.91831914e-005, -2.74285885e-005,
          4.37931121e-005, 1.66166719e-004, -4.23016763e-006,
          1.60005857e-005, -8.80005985e-007, 7.53791828e-005,
          4.59448456e-005 ]
      - [ 1.36925431e-004, 5.48664684e-005, 1.57543633e-004,
          -5.38303066e-005, -4.35567235e-005, 2.84726157e-005,
          2.40545014e-005, 1.38249070e-005, 1.44932215e-004,
          1.29446576e-004, -2.90428870e-005, -1.32017303e-005,
          -8.99495062e-005, -1.36987437e-004, -1.05572210e-004,
          -1.63114764e-005, 4.39081487e-005, -2.36452062e-004,
          -1.72501052e-004, -1.10998051e-004, -3.25119618e-005,
          -5.92535107e-005, 1.01101883e-004, 2.26932389e-004,
          3.79138983e-005, -2.53793914e-005, -3.63634826e-005,
          -6.50025977e-005, 2.97430342e-005, -3.84115356e-006,
          -2.41462531e-005, 9.05899360e-005, -4.68969847e-005,
          -3.79157900e-005, -1.00820662e-005, 2.79293345e-005,
          9.65433792e-005, 9.97672541e-005, -4.55081681e-005,
          -5.31118303e-006, -8.28924603e-005, -1.76892689e-004,
          -3.32742820e-005, 1.14215516e-004, 1.11274958e-005,
          3.55113116e-005, 1.12776834e-004, -2.94181918e-005,
          1.26573213e-004, 7.33286943e-005, 7.65695368e-005,
          -5.91394428e-006, -8.67124909e-005, -1.31156645e-004,
          -1.37522729e-004, -1.18467324e-004, -7.71472696e-006,
          3.51941708e-005, 4.93240841e-005, -4.29910287e-005,
          -5.65776900e-005, -4.38065908e-005, -4.96715584e-005,
          5.57032763e-005 ]
      - [ 1.69196850e-004, 8.14260420e-006, 5.96538048e-005,
          1.57641389e-005, 4.22764824e-005, 1.65575530e-005,
          2.32408984e-005, 6.11648065e-005, 6.33438613e-005,
          1.58460185e-004, 1.90187675e-005, -8.76046852e-006,
          -4.78357906e-005, -1.79102557e-004, -1.62215700e-004,
          4.15617396e-005, 8.18619592e-005, -8.32759833e-005,
          -1.75243433e-004, -9.19562954e-005, 1.11409747e-006,
          -9.27195506e-005, 4.88211772e-005, 1.03989383e-004,
          1.79187060e-004, 1.20662902e-004, -7.61403062e-005,
          -9.25865097e-005, 2.46246909e-005, -3.25520086e-005,
          4.86805657e-005, 1.24352591e-004, 2.85416218e-006,
          -1.13229456e-004, -1.81711875e-004, 4.73006221e-005,
          4.11077272e-005, 7.47919112e-005, -2.66302735e-009,
          1.36160588e-005, -1.78865812e-004, -6.73935210e-005,
          -7.77441892e-005, 4.72411848e-005, 1.29529180e-005,
          3.06145012e-005, 1.85241413e-004, 9.19563972e-005,
          4.27606865e-005, 1.14549321e-005, -1.44140404e-005,
          1.28487627e-005, 3.04998521e-005, -4.76230489e-005,
          -1.25309394e-004, -1.02502054e-004, -3.17088998e-005,
          -1.38887641e-004, 4.10300672e-005, -2.25610293e-005,
          -1.12069383e-005, -4.64032491e-005, -6.81142483e-005,
          -2.17647466e-005 ]
      - [ -5.38054883e-005, -4.31037479e-005, -5.04678974e-006,
          5.79752086e-005, 5.64623733e-005, -1.61493372e-004,
          -1.28311891e-004, -1.03158709e-004, 1.44409263e-004,
          8.00382622e-005, 7.12968904e-005, 4.85626151e-005,
          1.18535227e-005, -1.85981917e-005, -5.62389396e-005,
          4.57940077e-005, -6.50496149e-005, -1.00620608e-004,
          -5.94794210e-006, 5.20933572e-005, 5.97522230e-005,
          1.27153646e-004, 4.37504641e-005, 1.35636205e-004,
          7.95022934e-005, -1.04700084e-004, -4.96218163e-005,
          -8.33028244e-005, -2.45328101e-005, -3.89467459e-005,
          1.08515051e-005, 6.62653474e-005, -1.13753777e-004,
          -1.69866660e-004, -7.55789806e-005, -1.36761591e-004,
          9.05895868e-005, 6.04872657e-005, 1.69711086e-004,
          -7.13150666e-006, -1.35224676e-004, -8.35564497e-005,
          -8.69077576e-006, 1.03704711e-004, 1.09839049e-004,
          1.33310910e-004, 1.79705123e-004, -7.20785138e-008,
          1.64124984e-004, 2.36843305e-004, 1.07905769e-004,
          3.29274917e-005, -5.05858407e-005, -1.03585779e-004,
          -1.70057770e-004, 1.33129768e-004, 3.68302390e-005,
          -3.81360696e-005, 1.08723507e-004, -1.43746602e-005,
          -1.26769752e-004, -1.30973684e-004, -1.00982848e-004,
          1.60507989e-005 ]
      - [ -1.17526488e-005, 1.97513782e-006, 8.36207691e-005,
          -5.80720143e-006, -1.95895536e-005, -1.55780272e-005,
          -4.65592530e-005, 2.06559071e-005, 1.24476166e-004,
          6.02615655e-005, 9.39908277e-005, -8.92395110e-005,
          8.79870859e-005, -7.40708538e-006, -1.70097133e-004,
          -6.14235541e-005, 3.61768907e-005, -9.45113788e-005,
          -1.27106832e-004, -2.35679454e-005, 1.34175880e-005,
          -3.08463132e-005, 1.94742588e-005, 1.39999102e-004,
          1.72554588e-004, 9.80975983e-007, -1.34236194e-004,
          -1.20620898e-004, -1.55270372e-005, -4.42756209e-005,
          7.21916003e-005, 1.37939089e-004, 6.80785743e-005,
          1.96825913e-005, -5.17184235e-005, -3.60950507e-005,
          -6.33027303e-005, 3.97382100e-005, 1.49034058e-005,
          1.98855501e-004, -5.20940157e-005, -8.81861124e-005,
          -1.27804000e-004, -6.09905983e-005, 7.67962047e-005,
          8.37583211e-005, 1.62190379e-004, 2.04696858e-004,
          7.14210319e-006, 1.55143629e-004, 6.51968003e-005,
          1.26481245e-004, 3.41764076e-006, -6.66597552e-005,
          -7.42254124e-005, -1.12854126e-004, 6.50908332e-005,
          -7.80470582e-005, 1.05591032e-004, 2.72154903e-005,
          9.36262368e-005, -6.92606700e-005, -8.28691482e-005,
          -2.52683858e-005 ]
      - [ -5.26492913e-005, -4.28769890e-005, 8.93638644e-005,
          -4.41499542e-005, 4.26054685e-005, -4.19331036e-006,
          -1.24520346e-004, -1.07899417e-004, 6.17307960e-005,
          1.12640198e-004, -7.01358076e-005, 3.09941856e-006,
          2.22029761e-004, 7.28936502e-005, 5.11162170e-006,
          7.72950661e-005, -1.19702687e-004, -1.47096463e-004,
          -8.53774982e-005, 8.26014875e-005, 4.27057857e-005,
          3.24009416e-005, 5.03666452e-005, 8.71490047e-005,
          -3.55518605e-005, -2.13610183e-005, -1.23352584e-004,
          -1.32921661e-004, -3.87604268e-005, 2.28609260e-005,
          -1.07624815e-004, -1.57225877e-004, 5.43001661e-005,
          9.81954327e-006, -2.06398399e-004, -9.07323265e-005,
          -1.35039387e-004, 6.82373211e-005, 2.13176987e-004,
          3.90561938e-004, 1.11670939e-004, -7.80202245e-005,
          -5.07691911e-005, 4.65175835e-005, 6.75882984e-005,
          -2.48110882e-005, 2.70624470e-004, 3.02742585e-004,
          6.51549926e-005, 1.24799190e-004, 1.24727769e-004,
          6.89397857e-005, -1.60090221e-005, -9.59170720e-005,
          -5.72124627e-005, -5.32986523e-005, -2.34581403e-005,
          -3.21770385e-005, -1.99797905e-005, 4.77702815e-005,
          -6.49784997e-005, -1.36795788e-004, 2.82471592e-005,
          1.07268868e-004 ]
      - [ 2.52059544e-005, 2.47203957e-006, -6.80892990e-005,
          -5.74073019e-005, -9.23634507e-005, -1.48924519e-005,
          -3.43258071e-005, 3.25774672e-005, 7.49619212e-005,
          5.44878503e-006, 3.99990022e-005, 2.80249315e-005,
          -8.01661372e-005, -1.55728121e-004, -1.38894495e-004,
          6.26604742e-005, 6.48077184e-005, -1.34336660e-004,
          -2.24244413e-005, 2.88259871e-005, 7.89320402e-005,
          1.16381678e-004, 1.01587837e-004, 7.91949278e-005,
          1.01703306e-004, -3.87801483e-005, -1.28021493e-005,
          -4.54967194e-005, 1.17486961e-004, 1.53335804e-005,
          6.82453392e-005, 4.11865767e-005, -6.96776478e-005,
          -8.31726284e-005, -4.36375412e-005, -9.97555690e-005,
          -4.25072722e-005, 5.65597256e-005, 5.19322894e-005,
          -2.60818088e-005, -2.38575885e-004, -1.52532084e-004,
          -6.48854475e-005, 3.47890108e-007, -3.63308718e-005,
          6.42855275e-006, 7.88900070e-005, 4.50505904e-005,
          1.33692272e-004, 1.96107765e-004, 3.29518516e-005,
          4.37987728e-005, 6.66971846e-006, 5.49439847e-006,
          4.94894834e-007, 3.53749624e-006, 1.40046232e-005,
          -1.08715365e-004, 1.69264022e-004, 1.25351551e-004,
          5.76073887e-007, -2.71161807e-005, -3.72408140e-005,
          -6.09828930e-006 ]
      - [ 5.07261611e-005, 7.84609001e-005, 1.70752846e-005,
          -3.49433431e-005, -1.51842278e-005, -1.47943807e-004,
          -5.42391826e-005, -3.89787965e-005, 8.58204999e-007,
          2.42180788e-004, -8.47237898e-005, -1.40346316e-007,
          1.40738757e-005, -1.57896575e-005, -5.90080745e-005,
          -8.34467355e-005, -4.53344655e-005, -1.84959048e-004,
          -1.33537644e-004, 3.74208248e-005, 8.33775266e-005,
          6.63475585e-005, -5.47234458e-006, 9.93379726e-005,
          1.57856150e-004, -4.84815500e-005, -2.11686565e-004,
          -7.91404818e-005, 3.01452183e-005, 2.43438408e-005,
          -6.87248830e-005, 5.50581990e-006, 6.93871771e-005,
          -1.95467452e-004, -2.12833416e-004, 2.25314561e-005,
          3.59007645e-005, 5.84998488e-005, 2.27964756e-005,
          1.35401933e-004, 6.54165433e-006, -1.16699412e-004,
          -3.13540550e-005, 7.01547324e-005, 3.92430629e-005,
          -2.01710645e-005, 1.59617921e-004, 1.53889006e-004,
          1.59258794e-004, 2.09921607e-004, -1.47856072e-005,
          8.93099204e-005, 6.09565723e-006, -2.63772472e-005,
          -2.24712960e-004, -9.99424665e-005, 8.25773895e-005,
          -6.57742858e-005, 6.63317987e-005, -1.63479526e-005,
          -3.79068842e-005, -1.22108744e-004, -1.01910067e-004,
          1.99598708e-005 ]
      - [ -2.62647136e-005, 7.68137397e-006, -9.93753129e-005,
          -3.79536650e-005, -1.37926152e-004, -1.50118984e-004,
          -1.24478756e-004, -1.72241518e-004, 1.15676390e-004,
          -8.50838624e-005, 2.20501679e-005, -5.83624205e-005,
          -3.42524145e-005, -1.31203837e-004, -1.95277535e-004,
          -1.00037752e-004, 1.65857957e-004, -1.64088444e-004,
          -2.26411453e-006, 7.58487658e-005, 7.34578571e-005,
          3.30167277e-005, -1.14183633e-004, 1.02030455e-004,
          1.13665956e-004, 8.27188342e-005, -3.21086486e-006,
          -1.86920646e-004, -1.05316518e-004, -5.69663280e-005,
          2.29468118e-004, 1.79012699e-004, 1.26850282e-005,
          -1.76059548e-004, -2.02630166e-004, -8.62970628e-005,
          2.58454274e-005, 1.63102450e-004, -1.29584696e-005,
          -2.10102335e-005, -2.19061156e-004, -8.29114215e-005,
          4.11295186e-005, -3.87022374e-005, -1.53862056e-005,
          1.23507448e-006, 2.54596060e-004, -6.59755096e-005,
          1.21876757e-004, 7.44809440e-005, -6.25170360e-005,
          1.18838841e-004, 1.50012085e-004, 1.15047960e-005,
          -2.99556068e-005, -1.22427246e-005, -1.28010826e-004,
          -5.43349415e-005, 3.39806254e-004, 1.54764450e-004,
          -9.91165871e-005, -1.99364382e-004, -2.37363594e-004,
          -1.02759223e-005 ]
      - [ 1.02994600e-004, 4.38044153e-005, 2.19459340e-004,
          2.09989103e-005, -2.55427120e-004, -1.13358634e-004,
          -9.55651703e-005, -4.58218310e-005, 6.69252040e-005,
          -3.69063811e-004, -1.31730732e-004, -1.38816627e-004,
          -2.15105101e-004, -2.14516593e-004, -6.26954061e-005,
          2.03841264e-004, 7.70541810e-005, -3.26666253e-004,
          -5.91410862e-005, 3.94290191e-006, 2.21279770e-005,
          -9.58209284e-007, -2.89605232e-004, 1.69694686e-005,
          1.42288729e-004, -1.79688534e-004, -7.42474658e-005,
          1.35840426e-004, -1.04712519e-004, -7.65309233e-005,
          -7.05545972e-005, 1.64155994e-004, -2.97554187e-004,
          -7.14559792e-005, 1.46740582e-004, -7.16738796e-005,
          -3.27983755e-004, -1.45370155e-004, -2.91874585e-005,
          3.47687492e-005, 2.64612172e-004, 1.74308370e-004,
          -1.33360300e-005, -1.43822719e-004, -2.68968608e-004,
          -2.36348114e-005, -2.15680717e-004, 3.69656773e-005,
          5.25609823e-004, -1.35329406e-004, -2.47576012e-004,
          -9.90366170e-005, 6.73337126e-005, -1.40444114e-004,
          -4.87902726e-005, 1.66778264e-004, 9.85843508e-005,
          -1.00811805e-004, -5.22925839e-005, 5.76478487e-005,
          -3.66080320e-004, -3.19004728e-004, -8.37971020e-005,
          1.19386474e-004 ]
      - [ 1.44832462e-004, 3.04382411e-005, -2.10642283e-005,
          -1.74214118e-004, -5.04107811e-005, -2.77328618e-005,
          5.80276719e-006, 1.87084315e-005, 1.11676884e-004,
          -8.88333307e-005, 1.05001709e-004, -5.06456709e-005,
          -1.58276773e-004, -1.59252711e-004, -9.98875184e-005,
          1.28229658e-004, 6.64929466e-005, 7.29282910e-005,
          1.79238577e-005, -2.97805473e-005, -9.40946338e-005,
          -7.14739363e-005, -3.14559111e-005, 3.59117962e-006,
          1.05128092e-005, 1.05931713e-005, 2.30927835e-005,
          5.37053638e-005, -1.36341787e-005, -8.84942492e-005,
          -1.05391191e-004, 5.44724535e-005, -5.81686572e-006,
          2.67179457e-005, 7.02455054e-006, -1.57393811e-006,
          -8.50226279e-005, -1.48567589e-004, -4.13235284e-005,
          6.58873469e-005, 9.78947573e-005, -4.96931607e-005,
          -2.62237086e-006, -3.30408839e-005, -2.18441983e-005,
          -3.05301182e-005, -3.91985159e-005, 6.34705648e-005,
          7.58982424e-005, -2.68570329e-005, -1.32222311e-004,
          1.44303303e-005, 6.52551025e-005, 1.08415537e-004,
          -2.58332930e-005, 2.66549232e-005, 1.46482067e-004,
          -2.90415366e-004, -6.91149326e-005, 9.85908700e-005,
          4.84734983e-006, 2.03628661e-005, -4.80574563e-005,
          -6.25519097e-005 ]
      - [ 3.19820465e-005, -1.30631306e-004, 6.29056012e-005,
          -9.96733579e-005, -1.33202184e-006, -3.07711278e-004,
          -4.05263097e-004, -1.52733410e-004, 6.18748018e-005,
          -2.78862746e-004, 8.18641565e-005, 2.43820905e-005,
          -4.69796669e-006, 2.50126122e-005, -3.39135113e-005,
          2.61859444e-004, 1.03581100e-004, 4.41727898e-005,
          1.10516754e-004, 8.06187163e-005, -5.36199623e-005,
          -2.30554724e-004, 1.06301610e-004, 1.77457405e-004,
          1.81018659e-005, -3.65910120e-004, 9.24087071e-005,
          -5.37703963e-005, -1.00161444e-004, -3.68166075e-004,
          -1.86096295e-004, 1.09124914e-004, -3.11411510e-004,
          -2.53832550e-004, -1.99113638e-004, -2.40033172e-004,
          -2.66390067e-004, 1.53356159e-004, -6.54533069e-005,
          3.07827358e-005, 6.93931870e-005, -3.67163411e-005,
          6.92322064e-005, -5.74968590e-006, -1.42479650e-004,
          2.41327853e-005, 3.35031946e-005, -2.22307906e-004,
          3.15281650e-004, -1.15561481e-004, -6.59113939e-005,
          1.65747554e-006, -5.94190396e-006, 8.39485292e-005,
          3.19671322e-004, 3.76400218e-004, 4.26720435e-005,
          -3.16235935e-004, -4.88108053e-005, 2.11999286e-004,
          -2.79341388e-004, -1.11220492e-004, -7.30527318e-005,
          1.37815689e-004 ]
      - [ 1.24065673e-005, 7.29201056e-005, 1.11520394e-005,
          -5.38540407e-005, 1.15336152e-005, -7.13138870e-005,
          -2.19057747e-005, -2.77555246e-005, -5.60534281e-005,
          -4.96052744e-005, 3.44604741e-005, -7.32834378e-005,
          1.43449097e-005, 7.14590351e-005, -1.00397352e-004,
          -4.71504100e-005, 9.76196170e-005, 6.59286088e-005,
          -1.63611563e-004, 6.16690340e-006, -6.80687845e-006,
          -3.48441135e-005, -2.66733223e-005, 6.28724738e-005,
          6.76784330e-005, -2.10968701e-005, -3.99880901e-006,
          -3.57230274e-005, -1.11678521e-004, -8.91897507e-005,
          9.11693205e-005, 9.57191442e-005, 1.00932171e-004,
          2.95235859e-005, -7.88884936e-005, -8.13231454e-005,
          -1.63631819e-004, -7.31031687e-005, -5.42978705e-005,
          1.15649047e-004, 1.84529010e-004, 4.89791055e-005,
          -1.13872979e-004, -1.39191645e-004, -2.70736382e-005,
          -8.46799230e-006, -1.44548787e-004, 9.96926028e-005,
          6.47586785e-005, -4.23181737e-005, -1.26723084e-004,
          8.47799893e-005, 4.05828578e-005, -3.89034903e-005,
          3.09935785e-006, -2.95064888e-006, 1.02076941e-004,
          -1.50853550e-004, -1.46852501e-004, 8.18081462e-005,
          5.76270286e-005, -1.72231157e-005, -9.39683596e-005,
          -1.37936280e-004 ]
      - [ -7.28817977e-005, -4.28933054e-005, 2.89454620e-004,
          9.60852849e-005, 2.60444795e-005, 4.15278337e-005,
          -1.77354319e-004, 1.46644061e-006, 1.42106612e-004,
          -1.54600581e-004, 1.93512285e-004, 2.67885571e-005,
          2.19583017e-005, 9.60184479e-005, 7.97478642e-005,
          2.34593026e-004, -6.40083381e-005, -1.55589601e-004,
          5.43326041e-006, 9.76791998e-005, -8.15565800e-005,
          -2.98664439e-004, -7.56600930e-005, 1.43337500e-004,
          5.91440730e-005, -2.95698439e-004, -2.45743868e-004,
          2.41613748e-006, -2.18582543e-004, -2.54471088e-004,
          -4.27953419e-005, 8.92678654e-005, 9.25470085e-005,
          -1.19074311e-005, -2.87559687e-005, -7.39609604e-005,
          -6.46514382e-005, -1.28624379e-004, -5.03509773e-006,
          3.93928494e-004, 2.31983227e-004, -1.27419989e-004,
          1.74517991e-004, -5.85369344e-005, 2.33387382e-005,
          1.28332185e-005, 1.97141890e-005, 4.40822514e-005,
          5.53609862e-005, -1.84698423e-004, -1.41581346e-004,
          -8.86483394e-005, -7.52663691e-005, -8.75161641e-005,
          4.03432568e-005, 5.82395842e-005, 6.18125778e-005,
          -1.75731242e-004, -2.89090298e-004, -1.50450884e-004,
          1.00841833e-004, -1.63486795e-004, -2.64551636e-005,
          -1.43751668e-005 ]
      - [ 1.01090380e-004, -1.06747357e-004, 8.94736295e-005,
          -4.98555135e-004, -1.66446072e-004, -2.11661027e-004,
          -3.27405388e-007, 5.91009448e-005, -1.71953798e-004,
          -1.73550405e-004, -2.54137150e-004, -2.15498250e-004,
          -3.28962866e-004, -3.56814242e-004, -9.85957595e-005,
          4.99675691e-004, 2.43774775e-005, -4.80860945e-005,
          1.08694578e-004, 8.74643447e-005, 1.25969949e-004,
          2.88680258e-005, 1.58345083e-005, 6.47569323e-005,
          -2.15320342e-005, -1.12241192e-004, 4.26819206e-005,
          1.30264962e-004, 1.38553689e-004, -1.31416064e-005,
          1.31664812e-004, 4.78333095e-005, -2.50481738e-004,
          -5.48795033e-005, -2.65599985e-004, -4.98122361e-004,
          -2.63325375e-004, -9.90150802e-005, 4.41914053e-005,
          -5.94720914e-005, 1.18197677e-004, -1.03386752e-004,
          6.57466298e-005, -6.46016633e-005, -1.45234037e-004,
          -1.69977473e-004, -4.45685009e-006, -4.24664104e-005,
          2.70544435e-004, -6.77738717e-005, -4.46054000e-005,
          7.07996805e-005, 9.92953574e-005, 1.54633948e-004,
          9.47473309e-005, 2.51279940e-004, 7.50492327e-005,
          -1.50580818e-004, -1.47265993e-004, 2.14290965e-004,
          -2.79892294e-004, 5.33770035e-005, -8.85895588e-006,
          7.78350441e-005 ]
      - [ 3.16482532e-004, 1.32130808e-004, 1.09012850e-004,
          -2.90329452e-004, -2.95457401e-004, -1.83710858e-004,
          -2.73222773e-004, -4.42663486e-006, 2.50135927e-004,
          -1.25523802e-004, 1.94710869e-004, -1.62838085e-004,
          -1.58699593e-004, 1.43383528e-004, -1.84005738e-004,
          5.53127829e-005, -4.74269873e-005, -2.06658457e-004,
          1.29606648e-004, 1.44102523e-004, -2.13550993e-005,
          6.69671135e-005, -1.61906399e-004, 1.07520209e-004,
          5.48488861e-005, -3.13238532e-004, -5.08135054e-005,
          1.19694123e-005, 6.43547974e-005, -2.41546935e-004,
          -2.70406104e-004, 1.19601704e-004, -7.20377102e-006,
          -2.45718024e-004, -6.93431866e-005, -1.64520025e-004,
          -4.70801257e-004, -2.82338704e-004, 2.48475899e-005,
          4.23331745e-004, 2.82503112e-004, -8.82249151e-005,
          -3.80733763e-005, -1.83481825e-004, -1.80285977e-004,
          -1.45277707e-004, -3.68615147e-005, 2.42995186e-004,
          1.48760722e-004, -1.39419571e-004, -1.68527025e-004,
          9.63510829e-005, 1.65845035e-004, 6.79394871e-005,
          -1.45035359e-004, -7.98755937e-005, 2.43204820e-004,
          -4.06455336e-004, -1.08532280e-004, -1.18903357e-004,
          6.44035244e-005, -6.63099127e-005, -2.30739053e-004,
          4.92381769e-005 ]
      - [ -1.27808191e-004, -8.15212043e-005, -3.40776533e-005,
          -2.96822516e-004, -1.65415055e-004, 2.25026670e-005,
          -6.44454776e-005, -1.00016841e-005, -3.58613353e-004,
          -5.37528773e-004, 2.23837305e-005, -3.39891587e-004,
          2.49040109e-004, -5.06462064e-004, -6.57771423e-004,
          2.58633372e-004, 4.05625353e-004, -1.15461538e-004,
          1.75138193e-004, -5.27460434e-005, -1.09105858e-005,
          -5.85508606e-005, -1.83272823e-006, 3.98390810e-004,
          2.46232579e-004, -2.36401946e-004, 2.02027659e-004,
          1.85155106e-004, 2.96166927e-005, -3.11757496e-004,
          2.04819851e-004, 4.09478991e-004, 8.29648488e-005,
          -1.60249270e-004, -2.01014831e-004, -4.29198088e-004,
          -4.63815551e-004, -2.61152047e-004, -6.75946212e-005,
          3.49033653e-005, 6.45567052e-005, -3.14976904e-004,
          1.24232116e-004, -2.48211756e-004, -2.69672484e-004,
          -1.39577838e-004, -6.42385930e-005, 2.72996753e-004,
          2.88452924e-004, 4.24433310e-005, -7.39545212e-005,
          2.10918894e-004, 1.73655848e-004, 1.60332347e-004,
          3.22211708e-004, 1.99845133e-004, -7.35438198e-006,
          -5.86745045e-005, 8.91218515e-005, 3.53344687e-004,
          -2.44915573e-004, -1.07340311e-005, -1.96347522e-004,
          2.07306017e-004 ]
      - [ 1.26978688e-004, -1.36195638e-004, -5.56500454e-005,
          -1.15541967e-004, -1.68206796e-004, 1.56331749e-004,
          4.91471554e-004, 8.13020102e-004, 1.00791454e-004,
          -1.40717827e-006, 1.64381956e-004, -4.58538998e-005,
          9.82453857e-005, -2.81329199e-006, -1.25407651e-005,
          1.99697519e-004, 8.03058938e-005, 2.90798431e-004,
          1.62311582e-004, 3.69460249e-005, 3.74105402e-005,
          -9.32999246e-005, -3.56595381e-004, 3.24954191e-004,
          8.86914611e-004, 9.78438416e-004, 1.67138380e-004,
          2.21403388e-005, -1.19594857e-004, 7.52032138e-005,
          9.00145642e-006, 1.58770345e-004, 3.97868571e-004,
          -9.82795518e-006, 2.23475479e-004, 8.78181017e-005,
          -9.97106872e-006, -8.81645174e-005, -1.58641378e-005,
          -1.01667647e-004, -3.53591895e-004, -3.19763261e-004,
          -2.46310577e-004, 1.12324697e-005, -1.14794275e-005,
          3.48794914e-004, 2.39374072e-004, 6.89807697e-004,
          -3.49215406e-004, -1.15059862e-004, 5.97455164e-006,
          1.69454215e-004, 2.12072599e-004, 3.28847236e-004,
          -1.24323515e-005, -3.35662189e-005, 4.10334906e-006,
          -1.08613407e-004, -5.86634487e-005, -6.25887769e-005,
          -2.51584552e-005, -1.82793974e-005, -2.93018558e-004,
          -2.36609965e-004 ]
      - [ -2.05467964e-004, -2.08832513e-004, -1.02926861e-004,
          2.11165461e-004, 1.39425756e-004, -2.80667009e-005,
          -2.48991244e-004, -2.54409621e-004, -1.97475776e-004,
          -1.66759884e-004, 2.01544332e-004, 2.54388200e-004,
          8.68174175e-005, 2.03959717e-004, 2.04687996e-004,
          8.11978680e-005, 8.41659785e-005, 1.65624428e-004,
          1.67609920e-004, 3.84223618e-004, 3.12200827e-005,
          1.70631411e-005, -9.76781303e-006, -1.19050164e-004,
          -1.66312657e-005, -6.17065889e-005, -3.85750245e-005,
          2.43175291e-005, -3.51134877e-005, 6.47836205e-005,
          3.41218547e-005, -1.53113288e-004, 1.32172763e-005,
          -2.71683064e-004, -4.18303622e-004, 1.09505847e-004,
          -2.18335495e-004, 2.31084356e-004, 9.81211560e-005,
          8.78662540e-005, 1.67058661e-005, 4.74725566e-005,
          -1.63222518e-004, 8.80587249e-005, 2.00534167e-004,
          5.70560405e-005, 6.38606798e-005, -2.03476447e-004,
          -9.66348671e-005, -1.11183481e-005, -3.84731065e-005,
          2.37213055e-004, 1.94338398e-004, -6.21200816e-005,
          1.69023973e-004, 8.29913406e-005, -1.26906612e-004,
          -1.11981950e-004, 5.83221208e-006, 2.50859139e-005,
          1.80811781e-004, -1.09779627e-004, -9.19516169e-005,
          -1.61124015e-004 ]
      - [ -2.97043414e-004, -6.16280522e-005, -1.85286670e-004,
          7.07901636e-005, 8.76536942e-005, 3.60679958e-004,
          -3.35796649e-005, -4.31225890e-005, -2.70162593e-004,
          2.17318811e-004, 1.99028771e-004, -4.21660443e-005,
          -4.26713050e-005, 2.06868615e-004, -2.43028786e-004,
          -3.26654874e-004, 2.84751353e-004, 1.30694796e-004,
          4.31808512e-005, 1.00455349e-004, 6.90611269e-005,
          2.75561415e-005, -3.64120526e-004, -2.71826175e-005,
          6.06496294e-004, 3.05373804e-004, -1.53940273e-005,
          -1.12017442e-004, -1.62159296e-004, 4.73049295e-005,
          1.80289979e-004, -4.00861209e-005, 6.92971982e-004,
          1.09849345e-004, 3.86261418e-005, -1.83008833e-005,
          -2.72001664e-004, -9.60914185e-005, 5.42375019e-005,
          5.35965781e-004, 2.65337760e-004, -4.57559654e-005,
          -1.01421858e-004, -3.86204425e-004, 9.96995732e-006,
          1.16868236e-004, -1.38673029e-004, 3.53168114e-004,
          -2.32444334e-004, -3.28798924e-005, -5.63561152e-005,
          2.31507191e-004, 2.15362568e-004, 8.62880843e-005,
          -1.99649294e-004, -9.75650692e-005, -4.10870307e-005,
          -7.64935903e-005, 1.20489618e-004, 1.75191119e-004,
          4.14775772e-004, 7.95760570e-005, -2.22719696e-004,
          -2.36222942e-004 ]
      - [ -1.68057362e-004, -3.19493774e-005, 4.48808605e-005,
          2.03602976e-004, 2.23619500e-005, 2.49934601e-005,
          1.22907863e-004, -1.01461548e-004, -3.54282602e-005,
          -8.89689109e-005, -6.43116846e-006, 1.51283020e-004,
          2.10714206e-004, 2.16999164e-004, 2.86917551e-004,
          1.97557438e-005, -1.24652681e-004, -8.54114478e-005,
          6.07137590e-005, 3.55148659e-005, 7.03477272e-005,
          5.34423561e-005, -1.06268344e-005, -6.50482398e-005,
          -7.02337420e-005, -1.99192327e-005, 1.31920633e-005,
          3.64154876e-005, -5.59602013e-005, -5.64850125e-005,
          -3.40956431e-005, -1.20152392e-004, 1.32813162e-004,
          8.94478489e-006, -5.79180014e-005, -3.15863726e-005,
          -1.71802487e-004, 6.82743193e-005, 1.30401211e-004,
          3.04990681e-004, 1.87930447e-004, 4.70445266e-005,
          2.95184236e-005, -5.57515377e-005, 2.49521381e-005,
          1.15616334e-004, 9.74927243e-005, 7.56223453e-005,
          -1.28098018e-005, -6.41421066e-005, -5.50892873e-005,
          6.34629396e-005, -1.00998632e-005, 3.95606767e-005,
          -8.42817462e-005, -1.75164023e-005, -1.05200925e-004,
          -1.90774794e-004, -1.56306225e-004, -3.89478300e-005,
          -1.51118484e-005, 8.39014683e-006, 1.32822806e-005,
          -9.83431237e-005 ]
      - [ -1.50715889e-004, 1.44406804e-004, -1.18738048e-004,
          -4.82941650e-005, -1.90358565e-004, 1.81518029e-004,
          -6.32434443e-004, 1.77017137e-004, -1.06971987e-004,
          -5.15728490e-004, 3.29058857e-005, 1.82995336e-005,
          -1.69544233e-004, -2.14250438e-004, 4.95515706e-004,
          2.39858855e-004, -3.64167063e-004, 1.36094401e-004,
          5.42963026e-005, -5.53012287e-005, 4.84252174e-004,
          1.88062678e-003, 5.31380414e-004, 2.68621108e-004,
          -3.72073060e-004, -3.99294513e-005, 1.74764733e-004,
          3.34572833e-004, 4.12257796e-004, -3.48664966e-004,
          6.16637932e-004, -2.89434829e-004, -2.96911137e-004,
          2.44365147e-005, -1.76570829e-004, -2.49142031e-004,
          -1.53935602e-004, -6.27996560e-005, 7.64481738e-005,
          -3.09146155e-004, -4.43569967e-004, -5.19553781e-004,
          -3.94753617e-004, 5.09609272e-005, -5.94945550e-006,
          -6.26820256e-004, 9.11549214e-005, -4.87513549e-004,
          -1.97649613e-004, 7.58929236e-005, -1.56139376e-005,
          3.90933637e-005, 3.03877605e-004, 2.15855398e-004,
          5.19993424e-004, 1.62395634e-004, -3.47255380e-004,
          -1.21329422e-005, 1.00004196e-004, -1.01374033e-004,
          6.28972717e-004, -7.35539652e-005, 7.32143526e-004,
          -6.80767116e-004 ]
      - [ -3.90947214e-004, -3.06234666e-004, -5.44630631e-004,
          -4.03869577e-004, -3.38661048e-004, -1.11522670e-004,
          -8.90431984e-004, 1.24290746e-004, -9.36116965e-004,
          -2.24260133e-004, 4.52455046e-004, 4.37110168e-004,
          3.17094848e-004, -1.34805072e-004, -6.08534610e-004,
          -4.17741627e-004, -2.24932272e-004, 7.52905180e-005,
          3.02548287e-004, 1.88402060e-004, -1.32948771e-004,
          3.34865937e-004, -3.97425727e-004, 7.60482872e-005,
          2.25930096e-004, -2.53271981e-004, 9.13629076e-004,
          2.93308985e-004, 5.67912866e-005, 2.81881745e-004,
          -3.00474203e-004, -7.54742941e-005, 3.67710541e-004,
          -4.96955996e-004, -6.91522670e-004, -2.50713856e-005,
          -3.57418525e-004, -1.73345616e-004, 4.92879713e-004,
          9.09723167e-004, 2.30996346e-004, 6.38035708e-005,
          2.22087387e-004, 3.57496356e-005, 2.80068285e-004,
          -2.39915680e-004, -3.51198105e-005, 5.14900370e-004,
          2.03987147e-004, -1.91727930e-004, -3.41750303e-004,
          3.29785689e-004, 9.94993490e-004, 7.54427107e-004,
          -4.49411775e-004, -5.08968835e-004, -9.61296610e-005,
          -1.07112182e-005, -3.35485747e-005, -3.13049153e-004,
          -3.87669832e-004, 5.55194158e-004, 6.20223756e-004,
          -2.00037772e-004 ]
      - [ -1.54189940e-004, -1.89741302e-004, -2.00000854e-004,
          5.05393982e-005, -6.61263402e-006, 6.16244943e-005,
          -2.08980229e-004, -1.25951483e-004, -1.36337214e-004,
          -2.44632422e-004, 8.46886905e-005, 1.88103386e-005,
          9.84454018e-005, -1.91298052e-004, 8.05786749e-006,
          -2.06088211e-004, -1.13855540e-005, 1.04194398e-004,
          1.70709027e-004, 1.13467955e-004, 7.47665035e-005,
          2.46879990e-005, -5.85232883e-005, 1.46698105e-004,
          -6.73489994e-005, 1.23264108e-005, -9.49455989e-006,
          1.89396451e-004, 5.31841488e-006, -1.31920160e-005,
          1.09602202e-004, 4.27233645e-005, 3.05882968e-005,
          -9.58385044e-007, -1.79023380e-004, 4.96587272e-005,
          -3.02524102e-004, 2.14019656e-005, -4.75245251e-005,
          -2.46121417e-005, -5.52113961e-005, -2.16370336e-005,
          1.48762221e-004, -1.60931639e-004, -7.51185289e-005,
          -9.86503146e-005, -3.04702244e-005, 6.84141123e-005,
          -2.69916112e-004, 4.26751903e-005, 1.98764574e-005,
          7.57140588e-005, 3.57575831e-004, 2.73780024e-004,
          3.68726294e-004, -5.25478645e-005, -1.62950397e-004,
          -9.37802179e-005, 8.62727029e-005, 2.14500018e-004,
          1.90720530e-004, 1.66258396e-004, 1.32998786e-004,
          -1.52424429e-004 ]
      - [ -2.71455763e-004, -1.32019457e-004, -1.24192069e-004,
          1.88680948e-004, 5.62551213e-005, -1.49339103e-004,
          -3.05659196e-004, -2.98887811e-004, -1.18863471e-004,
          -8.51206787e-005, -3.41074592e-005, 5.05078788e-005,
          2.29358557e-004, 2.14979067e-004, 8.04109804e-005,
          1.03206148e-004, -5.52236452e-005, -2.46447053e-005,
          2.30997815e-004, 2.05604665e-004, 1.49033323e-004,
          9.88731554e-005, -4.22523117e-005, -2.51519232e-005,
          -7.09223023e-005, -2.53531092e-004, -9.37765344e-006,
          -3.34567667e-005, -4.78595393e-005, -6.38647689e-005,
          1.30921166e-004, -9.03633991e-005, -1.89393948e-004,
          -7.81929775e-005, -8.64877220e-005, -1.20663448e-004,
          -6.95522176e-005, 1.59284391e-004, 1.61082789e-004,
          4.34046815e-005, 1.47804155e-006, -6.67482673e-005,
          8.31607540e-005, 1.04820472e-004, 1.25272709e-004,
          1.64382254e-005, 3.86614956e-005, -2.26834498e-004,
          1.29987355e-004, -6.13819793e-005, 1.69416453e-004,
          1.46376056e-004, 3.45646076e-005, -8.39091881e-005,
          4.01452380e-005, 2.12027400e-004, -1.01652375e-004,
          8.37204498e-005, 2.19289781e-004, -4.41511074e-005,
          1.94015070e-006, -2.27092649e-004, -1.54783120e-004,
          -9.18196820e-005 ]
      - [ -1.91663959e-004, 6.88752698e-005, 6.99218508e-005,
          2.26026605e-004, 1.00790152e-004, 8.77874481e-005,
          -6.98355609e-004, -1.45984394e-003, -5.94616286e-004,
          -5.76358696e-004, 6.49804933e-005, 9.29215385e-005,
          6.63330429e-005, 3.44288652e-004, -5.19328460e-004,
          -3.56370234e-004, -7.20946773e-005, -4.51592823e-005,
          -1.08670880e-004, -3.82497710e-005, -7.30990314e-006,
          1.12590555e-004, 1.48848940e-005, -1.36114963e-004,
          -8.86885857e-004, -3.03578505e-004, -5.08042322e-005,
          -2.07397738e-004, -7.41188414e-005, -1.94003733e-005,
          2.28219142e-004, -2.72002217e-004, 8.19175097e-004,
          6.87483698e-004, 9.48351517e-005, -2.93418736e-004,
          -3.25897199e-005, 2.25824333e-004, 1.53039538e-004,
          5.79512620e-004, 7.04179460e-004, 4.06727224e-004,
          2.50434037e-004, -2.97507620e-004, -2.25953117e-004,
          2.29238751e-004, -7.11873174e-004, 1.09562287e-004,
          -4.02288511e-004, -2.82411747e-005, 2.33191386e-004,
          6.23672167e-006, 2.05975375e-004, 4.06467909e-004,
          -8.00005728e-005, 5.49353681e-005, 1.54300098e-004,
          2.09412938e-005, -2.28285106e-004, 2.12366176e-005,
          8.17613000e-006, 1.90089515e-004, -1.27969179e-004,
          -3.25543515e-004 ]
      - [ -2.26707110e-004, -1.02864338e-004, 3.15597608e-005,
          1.66560872e-004, 1.00325517e-004, 3.88202807e-006,
          -2.90309472e-005, -7.38158051e-005, -3.78630903e-005,
          -1.28186621e-005, -1.07833730e-004, 9.23501939e-005,
          1.90934603e-004, 2.06795565e-004, 1.90037434e-004,
          -3.94443960e-005, -1.26614905e-004, -5.50337136e-005,
          7.30152824e-005, 4.16217372e-005, 4.83881122e-005,
          -1.15320381e-005, -3.60767226e-005, -6.32979936e-005,
          -5.72722856e-005, -1.16630421e-004, -6.78790311e-005,
          -7.91042748e-006, -4.37910639e-005, -3.61359866e-007,
          -3.06124275e-005, -1.39239113e-004, 1.20178491e-004,
          7.93104919e-005, -6.31421472e-006, -5.29834142e-005,
          -1.06398707e-004, 8.95425619e-005, 8.79485888e-005,
          2.08923928e-004, 1.26204584e-004, 3.41570230e-005,
          8.98063954e-005, 2.20568709e-005, 3.66761415e-005,
          5.01150935e-005, 5.96382051e-005, 5.26835611e-005,
          1.70253134e-005, 1.47309793e-005, 2.26216944e-005,
          5.08826342e-005, -1.80388524e-005, -3.14338904e-005,
          5.50966652e-005, 3.96576470e-005, 5.30638536e-005,
          -4.35644979e-005, -1.76271060e-005, -7.92443898e-005,
          -1.85965382e-005, 2.45409410e-006, 1.47911815e-005,
          -2.29822308e-005 ]
      - [ -5.17497479e-004, 1.78575807e-004, 1.20361910e-004,
          -1.50081833e-004, -3.46579473e-004, -7.15692178e-004,
          1.56069364e-004, 5.47549644e-006, -2.31594604e-004,
          -7.67644786e-004, -1.91897314e-004, -3.99076771e-006,
          1.75850786e-004, -4.45485028e-004, 5.44009090e-004,
          4.98736394e-004, 1.54619964e-004, 1.07925538e-004,
          2.04801021e-004, -1.06564046e-004, -1.59729985e-004,
          3.07819311e-004, 2.88585201e-004, -1.10097775e-004,
          -6.12413787e-005, -8.12199782e-004, -3.33168718e-004,
          5.86799288e-004, 9.07051653e-005, -3.05212801e-004,
          2.61601934e-004, -5.29279758e-004, -7.96919514e-004,
          -2.82197143e-004, -1.33601541e-004, -4.55904839e-004,
          -2.62295449e-004, 2.78900960e-004, 6.55826239e-004,
          -1.47014827e-004, -8.84230467e-005, 3.66477580e-005,
          4.65861609e-004, -1.41987461e-004, -7.23698249e-005,
          6.28741574e-004, 2.28532735e-005, -6.03894936e-004,
          2.71502620e-004, 1.31298555e-004, 4.40184376e-004,
          5.26093936e-004, -2.31909449e-004, -5.98662264e-005,
          5.80604363e-004, 7.35377660e-004, -1.54659374e-005,
          -8.68893767e-005, -5.88389184e-006, 2.99389183e-004,
          -1.38758318e-004, -3.84809755e-005, 9.92953894e-004,
          -4.88834348e-006 ]
      - [ -3.49820621e-004, 1.27431675e-004, -1.22713100e-004,
          -1.77269743e-004, -5.69935546e-005, -9.05044319e-004,
          -6.95460069e-004, -2.47698015e-004, -5.22654154e-004,
          -1.63330289e-004, -1.59403324e-004, 4.37479524e-004,
          4.85679804e-004, 3.29309667e-004, -6.10781135e-005,
          -4.67158476e-004, -4.71029780e-004, -1.66093509e-004,
          -8.79626241e-005, 4.79484210e-004, 6.27769565e-004,
          -1.40569973e-004, -1.42425459e-004, 4.87461250e-004,
          -4.51269298e-004, -1.72370533e-003, -5.12227853e-005,
          -1.71817243e-004, 2.30773410e-004, -2.16601358e-004,
          -2.05048666e-004, -3.10568721e-004, -3.12631804e-004,
          -4.43514320e-004, -1.18375232e-004, -2.25156415e-004,
          -7.72725180e-005, 1.84778241e-004, 1.23188496e-004,
          1.58937502e-004, 5.78094448e-004, 1.74948203e-004,
          2.68371776e-004, 4.18617537e-006, -4.46606209e-005,
          -7.95177257e-005, 1.28516258e-004, -3.94637813e-004,
          2.92718643e-004, -1.82657954e-004, 4.83928598e-004,
          -1.98253154e-004, -8.68548013e-005, -7.55759465e-005,
          3.29574164e-006, -9.78869793e-005, -1.02106869e-005,
          4.27196472e-004, 2.02122537e-004, -1.46283186e-004,
          -1.66166370e-004, 8.01892893e-005, -1.85557321e-004,
          3.81230057e-005 ]
      - [ -8.41575151e-004, -1.18384829e-004, 1.25305723e-005,
          2.54957471e-004, -1.71414995e-005, -5.67753799e-004,
          -7.76765519e-004, -7.80725619e-004, -4.42470482e-005,
          -4.06691950e-004, -3.79128876e-004, -3.31572664e-005,
          1.92630949e-004, -4.94109700e-004, 4.02430778e-005,
          -3.42474610e-004, -1.47941159e-004, -8.41789006e-005,
          1.30381100e-004, 8.59640058e-005, -4.76274590e-006,
          -6.84243014e-006, 4.35842194e-005, -6.79789300e-005,
          -2.63460824e-004, -3.99975892e-004, 1.86351797e-004,
          -1.48315667e-004, 2.15119406e-004, -1.46862862e-004,
          1.18927288e-004, -1.70885629e-004, -4.31508932e-004,
          1.21335121e-004, -2.67670315e-004, -3.93139315e-004,
          -2.09337930e-004, 2.10911894e-004, 2.29535362e-004,
          1.01056270e-004, -8.10887359e-005, 1.79086128e-004,
          1.91071158e-004, -1.31177312e-005, 2.53135386e-005,
          -4.54576337e-004, -9.37687000e-005, -8.62644520e-005,
          1.23441409e-004, -1.52810244e-004, -1.37990413e-004,
          2.09785474e-004, 1.17993420e-006, 1.77755384e-004,
          6.49207912e-004, 1.05848892e-004, -2.45608302e-004,
          -5.12624465e-005, 4.57968941e-004, 1.49049985e-004,
          -6.48896093e-005, -1.21608697e-004, 6.88470027e-004,
          -2.95582315e-004 ]
      - [ 5.92049400e-005, 1.17035554e-004, 1.09860899e-004,
          -1.53871646e-004, 1.61591333e-006, 1.11152571e-004,
          1.03759099e-004, 1.05135376e-004, -3.61626735e-005,
          2.19204958e-006, -4.15307295e-005, -1.10380286e-004,
          7.62988748e-006, 8.54662539e-006, -3.58740690e-005,
          -9.40303726e-005, 1.70061438e-004, -4.00608151e-005,
          -1.46079678e-004, -2.31727754e-004, -3.19035062e-005,
          7.32419867e-005, 2.21977643e-005, 8.33314425e-006,
          1.95998087e-004, 6.30468276e-005, 6.16130201e-005,
          -2.38433604e-005, -8.73040699e-005, -3.68411092e-005,
          2.94729525e-005, 1.57772047e-005, 2.14129512e-004,
          1.51113723e-004, 2.02182146e-005, 7.35094945e-005,
          -2.17709676e-005, -1.57533417e-004, -4.48418905e-006,
          2.33502476e-004, 2.10661135e-004, 1.97006317e-004,
          -2.21366296e-004, -2.59026885e-004, -5.96500104e-005,
          4.02973228e-006, -8.88062132e-005, 7.01030731e-005,
          -1.88226637e-004, 2.09514037e-005, -5.37029337e-005,
          2.90069875e-005, -7.13790432e-005, -1.13443843e-004,
          -9.99943513e-005, -2.00746785e-004, 3.49569455e-005,
          2.02019442e-006, -2.17576217e-005, -1.20331706e-005,
          8.76206686e-005, 1.16908988e-004, 3.94198578e-005,
          -8.99269216e-005 ]
      - [ -9.13786644e-005, -9.91959023e-005, 3.42191226e-004,
          4.70126688e-004, 3.38970800e-004, 6.56551041e-004,
          4.44180068e-006, 4.67702557e-005, -1.17339478e-004,
          -1.24668168e-005, -4.64406417e-004, 1.10067536e-004,
          2.21258631e-007, 9.08113652e-005, 4.71250736e-004,
          -6.06297166e-004, -5.53262304e-004, -2.35476225e-004,
          -6.19666171e-005, 2.13445528e-004, -2.98677507e-004,
          1.46394130e-004, -6.18818594e-005, -7.14614464e-004,
          -3.65321670e-004, 8.10358906e-004, 2.10600876e-004,
          3.65195156e-004, 2.65128328e-004, 1.64242621e-004,
          -2.33575527e-004, -8.44953931e-004, 5.74407226e-004,
          7.78169488e-004, -2.33768315e-005, -1.18704549e-004,
          -3.73327639e-004, -1.34649454e-004, 3.84448911e-004,
          9.38316516e-004, 8.14011320e-004, 1.67441554e-004,
          8.83318353e-005, -1.92803651e-004, -6.46517437e-005,
          8.61775770e-005, 2.79857177e-005, 4.53850080e-004,
          -5.12094812e-005, -1.99882794e-004, -6.35402626e-004,
          2.31986793e-004, -5.07070217e-004, -4.57582501e-004,
          -1.32714165e-004, -1.18683325e-003, -7.24985948e-005,
          -1.31622626e-004, -3.76213779e-004, -3.20412597e-004,
          -4.13398200e-004, 2.28190969e-004, 1.96340668e-004,
          -4.10346256e-004 ]
      - [ 2.13045860e-004, 2.21397466e-004, 2.06909972e-004,
          -5.37604094e-004, -4.16802824e-004, -1.33061490e-004,
          8.45337752e-004, 8.20416259e-004, -2.74809747e-004,
          -2.27962853e-004, -5.45620453e-004, -1.71466570e-004,
          -2.10879138e-004, -1.50990600e-004, 1.26115614e-004,
          -1.54716137e-004, -1.76729198e-004, -1.17046264e-004,
          -5.06718119e-004, -1.04596751e-004, 1.22425932e-004,
          1.31608060e-004, 7.02501929e-005, -3.22113483e-004,
          -1.02765785e-006, -1.23075879e-004, -2.02763753e-004,
          5.43125672e-004, 4.66971484e-004, -5.32078848e-005,
          -5.77400860e-005, -7.99492627e-005, -1.11175905e-004,
          5.00830356e-004, -1.63081597e-004, 1.21451878e-004,
          -4.20781471e-005, -9.77909513e-005, -3.17703292e-004,
          -3.39315739e-004, -1.71132750e-004, -2.38664754e-004,
          1.13426053e-004, 2.97540851e-006, -4.27697989e-004,
          1.77842885e-004, -2.88038224e-004, -3.08557137e-005,
          -2.28582110e-004, -3.65721819e-004, -2.96954131e-005,
          3.07862792e-005, 9.02881438e-005, 2.10709637e-004,
          -1.38351796e-004, -2.06555036e-004, -9.58490564e-005,
          -8.52466328e-005, -1.28563421e-004, -1.13864530e-006,
          2.43630668e-004, -1.70379244e-005, 1.99720685e-004,
          2.54320446e-004 ]
      - [ 4.93234606e-004, 5.28586563e-004, -6.45065593e-005,
          -2.87256611e-004, -1.26097482e-004, 7.77330279e-005,
          4.58751980e-004, 2.73927930e-004, -2.26433083e-004,
          7.78229805e-005, -7.87742974e-005, -2.38056440e-004,
          2.40624686e-005, -1.28188360e-004, -3.33585835e-004,
          -2.77478102e-004, -2.62875576e-004, -2.71176104e-004,
          -2.83587782e-004, -3.19294573e-004, -2.37331202e-004,
          -1.57349234e-004, -3.48696776e-005, -4.66153229e-004,
          3.33577744e-004, -7.96740205e-005, 1.77329275e-004,
          3.31060990e-004, 1.21261954e-004, 1.02721388e-004,
          -3.98310804e-004, -1.04167593e-004, 4.08691994e-004,
          1.49818472e-004, 1.65315680e-004, 3.25548637e-004,
          -1.43288518e-004, -1.10513800e-004, -1.36011877e-004,
          2.66456500e-005, 2.21746406e-004, 1.26758368e-005,
          -2.20984803e-005, -6.62437378e-005, -7.54672074e-005,
          -4.94615873e-004, -1.56017661e-004, 4.14262468e-004,
          -7.19574920e-004, 2.43810049e-004, -1.91974643e-004,
          -8.51550139e-005, 9.10283561e-005, 1.81674059e-005,
          -5.65567694e-004, -7.04990525e-004, 1.17497169e-004,
          1.81626645e-004, -2.52373517e-004, 4.72933389e-005,
          2.06513185e-004, 4.76288784e-004, 9.80438999e-005,
          2.91032666e-005 ]
      - [ -7.05347475e-006, 6.90410961e-005, 3.64521293e-005,
          -4.98162059e-004, -3.46010464e-004, 5.80032298e-004,
          -1.11536647e-004, 1.79301162e-004, -1.89315935e-004,
          -6.94538539e-005, -3.09561845e-004, 9.49689711e-005,
          2.39123037e-005, -4.72700922e-005, 1.52790235e-004,
          -2.61990703e-004, -9.98281612e-005, -8.39111235e-005,
          -9.92853165e-005, -2.55934487e-004, -3.02265398e-004,
          -3.50647664e-004, -2.02024603e-004, 4.45675832e-004,
          3.01868276e-004, 2.72954872e-004, 6.62125938e-004,
          3.14758800e-004, 2.85281538e-004, -7.66079102e-005,
          -1.53516186e-004, 7.36425227e-006, 3.27091198e-004,
          2.85754708e-004, 3.77477554e-004, -7.73581814e-006,
          2.65016803e-004, -3.13650293e-004, -1.96780093e-004,
          2.40289392e-005, -1.22941405e-004, -1.30045655e-005,
          6.14888049e-005, -5.11154125e-004, -2.81303510e-004,
          -6.65746280e-004, -9.36765806e-004, 2.94547441e-004,
          -2.61882902e-004, -1.47662140e-004, -6.28096677e-006,
          -3.88529370e-005, 8.35875617e-005, 4.23171354e-004,
          -4.77252543e-005, -2.93065114e-005, -5.06561410e-005,
          -1.96242345e-005, 1.25610357e-004, 5.07806661e-004,
          -4.46696853e-004, 1.13916249e-004, -1.56271301e-004,
          -1.82204923e-004 ]
      - [ 4.67781792e-005, -1.19155498e-004, -8.45979685e-006,
          -1.07740498e-005, 1.83761687e-004, 1.04326515e-004,
          -4.23385382e-006, 1.54056019e-004, -2.95326336e-005,
          -1.79700772e-004, -1.25938343e-004, 8.18611297e-005,
          5.44414870e-005, 4.24167847e-005, 1.84678633e-004,
          6.91317618e-005, -4.11013461e-004, -1.27631589e-004,
          1.57403665e-005, 3.78050681e-005, 6.95883500e-005,
          -1.89244034e-004, 1.77709444e-004, -2.17640205e-004,
          -3.74567579e-004, -2.46093230e-004, 4.69852057e-005,
          2.14648113e-004, 3.35580298e-005, 1.63989549e-004,
          -1.91258529e-004, -3.80703626e-004, 9.13164513e-006,
          6.03306980e-005, 7.92652427e-005, -4.41409566e-006,
          1.54357142e-004, 1.19305012e-004, 1.19365041e-005,
          -1.11367372e-004, -5.04156815e-005, 9.64576611e-005,
          2.42366616e-004, 2.57780863e-004, 3.36088939e-004,
          -5.08633129e-005, 4.34066351e-005, 1.55617636e-005,
          1.37150826e-004, -1.02005673e-004, 9.72785638e-005,
          -1.95264613e-004, 1.47690662e-004, -2.24365867e-005,
          -4.24345963e-005, 3.95680436e-005, -4.46054182e-005,
          -1.22846919e-004, -1.95170214e-004, -1.49423853e-004,
          -9.17656798e-005, -1.04726998e-004, 1.66950689e-004,
          -1.05393607e-004 ]
      - [ 1.18212585e-004, -2.26488282e-005, -5.08233243e-005,
          -1.10766385e-004, -1.00252757e-004, 2.35214466e-004,
          1.46418664e-004, 1.43075682e-004, 4.98427762e-005,
          -1.09895955e-004, -2.90848784e-005, 2.22193426e-004,
          -9.46977889e-005, -1.28905187e-004, 1.24867278e-004,
          1.55869027e-004, -2.13388965e-004, -2.05206634e-005,
          7.95056840e-005, 2.87467810e-006, 1.56840892e-004,
          1.70616564e-004, 9.06474743e-005, -5.11020116e-005,
          -1.81060037e-004, 2.43890863e-005, 9.17237867e-006,
          2.19105423e-004, 1.12257170e-004, 3.59665682e-005,
          1.35776951e-004, -1.31085035e-004, -3.51156545e-004,
          -2.07114150e-004, -8.96749843e-005, -2.30052145e-004,
          2.21429618e-005, 3.15538309e-005, 1.00169898e-004,
          -3.21318279e-004, -2.39347515e-004, -2.23727548e-004,
          4.70338964e-005, 1.70164552e-004, -1.00437101e-004,
          -5.30525540e-005, 3.29764080e-005, -1.06846899e-004,
          1.89162834e-004, 1.55779373e-004, 2.66948064e-005,
          1.24079656e-004, -1.16491734e-004, 1.90062219e-005,
          1.42485544e-004, 1.68624319e-004, 1.02133763e-005,
          -1.33133173e-004, -3.70614798e-005, -2.44888429e-006,
          -1.12088028e-005, 2.78555217e-005, 1.37773295e-005,
          -5.72132449e-005 ]
      - [ 1.43711994e-004, 3.44422915e-005, -9.33910051e-005,
          -2.61182751e-004, -2.36907130e-004, -2.63554743e-004,
          -4.08002452e-005, 3.43587395e-004, -4.26261322e-005,
          8.14340528e-005, -8.02280701e-005, 2.04203665e-004,
          2.98835861e-004, 1.44796999e-004, 1.34352940e-005,
          3.17653117e-004, -1.04308676e-003, -1.32643763e-004,
          3.20700550e-004, 6.88795291e-004, 1.88730090e-004,
          2.76701554e-004, 3.41528037e-004, 1.18551419e-004,
          -1.08804752e-003, 1.24251947e-005, 5.11579747e-005,
          3.24531371e-004, -7.65544537e-005, 1.51075044e-004,
          -1.21360710e-004, -4.92718827e-004, -1.22983637e-003,
          -3.97559983e-004, -3.46437620e-004, -1.36074494e-004,
          -1.83018274e-004, 1.68004743e-004, 1.77318172e-004,
          -1.08214103e-004, -4.98229172e-004, 4.54958263e-006,
          2.67616328e-004, 3.91830137e-004, 4.85687400e-004,
          -1.97741087e-003, -2.30684582e-005, -2.24248797e-004,
          7.76475295e-004, -1.54353344e-004, -7.95973247e-005,
          7.31364562e-005, 1.58108989e-004, -1.40314281e-004,
          -3.49031878e-004, -2.31224752e-004, 1.18065182e-004,
          -1.54141584e-004, -1.90078921e-004, -8.48263662e-005,
          2.85486254e-004, -1.71625099e-004, 4.92628315e-004,
          -1.22364057e-004 ]
      - [ -2.86675659e-005, -1.05084968e-004, -3.10744188e-004,
          -7.27853012e-006, -1.23423990e-004, 6.88568616e-005,
          4.32924071e-006, 4.16576950e-006, 6.75257397e-005,
          -4.35352355e-004, -3.13339551e-005, 1.18910204e-004,
          -2.28786666e-005, -1.57752482e-004, 1.86042496e-004,
          8.51119185e-005, -1.34816757e-004, 4.56619891e-005,
          3.97498428e-004, 1.22114769e-004, 6.10037278e-005,
          -1.19038938e-004, 4.44424622e-005, 6.65536645e-005,
          -2.00641123e-004, 2.83997706e-005, 1.81076917e-004,
          -1.27836802e-005, 8.96390629e-005, 1.37381954e-004,
          1.09095199e-004, -1.46469218e-004, -6.33994117e-004,
          -2.09886974e-004, -2.62721878e-004, -4.07701773e-005,
          2.36281576e-005, 7.71729901e-005, 1.17503943e-004,
          -4.46153019e-004, -2.64804228e-004, -1.17159318e-004,
          1.12982190e-004, 1.25933409e-004, -4.80235030e-005,
          2.06027125e-005, 1.01582897e-004, -4.06665677e-005,
          1.15975592e-004, -1.94363711e-005, -4.20244651e-005,
          7.54605644e-005, 2.06014884e-004, 2.07334393e-004,
          2.30194797e-004, 1.32581670e-004, -1.49013911e-004,
          -1.84157019e-004, 1.03058937e-005, 6.96940624e-005,
          7.31857926e-006, -1.72564160e-005, 2.67147771e-005,
          -5.00764800e-005 ]
      - [ 7.61743286e-005, 5.51943485e-005, -5.60393164e-005,
          -1.64867306e-004, -1.91670653e-004, -6.24210661e-005,
          1.08376826e-005, 6.60670630e-005, -3.52763564e-005,
          -6.41021543e-005, -6.39299542e-005, -3.20220388e-005,
          -1.62556724e-004, -1.65450925e-004, -1.01792779e-004,
          1.01167452e-005, 8.87860006e-005, -7.98201017e-006,
          -2.91165888e-005, -5.36345324e-005, 7.73727879e-005,
          5.50930308e-005, 5.30379111e-005, 7.32636327e-005,
          -4.27164632e-005, 5.49772740e-005, 8.10981692e-006,
          2.67194300e-005, 8.58334315e-005, 6.42216401e-005,
          9.06916321e-005, 5.17262306e-005, -1.17925651e-004,
          -6.74940093e-005, 1.60811142e-005, 9.63848834e-006,
          -7.08014486e-005, 7.48267921e-005, -7.48941966e-005,
          -1.49382293e-004, -1.72074171e-004, -7.51699990e-005,
          -2.00229442e-005, -3.59287151e-005, -7.23019257e-005,
          -2.38159955e-005, -9.08432339e-005, -1.08611144e-004,
          1.23996597e-005, -3.66724707e-005, 1.83447046e-005,
          6.76971249e-005, 4.19852731e-005, 7.96793101e-005,
          6.10689458e-005, 3.93236187e-005, -2.48882352e-005,
          -2.05083797e-005, 1.05806859e-004, 1.24004451e-004,
          5.35300969e-005, 5.43762108e-005, 2.42370697e-005,
          3.87428299e-005 ]
      - [ 2.15625230e-004, 1.72092288e-004, -1.97380621e-004,
          -4.69624269e-004, -5.45199553e-004, -2.23097202e-004,
          1.92383450e-004, 1.27415537e-004, -1.59155563e-004,
          2.99528969e-004, -1.05567906e-005, -1.43399229e-004,
          -2.86933675e-004, -2.11969760e-004, -6.98298682e-004,
          -1.70449770e-004, 2.12140003e-004, 2.76878040e-004,
          -2.79951841e-004, -1.01064885e-004, 4.69726183e-005,
          2.08635684e-004, -1.04469385e-004, 6.60262303e-005,
          -3.00992560e-005, 1.96904613e-004, -2.46630188e-005,
          9.61721798e-006, -1.75531641e-005, 7.93503641e-005,
          1.08339504e-004, 1.08031425e-004, -4.80739873e-005,
          -3.18166713e-004, -1.10755333e-004, 1.21389719e-004,
          -5.89022929e-005, 1.95414559e-005, -1.84405129e-004,
          -5.11780847e-004, -4.60430660e-004, -1.01672777e-004,
          -1.98959184e-004, -1.76651403e-004, -4.70633167e-005,
          -1.04269871e-004, -2.71993667e-005, -4.81817333e-005,
          -1.59598116e-004, 1.63778204e-005, -1.49246131e-004,
          3.34691111e-004, 2.60436471e-004, -1.66356025e-004,
          -4.80077651e-005, 1.38191444e-005, 4.77130779e-005,
          4.20708791e-004, 2.48590095e-005, 1.15394847e-004,
          5.67054849e-005, 5.82981374e-006, -1.29123873e-004,
          1.89083192e-004 ]
      - [ 1.28806190e-004, 2.58370765e-005, -1.71816733e-004,
          -2.13698731e-004, 5.10461348e-007, -1.69049399e-005,
          2.77260483e-006, 7.42749253e-005, -8.58918138e-005,
          -5.14076055e-005, 1.58331713e-005, -9.24301930e-005,
          -1.06606291e-004, -1.46448845e-004, -1.50482738e-004,
          -7.11834509e-005, 6.17561600e-005, -1.00502612e-005,
          2.84915532e-005, 7.41686790e-007, 4.72444663e-005,
          1.87012465e-005, -7.49680112e-005, 7.32841727e-005,
          7.70597253e-005, 1.08551925e-004, -8.92950811e-006,
          3.12072698e-005, -8.09680296e-006, 7.46820224e-005,
          8.72055462e-005, 1.67088670e-004, -8.11959471e-005,
          -1.01577389e-004, 1.07015858e-005, -6.50922957e-005,
          3.40280749e-005, -8.26114920e-005, -6.41425941e-005,
          -1.16493269e-004, -2.68985401e-004, -4.46129852e-005,
          -2.01423045e-005, -1.09340879e-004, -2.70573200e-005,
          -6.99825468e-005, -2.75528273e-005, -8.07067336e-005,
          -6.53995594e-005, 4.74876433e-005, -1.15687135e-005,
          -5.47332502e-006, 1.19048345e-004, 7.36903166e-005,
          1.68554281e-004, -3.06289439e-005, -1.20360441e-004,
          -1.17613117e-005, 1.74070490e-004, 1.69550505e-004,
          2.76330575e-005, -2.83692625e-005, -3.23498280e-005,
          3.65480664e-005 ]
      - [ 7.26239086e-005, 3.03641282e-004, -4.69328734e-005,
          -1.05271130e-004, 2.46246811e-004, 6.76635100e-005,
          -7.46129372e-004, 1.03619561e-004, 1.54551482e-004,
          1.24794797e-005, 4.08286323e-005, 2.75147875e-004,
          2.63721740e-004, 8.68538991e-005, -8.67421986e-005,
          -4.14831389e-004, -1.63670891e-004, -3.30653274e-004,
          9.13086624e-005, 5.72342651e-005, -3.30639683e-004,
          -5.48658485e-004, -4.82724048e-004, -1.50693901e-004,
          2.12877479e-004, -2.15779393e-004, 2.90051656e-004,
          -5.76432329e-004, -1.58098846e-004, -1.86453748e-004,
          -3.78987374e-004, 5.78457330e-005, -5.31306114e-006,
          4.51571286e-005, -6.11933210e-005, 1.63383287e-004,
          4.02513324e-005, -2.58948785e-005, -1.93412154e-004,
          3.57905752e-004, 4.36821749e-004, 2.28117438e-004,
          -2.05416480e-004, 3.67738030e-005, -9.16070348e-005,
          2.98698360e-005, 2.84654467e-004, 2.33191226e-004,
          -3.37673526e-004, -2.49008386e-004, -1.49983913e-004,
          -3.34290351e-004, 2.20652510e-004, 2.68739561e-004,
          -5.32512029e-004, -7.21715740e-004, -4.76647037e-005,
          1.84706354e-004, -1.13800597e-004, 9.47294247e-005,
          -8.71116863e-005, -8.22403526e-005, -2.91149481e-004,
          2.03593387e-004 ]
      - [ -3.76329008e-005, -5.22363371e-005, -5.65226001e-005,
          -2.06134646e-005, 5.68009709e-005, 7.57751986e-005,
          -3.79439851e-004, -1.44951206e-004, -1.24618105e-004,
          -3.96790929e-005, -5.53267055e-005, -3.48917201e-005,
          -5.12369625e-005, -6.12336153e-005, -2.03819247e-004,
          -1.31390247e-004, -3.41157283e-005, 7.32216868e-005,
          9.41060498e-005, -1.62253738e-004, 7.92464925e-005,
          -5.25485550e-004, -5.72423800e-004, 3.09720344e-004,
          1.10052533e-004, 1.12958005e-004, 1.30757089e-005,
          -4.68381586e-005, -1.26551080e-004, -1.05107021e-004,
          -3.44571636e-005, 3.69370464e-005, 1.09362445e-004,
          4.66395213e-005, 4.36296250e-005, 1.07032698e-004,
          5.99760569e-005, 1.54652444e-005, 4.56794769e-005,
          6.61073500e-005, 4.51778651e-005, -1.59120336e-005,
          6.11818759e-005, -8.99315783e-005, 1.31664847e-005,
          -3.54931653e-005, -2.34739673e-006, 8.17145410e-005,
          -8.84983237e-005, -4.71472740e-005, 2.72336888e-006,
          1.33864914e-005, 6.45862456e-005, -2.04243872e-004,
          1.30386776e-004, 1.77581624e-005, -8.11192240e-006,
          2.92292571e-005, 7.40353971e-006, 2.32320293e-004,
          8.49163262e-005, 3.00596403e-005, -1.66175130e-004,
          -2.12474421e-004 ]
      - [ -5.33655286e-004, -4.54725319e-004, -3.60739912e-004,
          1.72800297e-004, 1.75871202e-004, 1.42082266e-004,
          1.79380309e-004, 1.41485987e-004, -1.89906117e-004,
          -6.61611441e-004, -2.40541747e-004, -4.74904344e-004,
          -9.62045960e-005, -1.97450281e-004, -1.23064252e-004,
          -2.61064153e-004, 2.72873323e-004, 2.06738725e-004,
          1.51125583e-004, 6.71360540e-005, -1.23302554e-004,
          -3.14576784e-004, -2.84458452e-004, 2.56872183e-004,
          1.93807828e-005, 1.98830370e-004, 9.34874770e-005,
          4.20637603e-004, 1.57318209e-004, -1.98951639e-005,
          4.75728157e-004, 5.78363193e-004, 4.21603727e-006,
          2.54329527e-004, -3.38862126e-004, -4.82283358e-005,
          -1.70444357e-004, -3.16029502e-004, -3.79043981e-004,
          -1.42928882e-004, -3.55671888e-004, -1.14751150e-004,
          1.23267746e-004, -6.59031793e-005, -1.11223984e-004,
          -3.71951843e-004, -1.70164742e-004, -2.86859780e-004,
          -8.40371576e-005, -2.47462394e-005, 2.75715516e-004,
          2.07702047e-004, 1.88427555e-004, 2.03448086e-004,
          7.14399095e-004, 4.91542509e-004, -1.26918767e-005,
          4.17257434e-005, 3.44256929e-004, 4.10248525e-004,
          2.62972113e-004, 4.05254759e-005, -5.02205367e-005,
          -4.31268963e-005 ]
   decision_functions:
      -
         sv_count: 1
         rho: 2.2739473390867868e+000
         alpha: [ 1. ]
         index: [ 0 ]
      -
         sv_count: 1
         rho: 7.5623952976887032e-001
         alpha: [ 1. ]
         index: [ 1 ]
      -
         sv_count: 1
         rho: 4.6821953021463969e-001
         alpha: [ 1. ]
         index: [ 2 ]
      -
         sv_count: 1
         rho: 1.0017290015550817e+000
         alpha: [ 1. ]
         index: [ 3 ]
      -
         sv_count: 1
         rho: 1.3238426062509570e+000
         alpha: [ 1. ]
         index: [ 4 ]
      -
         sv_count: 1
         rho: 4.8146919765275759e-001
         alpha: [ 1. ]
         index: [ 5 ]
      -
         sv_count: 1
         rho: 5.8381186120806150e-001
         alpha: [ 1. ]
         index: [ 6 ]
      -
         sv_count: 1
         rho: 1.1793349943460445e+000
         alpha: [ 1. ]
         index: [ 7 ]
      -
         sv_count: 1
         rho: 1.1086911629496683e-001
         alpha: [ 1. ]
         index: [ 8 ]
      -
         sv_count: 1
         rho: 7.9140680846202038e-001
         alpha: [ 1. ]
         index: [ 9 ]
      -
         sv_count: 1
         rho: 3.4213170901670371e-002
         alpha: [ 1. ]
         index: [ 10 ]
      -
         sv_count: 1
         rho: -7.4716663560033036e-002
         alpha: [ 1. ]
         index: [ 11 ]
      -
         sv_count: 1
         rho: 7.2633011688623197e-002
         alpha: [ 1. ]
         index: [ 12 ]
      -
         sv_count: 1
         rho: 3.5007923448445027e-002
         alpha: [ 1. ]
         index: [ 13 ]
      -
         sv_count: 1
         rho: -3.6904306682757376e-001
         alpha: [ 1. ]
         index: [ 14 ]
      -
         sv_count: 1
         rho: 9.5276751607663368e-001
         alpha: [ 1. ]
         index: [ 15 ]
      -
         sv_count: 1
         rho: 7.3632787845740511e-001
         alpha: [ 1. ]
         index: [ 16 ]
      -
         sv_count: 1
         rho: -4.0850464933478531e-001
         alpha: [ 1. ]
         index: [ 17 ]
      -
         sv_count: 1
         rho: 1.5247868376168539e-001
         alpha: [ 1. ]
         index: [ 18 ]
      -
         sv_count: 1
         rho: 5.4950639804400980e-001
         alpha: [ 1. ]
         index: [ 19 ]
      -
         sv_count: 1
         rho: -8.2123270831709783e-001
         alpha: [ 1. ]
         index: [ 20 ]
      -
         sv_count: 1
         rho: -3.3740550691265092e+000
         alpha: [ 1. ]
         index: [ 21 ]
      -
         sv_count: 1
         rho: -3.1625665919409927e+000
         alpha: [ 1. ]
         index: [ 22 ]
      -
         sv_count: 1
         rho: -1.5918419513935447e+000
         alpha: [ 1. ]
         index: [ 23 ]
      -
         sv_count: 1
         rho: -8.5480645028991137e-002
         alpha: [ 1. ]
         index: [ 24 ]
      -
         sv_count: 1
         rho: 1.5587353902377437e+000
         alpha: [ 1. ]
         index: [ 25 ]
      -
         sv_count: 1
         rho: -4.3281705188451414e-001
         alpha: [ 1. ]
         index: [ 26 ]
      -
         sv_count: 1
         rho: 9.9288847951036685e-001
         alpha: [ 1. ]
         index: [ 27 ]
      -
         sv_count: 1
         rho: -7.0353106853699598e-001
         alpha: [ 1. ]
         index: [ 28 ]
      -
         sv_count: 1
         rho: -2.7678396396271467e+000
         alpha: [ 1. ]
         index: [ 29 ]
      -
         sv_count: 1
         rho: 3.5639465459504849e-001
         alpha: [ 1. ]
         index: [ 30 ]
      -
         sv_count: 1
         rho: -4.0221273074006456e+000
         alpha: [ 1. ]
         index: [ 31 ]
      -
         sv_count: 1
         rho: -3.9816139743583676e+000
         alpha: [ 1. ]
         index: [ 32 ]
      -
         sv_count: 1
         rho: -5.2855470722642428e-001
         alpha: [ 1. ]
         index: [ 33 ]
      -
         sv_count: 1
         rho: -7.4457184223562145e-001
         alpha: [ 1. ]
         index: [ 34 ]
      -
         sv_count: 1
         rho: -1.7321553794272142e+000
         alpha: [ 1. ]
         index: [ 35 ]
      -
         sv_count: 1
         rho: -8.8106017458727015e-001
         alpha: [ 1. ]
         index: [ 36 ]
      -
         sv_count: 1
         rho: -2.2768338587692636e+000
         alpha: [ 1. ]
         index: [ 37 ]
      -
         sv_count: 1
         rho: -2.0587856935935980e+000
         alpha: [ 1. ]
         index: [ 38 ]
      -
         sv_count: 1
         rho: -2.3598025620745744e-001
         alpha: [ 1. ]
         index: [ 39 ]
      -
         sv_count: 1
         rho: -9.5052549700170547e-002
         alpha: [ 1. ]
         index: [ 40 ]
      -
         sv_count: 1
         rho: -5.0541114786004848e-001
         alpha: [ 1. ]
         index: [ 41 ]
      -
         sv_count: 1
         rho: -1.3691069217716065e+000
         alpha: [ 1. ]
         index: [ 42 ]
      -
         sv_count: 1
         rho: -5.5399530841430844e-001
         alpha: [ 1. ]
         index: [ 43 ]
      -
         sv_count: 1
         rho: -1.7095723583582265e+000
         alpha: [ 1. ]
         index: [ 44 ]
